digraph Tree {
node [shape=box, style="filled, rounded", color="black", fontname=helvetica] ;
edge [fontname=helvetica] ;
0 [label="CBOEVIX_spr <= -0.0\ngini = 0.731\nsamples = 6870\nvalue = [2161, 1295, 1190, 2224]\nclass = BL", fillcolor="#fefcff"] ;
1 [label="SMBVol <= 0.0\ngini = 0.717\nsamples = 3744\nvalue = [1475, 757, 570, 942]\nclass = SH", fillcolor="#fae7d9"] ;
0 -> 1 [labeldistance=2.5, labelangle=45, headlabel="True"] ;
2 [label="SMBVol <= 0.0\ngini = 0.732\nsamples = 2577\nvalue = [874, 507, 452, 744]\nclass = SH", fillcolor="#fdf6f1"] ;
1 -> 2 ;
3 [label="SHCov <= 0.0\ngini = 0.694\nsamples = 1190\nvalue = [539, 238, 196, 217]\nclass = SH", fillcolor="#f7d7c0"] ;
2 -> 3 ;
4 [label="SHCovp <= -279.563\ngini = 0.671\nsamples = 857\nvalue = [407, 223, 98, 129]\nclass = SH", fillcolor="#f7dac6"] ;
3 -> 4 ;
5 [label="HMLp <= 218.277\ngini = 0.593\nsamples = 36\nvalue = [4, 0, 16, 16]\nclass = BH", fillcolor="#ffffff"] ;
4 -> 5 ;
6 [label="SMBp <= 270.365\ngini = 0.499\nsamples = 31\nvalue = [0, 0, 15, 16]\nclass = BL", fillcolor="#fcf3fd"] ;
5 -> 6 ;
7 [label="HMLVol <= 0.0\ngini = 0.375\nsamples = 16\nvalue = [0, 0, 4, 12]\nclass = BL", fillcolor="#e47bee"] ;
6 -> 7 ;
8 [label="gini = 0.0\nsamples = 3\nvalue = [0, 0, 3, 0]\nclass = BH", fillcolor="#399de5"] ;
7 -> 8 ;
9 [label="HLcov <= 0.168\ngini = 0.142\nsamples = 13\nvalue = [0, 0, 1, 12]\nclass = BL", fillcolor="#da49e7"] ;
7 -> 9 ;
10 [label="gini = 0.0\nsamples = 1\nvalue = [0, 0, 1, 0]\nclass = BH", fillcolor="#399de5"] ;
9 -> 10 ;
11 [label="gini = 0.0\nsamples = 12\nvalue = [0, 0, 0, 12]\nclass = BL", fillcolor="#d739e5"] ;
9 -> 11 ;
12 [label="HML_mom <= 1.006\ngini = 0.391\nsamples = 15\nvalue = [0, 0, 11, 4]\nclass = BH", fillcolor="#81c1ee"] ;
6 -> 12 ;
13 [label="SBcov <= 0.124\ngini = 0.375\nsamples = 4\nvalue = [0, 0, 1, 3]\nclass = BL", fillcolor="#e47bee"] ;
12 -> 13 ;
14 [label="gini = 0.0\nsamples = 1\nvalue = [0, 0, 1, 0]\nclass = BH", fillcolor="#399de5"] ;
13 -> 14 ;
15 [label="gini = 0.0\nsamples = 3\nvalue = [0, 0, 0, 3]\nclass = BL", fillcolor="#d739e5"] ;
13 -> 15 ;
16 [label="HML_mom <= 1.037\ngini = 0.165\nsamples = 11\nvalue = [0, 0, 10, 1]\nclass = BH", fillcolor="#4da7e8"] ;
12 -> 16 ;
17 [label="gini = 0.0\nsamples = 10\nvalue = [0, 0, 10, 0]\nclass = BH", fillcolor="#399de5"] ;
16 -> 17 ;
18 [label="gini = 0.0\nsamples = 1\nvalue = [0, 0, 0, 1]\nclass = BL", fillcolor="#d739e5"] ;
16 -> 18 ;
19 [label="HML_mom <= 1.016\ngini = 0.32\nsamples = 5\nvalue = [4, 0, 1, 0]\nclass = SH", fillcolor="#eca06a"] ;
5 -> 19 ;
20 [label="gini = 0.0\nsamples = 4\nvalue = [4, 0, 0, 0]\nclass = SH", fillcolor="#e58139"] ;
19 -> 20 ;
21 [label="gini = 0.0\nsamples = 1\nvalue = [0, 0, 1, 0]\nclass = BH", fillcolor="#399de5"] ;
19 -> 21 ;
22 [label="SHCovp <= -13.037\ngini = 0.656\nsamples = 821\nvalue = [403, 223, 82, 113]\nclass = SH", fillcolor="#f7d9c3"] ;
4 -> 22 ;
23 [label="Rsqr <= 0.108\ngini = 0.544\nsamples = 355\nvalue = [218, 95, 20, 22]\nclass = SH", fillcolor="#f3c3a1"] ;
22 -> 23 ;
24 [label="HLcov <= 0.35\ngini = 0.593\nsamples = 129\nvalue = [53, 62, 4, 10]\nclass = SL", fillcolor="#e9fce8"] ;
23 -> 24 ;
25 [label="SHCovp <= -35.802\ngini = 0.359\nsamples = 56\nvalue = [5, 44, 0, 7]\nclass = SL", fillcolor="#74eb69"] ;
24 -> 25 ;
26 [label="HMLp <= -132.666\ngini = 0.198\nsamples = 45\nvalue = [5, 40, 0, 0]\nclass = SL", fillcolor="#5ee852"] ;
25 -> 26 ;
27 [label="SHCovp <= -155.658\ngini = 0.5\nsamples = 8\nvalue = [4, 4, 0, 0]\nclass = SH", fillcolor="#ffffff"] ;
26 -> 27 ;
28 [label="gini = 0.0\nsamples = 4\nvalue = [0, 4, 0, 0]\nclass = SL", fillcolor="#47e539"] ;
27 -> 28 ;
29 [label="gini = 0.0\nsamples = 4\nvalue = [4, 0, 0, 0]\nclass = SH", fillcolor="#e58139"] ;
27 -> 29 ;
30 [label="HMLVol <= 0.0\ngini = 0.053\nsamples = 37\nvalue = [1, 36, 0, 0]\nclass = SL", fillcolor="#4ce63e"] ;
26 -> 30 ;
31 [label="gini = 0.0\nsamples = 34\nvalue = [0, 34, 0, 0]\nclass = SL", fillcolor="#47e539"] ;
30 -> 31 ;
32 [label="SBcov <= 0.109\ngini = 0.444\nsamples = 3\nvalue = [1, 2, 0, 0]\nclass = SL", fillcolor="#a3f29c"] ;
30 -> 32 ;
33 [label="gini = 0.0\nsamples = 1\nvalue = [1, 0, 0, 0]\nclass = SH", fillcolor="#e58139"] ;
32 -> 33 ;
34 [label="gini = 0.0\nsamples = 2\nvalue = [0, 2, 0, 0]\nclass = SL", fillcolor="#47e539"] ;
32 -> 34 ;
35 [label="HLcov <= 0.264\ngini = 0.463\nsamples = 11\nvalue = [0, 4, 0, 7]\nclass = BL", fillcolor="#eeaaf4"] ;
25 -> 35 ;
36 [label="gini = 0.0\nsamples = 7\nvalue = [0, 0, 0, 7]\nclass = BL", fillcolor="#d739e5"] ;
35 -> 36 ;
37 [label="gini = 0.0\nsamples = 4\nvalue = [0, 4, 0, 0]\nclass = SL", fillcolor="#47e539"] ;
35 -> 37 ;
38 [label="HMLp <= 84.622\ngini = 0.502\nsamples = 73\nvalue = [48, 18, 4, 3]\nclass = SH", fillcolor="#f1ba93"] ;
24 -> 38 ;
39 [label="HMLVol <= 0.0\ngini = 0.46\nsamples = 68\nvalue = [48, 13, 4, 3]\nclass = SH", fillcolor="#eeaf81"] ;
38 -> 39 ;
40 [label="SHCovp <= -188.487\ngini = 0.185\nsamples = 40\nvalue = [36, 2, 2, 0]\nclass = SH", fillcolor="#e88e4e"] ;
39 -> 40 ;
41 [label="gini = 0.0\nsamples = 2\nvalue = [0, 0, 2, 0]\nclass = BH", fillcolor="#399de5"] ;
40 -> 41 ;
42 [label="SMB_mom <= 1.06\ngini = 0.1\nsamples = 38\nvalue = [36, 2, 0, 0]\nclass = SH", fillcolor="#e68844"] ;
40 -> 42 ;
43 [label="HLcov <= 0.351\ngini = 0.053\nsamples = 37\nvalue = [36, 1, 0, 0]\nclass = SH", fillcolor="#e6843e"] ;
42 -> 43 ;
44 [label="SMB_mom <= 1.007\ngini = 0.375\nsamples = 4\nvalue = [3, 1, 0, 0]\nclass = SH", fillcolor="#eeab7b"] ;
43 -> 44 ;
45 [label="gini = 0.0\nsamples = 1\nvalue = [0, 1, 0, 0]\nclass = SL", fillcolor="#47e539"] ;
44 -> 45 ;
46 [label="gini = 0.0\nsamples = 3\nvalue = [3, 0, 0, 0]\nclass = SH", fillcolor="#e58139"] ;
44 -> 46 ;
47 [label="gini = 0.0\nsamples = 33\nvalue = [33, 0, 0, 0]\nclass = SH", fillcolor="#e58139"] ;
43 -> 47 ;
48 [label="gini = 0.0\nsamples = 1\nvalue = [0, 1, 0, 0]\nclass = SL", fillcolor="#47e539"] ;
42 -> 48 ;
49 [label="HML_mom <= 1.04\ngini = 0.645\nsamples = 28\nvalue = [12, 11, 2, 3]\nclass = SH", fillcolor="#fdf8f3"] ;
39 -> 49 ;
50 [label="HMLp <= -14.648\ngini = 0.314\nsamples = 11\nvalue = [9, 1, 0, 1]\nclass = SH", fillcolor="#ea9a61"] ;
49 -> 50 ;
51 [label="Rsqr <= 0.057\ngini = 0.18\nsamples = 10\nvalue = [9, 1, 0, 0]\nclass = SH", fillcolor="#e88f4f"] ;
50 -> 51 ;
52 [label="gini = 0.0\nsamples = 1\nvalue = [0, 1, 0, 0]\nclass = SL", fillcolor="#47e539"] ;
51 -> 52 ;
53 [label="gini = 0.0\nsamples = 9\nvalue = [9, 0, 0, 0]\nclass = SH", fillcolor="#e58139"] ;
51 -> 53 ;
54 [label="gini = 0.0\nsamples = 1\nvalue = [0, 0, 0, 1]\nclass = BL", fillcolor="#d739e5"] ;
50 -> 54 ;
55 [label="Rsqr <= 0.073\ngini = 0.595\nsamples = 17\nvalue = [3, 10, 2, 2]\nclass = SL", fillcolor="#a3f29c"] ;
49 -> 55 ;
56 [label="SHCovp <= -74.923\ngini = 0.165\nsamples = 11\nvalue = [0, 10, 0, 1]\nclass = SL", fillcolor="#59e84d"] ;
55 -> 56 ;
57 [label="gini = 0.0\nsamples = 10\nvalue = [0, 10, 0, 0]\nclass = SL", fillcolor="#47e539"] ;
56 -> 57 ;
58 [label="gini = 0.0\nsamples = 1\nvalue = [0, 0, 0, 1]\nclass = BL", fillcolor="#d739e5"] ;
56 -> 58 ;
59 [label="SMB_mom <= 1.017\ngini = 0.611\nsamples = 6\nvalue = [3, 0, 2, 1]\nclass = SH", fillcolor="#f8e0ce"] ;
55 -> 59 ;
60 [label="gini = 0.0\nsamples = 3\nvalue = [3, 0, 0, 0]\nclass = SH", fillcolor="#e58139"] ;
59 -> 60 ;
61 [label="HMLVol <= 0.0\ngini = 0.444\nsamples = 3\nvalue = [0, 0, 2, 1]\nclass = BH", fillcolor="#9ccef2"] ;
59 -> 61 ;
62 [label="gini = 0.0\nsamples = 1\nvalue = [0, 0, 0, 1]\nclass = BL", fillcolor="#d739e5"] ;
61 -> 62 ;
63 [label="gini = 0.0\nsamples = 2\nvalue = [0, 0, 2, 0]\nclass = BH", fillcolor="#399de5"] ;
61 -> 63 ;
64 [label="gini = 0.0\nsamples = 5\nvalue = [0, 5, 0, 0]\nclass = SL", fillcolor="#47e539"] ;
38 -> 64 ;
65 [label="HML_mom <= 1.107\ngini = 0.438\nsamples = 226\nvalue = [165, 33, 16, 12]\nclass = SH", fillcolor="#eda978"] ;
23 -> 65 ;
66 [label="SMB_mom <= 1.057\ngini = 0.404\nsamples = 215\nvalue = [163, 25, 15, 12]\nclass = SH", fillcolor="#eca36f"] ;
65 -> 66 ;
67 [label="SHCov <= 0.0\ngini = 0.383\nsamples = 211\nvalue = [163, 25, 15, 8]\nclass = SH", fillcolor="#eca26c"] ;
66 -> 67 ;
68 [label="CBOEVIX_spr <= -0.001\ngini = 0.353\nsamples = 204\nvalue = [162, 20, 15, 7]\nclass = SH", fillcolor="#eb9e66"] ;
67 -> 68 ;
69 [label="SMB_mom <= 1.022\ngini = 0.244\nsamples = 156\nvalue = [135, 9, 8, 4]\nclass = SH", fillcolor="#e99355"] ;
68 -> 69 ;
70 [label="SMBp <= -221.381\ngini = 0.106\nsamples = 109\nvalue = [103, 3, 2, 1]\nclass = SH", fillcolor="#e68844"] ;
69 -> 70 ;
71 [label="SHCovp <= -14.45\ngini = 0.5\nsamples = 2\nvalue = [0, 1, 0, 1]\nclass = SL", fillcolor="#ffffff"] ;
70 -> 71 ;
72 [label="gini = 0.0\nsamples = 1\nvalue = [0, 1, 0, 0]\nclass = SL", fillcolor="#47e539"] ;
71 -> 72 ;
73 [label="gini = 0.0\nsamples = 1\nvalue = [0, 0, 0, 1]\nclass = BL", fillcolor="#d739e5"] ;
71 -> 73 ;
74 [label="SHCovp <= -218.284\ngini = 0.073\nsamples = 107\nvalue = [103, 2, 2, 0]\nclass = SH", fillcolor="#e68641"] ;
70 -> 74 ;
75 [label="gini = 0.0\nsamples = 1\nvalue = [0, 0, 1, 0]\nclass = BH", fillcolor="#399de5"] ;
74 -> 75 ;
76 [label="SHCov <= 0.0\ngini = 0.055\nsamples = 106\nvalue = [103, 2, 1, 0]\nclass = SH", fillcolor="#e6853f"] ;
74 -> 76 ;
77 [label="HLcov <= 0.907\ngini = 0.022\nsamples = 92\nvalue = [91, 0, 1, 0]\nclass = SH", fillcolor="#e5823b"] ;
76 -> 77 ;
78 [label="gini = 0.0\nsamples = 80\nvalue = [80, 0, 0, 0]\nclass = SH", fillcolor="#e58139"] ;
77 -> 78 ;
79 [label="SHCov <= 0.0\ngini = 0.153\nsamples = 12\nvalue = [11, 0, 1, 0]\nclass = SH", fillcolor="#e78c4b"] ;
77 -> 79 ;
80 [label="gini = 0.0\nsamples = 1\nvalue = [0, 0, 1, 0]\nclass = BH", fillcolor="#399de5"] ;
79 -> 80 ;
81 [label="gini = 0.0\nsamples = 11\nvalue = [11, 0, 0, 0]\nclass = SH", fillcolor="#e58139"] ;
79 -> 81 ;
82 [label="SHCov <= 0.0\ngini = 0.245\nsamples = 14\nvalue = [12, 2, 0, 0]\nclass = SH", fillcolor="#e9965a"] ;
76 -> 82 ;
83 [label="gini = 0.0\nsamples = 1\nvalue = [0, 1, 0, 0]\nclass = SL", fillcolor="#47e539"] ;
82 -> 83 ;
84 [label="SHCovp <= -128.435\ngini = 0.142\nsamples = 13\nvalue = [12, 1, 0, 0]\nclass = SH", fillcolor="#e78c49"] ;
82 -> 84 ;
85 [label="gini = 0.0\nsamples = 10\nvalue = [10, 0, 0, 0]\nclass = SH", fillcolor="#e58139"] ;
84 -> 85 ;
86 [label="SMB_mom <= 0.999\ngini = 0.444\nsamples = 3\nvalue = [2, 1, 0, 0]\nclass = SH", fillcolor="#f2c09c"] ;
84 -> 86 ;
87 [label="gini = 0.0\nsamples = 2\nvalue = [2, 0, 0, 0]\nclass = SH", fillcolor="#e58139"] ;
86 -> 87 ;
88 [label="gini = 0.0\nsamples = 1\nvalue = [0, 1, 0, 0]\nclass = SL", fillcolor="#47e539"] ;
86 -> 88 ;
89 [label="SHCov <= 0.0\ngini = 0.5\nsamples = 47\nvalue = [32, 6, 6, 3]\nclass = SH", fillcolor="#efaf81"] ;
69 -> 89 ;
90 [label="HML_mom <= 1.012\ngini = 0.444\nsamples = 6\nvalue = [0, 4, 0, 2]\nclass = SL", fillcolor="#a3f29c"] ;
89 -> 90 ;
91 [label="SHCov <= 0.0\ngini = 0.444\nsamples = 3\nvalue = [0, 1, 0, 2]\nclass = BL", fillcolor="#eb9cf2"] ;
90 -> 91 ;
92 [label="gini = 0.0\nsamples = 1\nvalue = [0, 1, 0, 0]\nclass = SL", fillcolor="#47e539"] ;
91 -> 92 ;
93 [label="gini = 0.0\nsamples = 2\nvalue = [0, 0, 0, 2]\nclass = BL", fillcolor="#d739e5"] ;
91 -> 93 ;
94 [label="gini = 0.0\nsamples = 3\nvalue = [0, 3, 0, 0]\nclass = SL", fillcolor="#47e539"] ;
90 -> 94 ;
95 [label="SMBp <= -196.96\ngini = 0.366\nsamples = 41\nvalue = [32, 2, 6, 1]\nclass = SH", fillcolor="#eca16c"] ;
89 -> 95 ;
96 [label="Rsqr <= 0.326\ngini = 0.32\nsamples = 5\nvalue = [1, 0, 4, 0]\nclass = BH", fillcolor="#6ab6ec"] ;
95 -> 96 ;
97 [label="gini = 0.0\nsamples = 1\nvalue = [1, 0, 0, 0]\nclass = SH", fillcolor="#e58139"] ;
96 -> 97 ;
98 [label="gini = 0.0\nsamples = 4\nvalue = [0, 0, 4, 0]\nclass = BH", fillcolor="#399de5"] ;
96 -> 98 ;
99 [label="SHCov <= 0.0\ngini = 0.252\nsamples = 36\nvalue = [31, 2, 2, 1]\nclass = SH", fillcolor="#e99456"] ;
95 -> 99 ;
100 [label="SHCovp <= -119.213\ngini = 0.444\nsamples = 3\nvalue = [1, 0, 2, 0]\nclass = BH", fillcolor="#9ccef2"] ;
99 -> 100 ;
101 [label="gini = 0.0\nsamples = 1\nvalue = [1, 0, 0, 0]\nclass = SH", fillcolor="#e58139"] ;
100 -> 101 ;
102 [label="gini = 0.0\nsamples = 2\nvalue = [0, 0, 2, 0]\nclass = BH", fillcolor="#399de5"] ;
100 -> 102 ;
103 [label="SMBVol <= 0.0\ngini = 0.169\nsamples = 33\nvalue = [30, 2, 0, 1]\nclass = SH", fillcolor="#e88d4c"] ;
99 -> 103 ;
104 [label="SHCovp <= -270.486\ngini = 0.117\nsamples = 32\nvalue = [30, 2, 0, 0]\nclass = SH", fillcolor="#e78946"] ;
103 -> 104 ;
105 [label="gini = 0.0\nsamples = 1\nvalue = [0, 1, 0, 0]\nclass = SL", fillcolor="#47e539"] ;
104 -> 105 ;
106 [label="Rsqr <= 0.109\ngini = 0.062\nsamples = 31\nvalue = [30, 1, 0, 0]\nclass = SH", fillcolor="#e68540"] ;
104 -> 106 ;
107 [label="Rsqr <= 0.109\ngini = 0.375\nsamples = 4\nvalue = [3, 1, 0, 0]\nclass = SH", fillcolor="#eeab7b"] ;
106 -> 107 ;
108 [label="gini = 0.0\nsamples = 3\nvalue = [3, 0, 0, 0]\nclass = SH", fillcolor="#e58139"] ;
107 -> 108 ;
109 [label="gini = 0.0\nsamples = 1\nvalue = [0, 1, 0, 0]\nclass = SL", fillcolor="#47e539"] ;
107 -> 109 ;
110 [label="gini = 0.0\nsamples = 27\nvalue = [27, 0, 0, 0]\nclass = SH", fillcolor="#e58139"] ;
106 -> 110 ;
111 [label="gini = 0.0\nsamples = 1\nvalue = [0, 0, 0, 1]\nclass = BL", fillcolor="#d739e5"] ;
103 -> 111 ;
112 [label="SHCov <= 0.0\ngini = 0.606\nsamples = 48\nvalue = [27, 11, 7, 3]\nclass = SH", fillcolor="#f4c9a9"] ;
68 -> 112 ;
113 [label="SHCovp <= -71.926\ngini = 0.694\nsamples = 21\nvalue = [6, 7, 7, 1]\nclass = SL", fillcolor="#ffffff"] ;
112 -> 113 ;
114 [label="SHCovp <= -189.75\ngini = 0.622\nsamples = 14\nvalue = [6, 1, 6, 1]\nclass = SH", fillcolor="#ffffff"] ;
113 -> 114 ;
115 [label="HMLp <= 81.816\ngini = 0.5\nsamples = 6\nvalue = [0, 1, 4, 1]\nclass = BH", fillcolor="#88c4ef"] ;
114 -> 115 ;
116 [label="gini = 0.0\nsamples = 4\nvalue = [0, 0, 4, 0]\nclass = BH", fillcolor="#399de5"] ;
115 -> 116 ;
117 [label="SBcov <= 0.307\ngini = 0.5\nsamples = 2\nvalue = [0, 1, 0, 1]\nclass = SL", fillcolor="#ffffff"] ;
115 -> 117 ;
118 [label="gini = 0.0\nsamples = 1\nvalue = [0, 1, 0, 0]\nclass = SL", fillcolor="#47e539"] ;
117 -> 118 ;
119 [label="gini = 0.0\nsamples = 1\nvalue = [0, 0, 0, 1]\nclass = BL", fillcolor="#d739e5"] ;
117 -> 119 ;
120 [label="SMB_mom <= 1.012\ngini = 0.375\nsamples = 8\nvalue = [6, 0, 2, 0]\nclass = SH", fillcolor="#eeab7b"] ;
114 -> 120 ;
121 [label="gini = 0.0\nsamples = 6\nvalue = [6, 0, 0, 0]\nclass = SH", fillcolor="#e58139"] ;
120 -> 121 ;
122 [label="gini = 0.0\nsamples = 2\nvalue = [0, 0, 2, 0]\nclass = BH", fillcolor="#399de5"] ;
120 -> 122 ;
123 [label="HML_mom <= 0.976\ngini = 0.245\nsamples = 7\nvalue = [0, 6, 1, 0]\nclass = SL", fillcolor="#66e95a"] ;
113 -> 123 ;
124 [label="gini = 0.0\nsamples = 1\nvalue = [0, 0, 1, 0]\nclass = BH", fillcolor="#399de5"] ;
123 -> 124 ;
125 [label="gini = 0.0\nsamples = 6\nvalue = [0, 6, 0, 0]\nclass = SL", fillcolor="#47e539"] ;
123 -> 125 ;
126 [label="SHCov <= 0.0\ngini = 0.368\nsamples = 27\nvalue = [21, 4, 0, 2]\nclass = SH", fillcolor="#eca26d"] ;
112 -> 126 ;
127 [label="gini = 0.0\nsamples = 12\nvalue = [12, 0, 0, 0]\nclass = SH", fillcolor="#e58139"] ;
126 -> 127 ;
128 [label="HLcov <= 0.211\ngini = 0.551\nsamples = 15\nvalue = [9, 4, 0, 2]\nclass = SH", fillcolor="#f3c6a5"] ;
126 -> 128 ;
129 [label="CBOEVIX_spr <= -0.0\ngini = 0.444\nsamples = 3\nvalue = [0, 2, 0, 1]\nclass = SL", fillcolor="#a3f29c"] ;
128 -> 129 ;
130 [label="gini = 0.0\nsamples = 2\nvalue = [0, 2, 0, 0]\nclass = SL", fillcolor="#47e539"] ;
129 -> 130 ;
131 [label="gini = 0.0\nsamples = 1\nvalue = [0, 0, 0, 1]\nclass = BL", fillcolor="#d739e5"] ;
129 -> 131 ;
132 [label="SMBp <= 220.434\ngini = 0.403\nsamples = 12\nvalue = [9, 2, 0, 1]\nclass = SH", fillcolor="#eda774"] ;
128 -> 132 ;
133 [label="SHCov <= 0.0\ngini = 0.64\nsamples = 5\nvalue = [2, 2, 0, 1]\nclass = SH", fillcolor="#ffffff"] ;
132 -> 133 ;
134 [label="SMBVol <= 0.0\ngini = 0.444\nsamples = 3\nvalue = [0, 2, 0, 1]\nclass = SL", fillcolor="#a3f29c"] ;
133 -> 134 ;
135 [label="gini = 0.0\nsamples = 2\nvalue = [0, 2, 0, 0]\nclass = SL", fillcolor="#47e539"] ;
134 -> 135 ;
136 [label="gini = 0.0\nsamples = 1\nvalue = [0, 0, 0, 1]\nclass = BL", fillcolor="#d739e5"] ;
134 -> 136 ;
137 [label="gini = 0.0\nsamples = 2\nvalue = [2, 0, 0, 0]\nclass = SH", fillcolor="#e58139"] ;
133 -> 137 ;
138 [label="gini = 0.0\nsamples = 7\nvalue = [7, 0, 0, 0]\nclass = SH", fillcolor="#e58139"] ;
132 -> 138 ;
139 [label="HML_mom <= 1.034\ngini = 0.449\nsamples = 7\nvalue = [1, 5, 0, 1]\nclass = SL", fillcolor="#84ee7b"] ;
67 -> 139 ;
140 [label="SMBp <= -7.271\ngini = 0.5\nsamples = 2\nvalue = [1, 0, 0, 1]\nclass = SH", fillcolor="#ffffff"] ;
139 -> 140 ;
141 [label="gini = 0.0\nsamples = 1\nvalue = [0, 0, 0, 1]\nclass = BL", fillcolor="#d739e5"] ;
140 -> 141 ;
142 [label="gini = 0.0\nsamples = 1\nvalue = [1, 0, 0, 0]\nclass = SH", fillcolor="#e58139"] ;
140 -> 142 ;
143 [label="gini = 0.0\nsamples = 5\nvalue = [0, 5, 0, 0]\nclass = SL", fillcolor="#47e539"] ;
139 -> 143 ;
144 [label="gini = 0.0\nsamples = 4\nvalue = [0, 0, 0, 4]\nclass = BL", fillcolor="#d739e5"] ;
66 -> 144 ;
145 [label="Rsqr <= 0.243\ngini = 0.43\nsamples = 11\nvalue = [2, 8, 1, 0]\nclass = SL", fillcolor="#84ee7b"] ;
65 -> 145 ;
146 [label="gini = 0.0\nsamples = 8\nvalue = [0, 8, 0, 0]\nclass = SL", fillcolor="#47e539"] ;
145 -> 146 ;
147 [label="HMLp <= 33.657\ngini = 0.444\nsamples = 3\nvalue = [2, 0, 1, 0]\nclass = SH", fillcolor="#f2c09c"] ;
145 -> 147 ;
148 [label="gini = 0.0\nsamples = 1\nvalue = [0, 0, 1, 0]\nclass = BH", fillcolor="#399de5"] ;
147 -> 148 ;
149 [label="gini = 0.0\nsamples = 2\nvalue = [2, 0, 0, 0]\nclass = SH", fillcolor="#e58139"] ;
147 -> 149 ;
150 [label="HLcov <= 0.259\ngini = 0.711\nsamples = 466\nvalue = [185, 128, 62, 91]\nclass = SH", fillcolor="#fbeade"] ;
22 -> 150 ;
151 [label="SHCovp <= 116.01\ngini = 0.204\nsamples = 18\nvalue = [1, 0, 16, 1]\nclass = BH", fillcolor="#50a9e8"] ;
150 -> 151 ;
152 [label="HLcov <= 0.221\ngini = 0.111\nsamples = 17\nvalue = [1, 0, 16, 0]\nclass = BH", fillcolor="#45a3e7"] ;
151 -> 152 ;
153 [label="HMLp <= 56.324\ngini = 0.444\nsamples = 3\nvalue = [1, 0, 2, 0]\nclass = BH", fillcolor="#9ccef2"] ;
152 -> 153 ;
154 [label="gini = 0.0\nsamples = 1\nvalue = [1, 0, 0, 0]\nclass = SH", fillcolor="#e58139"] ;
153 -> 154 ;
155 [label="gini = 0.0\nsamples = 2\nvalue = [0, 0, 2, 0]\nclass = BH", fillcolor="#399de5"] ;
153 -> 155 ;
156 [label="gini = 0.0\nsamples = 14\nvalue = [0, 0, 14, 0]\nclass = BH", fillcolor="#399de5"] ;
152 -> 156 ;
157 [label="gini = 0.0\nsamples = 1\nvalue = [0, 0, 0, 1]\nclass = BL", fillcolor="#d739e5"] ;
151 -> 157 ;
158 [label="SBcov <= 0.539\ngini = 0.699\nsamples = 448\nvalue = [184, 128, 46, 90]\nclass = SH", fillcolor="#fae9dc"] ;
150 -> 158 ;
159 [label="HMLp <= -932.054\ngini = 0.659\nsamples = 365\nvalue = [171, 111, 28, 55]\nclass = SH", fillcolor="#f9e1d0"] ;
158 -> 159 ;
160 [label="HLcov <= 0.481\ngini = 0.133\nsamples = 14\nvalue = [1, 0, 0, 13]\nclass = BL", fillcolor="#da48e7"] ;
159 -> 160 ;
161 [label="gini = 0.0\nsamples = 13\nvalue = [0, 0, 0, 13]\nclass = BL", fillcolor="#d739e5"] ;
160 -> 161 ;
162 [label="gini = 0.0\nsamples = 1\nvalue = [1, 0, 0, 0]\nclass = SH", fillcolor="#e58139"] ;
160 -> 162 ;
163 [label="HMLp <= 19.564\ngini = 0.645\nsamples = 351\nvalue = [170, 111, 28, 42]\nclass = SH", fillcolor="#f9e0ce"] ;
159 -> 163 ;
164 [label="HMLp <= -46.53\ngini = 0.663\nsamples = 320\nvalue = [141, 110, 27, 42]\nclass = SH", fillcolor="#fbece2"] ;
163 -> 164 ;
165 [label="Rsqr <= 0.255\ngini = 0.602\nsamples = 244\nvalue = [134, 70, 25, 15]\nclass = SH", fillcolor="#f5d1b6"] ;
164 -> 165 ;
166 [label="HLcov <= 0.344\ngini = 0.311\nsamples = 84\nvalue = [69, 3, 9, 3]\nclass = SH", fillcolor="#ea9a61"] ;
165 -> 166 ;
167 [label="HLcov <= 0.312\ngini = 0.375\nsamples = 12\nvalue = [0, 0, 9, 3]\nclass = BH", fillcolor="#7bbeee"] ;
166 -> 167 ;
168 [label="gini = 0.0\nsamples = 3\nvalue = [0, 0, 0, 3]\nclass = BL", fillcolor="#d739e5"] ;
167 -> 168 ;
169 [label="gini = 0.0\nsamples = 9\nvalue = [0, 0, 9, 0]\nclass = BH", fillcolor="#399de5"] ;
167 -> 169 ;
170 [label="SMB_mom <= 1.04\ngini = 0.08\nsamples = 72\nvalue = [69, 3, 0, 0]\nclass = SH", fillcolor="#e68642"] ;
166 -> 170 ;
171 [label="gini = 0.0\nsamples = 68\nvalue = [68, 0, 0, 0]\nclass = SH", fillcolor="#e58139"] ;
170 -> 171 ;
172 [label="CBOEVIX_spr <= -0.001\ngini = 0.375\nsamples = 4\nvalue = [1, 3, 0, 0]\nclass = SL", fillcolor="#84ee7b"] ;
170 -> 172 ;
173 [label="gini = 0.0\nsamples = 1\nvalue = [1, 0, 0, 0]\nclass = SH", fillcolor="#e58139"] ;
172 -> 173 ;
174 [label="gini = 0.0\nsamples = 3\nvalue = [0, 3, 0, 0]\nclass = SL", fillcolor="#47e539"] ;
172 -> 174 ;
175 [label="SMBp <= -316.498\ngini = 0.644\nsamples = 160\nvalue = [65, 67, 16, 12]\nclass = SL", fillcolor="#fbfefb"] ;
165 -> 175 ;
176 [label="SHCovp <= 740.2\ngini = 0.524\nsamples = 62\nvalue = [40, 3, 14, 5]\nclass = SH", fillcolor="#f1bb94"] ;
175 -> 176 ;
177 [label="SMBVol <= 0.0\ngini = 0.231\nsamples = 39\nvalue = [34, 3, 0, 2]\nclass = SH", fillcolor="#e99254"] ;
176 -> 177 ;
178 [label="Rsqr <= 0.629\ngini = 0.48\nsamples = 5\nvalue = [0, 3, 0, 2]\nclass = SL", fillcolor="#c2f6bd"] ;
177 -> 178 ;
179 [label="gini = 0.0\nsamples = 2\nvalue = [0, 0, 0, 2]\nclass = BL", fillcolor="#d739e5"] ;
178 -> 179 ;
180 [label="gini = 0.0\nsamples = 3\nvalue = [0, 3, 0, 0]\nclass = SL", fillcolor="#47e539"] ;
178 -> 180 ;
181 [label="gini = 0.0\nsamples = 34\nvalue = [34, 0, 0, 0]\nclass = SH", fillcolor="#e58139"] ;
177 -> 181 ;
182 [label="SMBp <= -327.398\ngini = 0.544\nsamples = 23\nvalue = [6, 0, 14, 3]\nclass = BH", fillcolor="#a2d1f3"] ;
176 -> 182 ;
183 [label="SBcov <= 0.372\ngini = 0.133\nsamples = 14\nvalue = [1, 0, 13, 0]\nclass = BH", fillcolor="#48a5e7"] ;
182 -> 183 ;
184 [label="gini = 0.0\nsamples = 13\nvalue = [0, 0, 13, 0]\nclass = BH", fillcolor="#399de5"] ;
183 -> 184 ;
185 [label="gini = 0.0\nsamples = 1\nvalue = [1, 0, 0, 0]\nclass = SH", fillcolor="#e58139"] ;
183 -> 185 ;
186 [label="HML_mom <= 0.999\ngini = 0.568\nsamples = 9\nvalue = [5, 0, 1, 3]\nclass = SH", fillcolor="#f6d5bd"] ;
182 -> 186 ;
187 [label="SMB_mom <= 1.018\ngini = 0.278\nsamples = 6\nvalue = [5, 0, 1, 0]\nclass = SH", fillcolor="#ea9a61"] ;
186 -> 187 ;
188 [label="gini = 0.0\nsamples = 5\nvalue = [5, 0, 0, 0]\nclass = SH", fillcolor="#e58139"] ;
187 -> 188 ;
189 [label="gini = 0.0\nsamples = 1\nvalue = [0, 0, 1, 0]\nclass = BH", fillcolor="#399de5"] ;
187 -> 189 ;
190 [label="gini = 0.0\nsamples = 3\nvalue = [0, 0, 0, 3]\nclass = BL", fillcolor="#d739e5"] ;
186 -> 190 ;
191 [label="HML_mom <= 0.984\ngini = 0.503\nsamples = 98\nvalue = [25, 64, 2, 7]\nclass = SL", fillcolor="#9df195"] ;
175 -> 191 ;
192 [label="SMBp <= 13.241\ngini = 0.415\nsamples = 20\nvalue = [15, 2, 2, 1]\nclass = SH", fillcolor="#eca470"] ;
191 -> 192 ;
193 [label="SBcov <= 0.536\ngini = 0.124\nsamples = 15\nvalue = [14, 1, 0, 0]\nclass = SH", fillcolor="#e78a47"] ;
192 -> 193 ;
194 [label="gini = 0.0\nsamples = 14\nvalue = [14, 0, 0, 0]\nclass = SH", fillcolor="#e58139"] ;
193 -> 194 ;
195 [label="gini = 0.0\nsamples = 1\nvalue = [0, 1, 0, 0]\nclass = SL", fillcolor="#47e539"] ;
193 -> 195 ;
196 [label="HMLp <= -107.479\ngini = 0.72\nsamples = 5\nvalue = [1, 1, 2, 1]\nclass = BH", fillcolor="#cee6f8"] ;
192 -> 196 ;
197 [label="SBcov <= 0.355\ngini = 0.5\nsamples = 2\nvalue = [1, 1, 0, 0]\nclass = SH", fillcolor="#ffffff"] ;
196 -> 197 ;
198 [label="gini = 0.0\nsamples = 1\nvalue = [0, 1, 0, 0]\nclass = SL", fillcolor="#47e539"] ;
197 -> 198 ;
199 [label="gini = 0.0\nsamples = 1\nvalue = [1, 0, 0, 0]\nclass = SH", fillcolor="#e58139"] ;
197 -> 199 ;
200 [label="CBOEVIX_spr <= -0.001\ngini = 0.444\nsamples = 3\nvalue = [0, 0, 2, 1]\nclass = BH", fillcolor="#9ccef2"] ;
196 -> 200 ;
201 [label="gini = 0.0\nsamples = 1\nvalue = [0, 0, 0, 1]\nclass = BL", fillcolor="#d739e5"] ;
200 -> 201 ;
202 [label="gini = 0.0\nsamples = 2\nvalue = [0, 0, 2, 0]\nclass = BH", fillcolor="#399de5"] ;
200 -> 202 ;
203 [label="SHCovp <= 12.434\ngini = 0.346\nsamples = 78\nvalue = [10, 62, 0, 6]\nclass = SL", fillcolor="#72eb68"] ;
191 -> 203 ;
204 [label="gini = 0.0\nsamples = 5\nvalue = [5, 0, 0, 0]\nclass = SH", fillcolor="#e58139"] ;
203 -> 204 ;
205 [label="SMBVol <= 0.0\ngini = 0.267\nsamples = 73\nvalue = [5, 62, 0, 6]\nclass = SL", fillcolor="#65e95a"] ;
203 -> 205 ;
206 [label="CBOEVIX_spr <= -0.001\ngini = 0.041\nsamples = 48\nvalue = [1, 47, 0, 0]\nclass = SL", fillcolor="#4be63d"] ;
205 -> 206 ;
207 [label="gini = 0.0\nsamples = 37\nvalue = [0, 37, 0, 0]\nclass = SL", fillcolor="#47e539"] ;
206 -> 207 ;
208 [label="HMLp <= -366.069\ngini = 0.165\nsamples = 11\nvalue = [1, 10, 0, 0]\nclass = SL", fillcolor="#59e84d"] ;
206 -> 208 ;
209 [label="gini = 0.0\nsamples = 1\nvalue = [1, 0, 0, 0]\nclass = SH", fillcolor="#e58139"] ;
208 -> 209 ;
210 [label="gini = 0.0\nsamples = 10\nvalue = [0, 10, 0, 0]\nclass = SL", fillcolor="#47e539"] ;
208 -> 210 ;
211 [label="SHCovp <= 577.713\ngini = 0.557\nsamples = 25\nvalue = [4, 15, 0, 6]\nclass = SL", fillcolor="#a8f3a1"] ;
205 -> 211 ;
212 [label="SMB_mom <= 0.986\ngini = 0.531\nsamples = 8\nvalue = [2, 1, 0, 5]\nclass = BL", fillcolor="#eb9cf2"] ;
211 -> 212 ;
213 [label="SHCov <= 0.0\ngini = 0.444\nsamples = 3\nvalue = [2, 1, 0, 0]\nclass = SH", fillcolor="#f2c09c"] ;
212 -> 213 ;
214 [label="gini = 0.0\nsamples = 1\nvalue = [0, 1, 0, 0]\nclass = SL", fillcolor="#47e539"] ;
213 -> 214 ;
215 [label="gini = 0.0\nsamples = 2\nvalue = [2, 0, 0, 0]\nclass = SH", fillcolor="#e58139"] ;
213 -> 215 ;
216 [label="gini = 0.0\nsamples = 5\nvalue = [0, 0, 0, 5]\nclass = BL", fillcolor="#d739e5"] ;
212 -> 216 ;
217 [label="HMLVol <= 0.0\ngini = 0.304\nsamples = 17\nvalue = [2, 14, 0, 1]\nclass = SL", fillcolor="#6cea61"] ;
211 -> 217 ;
218 [label="gini = 0.0\nsamples = 12\nvalue = [0, 12, 0, 0]\nclass = SL", fillcolor="#47e539"] ;
217 -> 218 ;
219 [label="HMLp <= -438.956\ngini = 0.64\nsamples = 5\nvalue = [2, 2, 0, 1]\nclass = SH", fillcolor="#ffffff"] ;
217 -> 219 ;
220 [label="gini = 0.0\nsamples = 1\nvalue = [0, 0, 0, 1]\nclass = BL", fillcolor="#d739e5"] ;
219 -> 220 ;
221 [label="SBcov <= 0.403\ngini = 0.5\nsamples = 4\nvalue = [2, 2, 0, 0]\nclass = SH", fillcolor="#ffffff"] ;
219 -> 221 ;
222 [label="gini = 0.0\nsamples = 1\nvalue = [0, 1, 0, 0]\nclass = SL", fillcolor="#47e539"] ;
221 -> 222 ;
223 [label="HML_mom <= 0.994\ngini = 0.444\nsamples = 3\nvalue = [2, 1, 0, 0]\nclass = SH", fillcolor="#f2c09c"] ;
221 -> 223 ;
224 [label="gini = 0.0\nsamples = 1\nvalue = [0, 1, 0, 0]\nclass = SL", fillcolor="#47e539"] ;
223 -> 224 ;
225 [label="gini = 0.0\nsamples = 2\nvalue = [2, 0, 0, 0]\nclass = SH", fillcolor="#e58139"] ;
223 -> 225 ;
226 [label="HMLp <= 0.506\ngini = 0.588\nsamples = 76\nvalue = [7, 40, 2, 27]\nclass = SL", fillcolor="#cef8ca"] ;
164 -> 226 ;
227 [label="HMLVol <= 0.0\ngini = 0.598\nsamples = 49\nvalue = [6, 14, 2, 27]\nclass = BL", fillcolor="#f0b5f5"] ;
226 -> 227 ;
228 [label="SMBp <= 66.037\ngini = 0.19\nsamples = 29\nvalue = [2, 0, 1, 26]\nclass = BL", fillcolor="#db4fe8"] ;
227 -> 228 ;
229 [label="gini = 0.0\nsamples = 26\nvalue = [0, 0, 0, 26]\nclass = BL", fillcolor="#d739e5"] ;
228 -> 229 ;
230 [label="SMBp <= 75.256\ngini = 0.444\nsamples = 3\nvalue = [2, 0, 1, 0]\nclass = SH", fillcolor="#f2c09c"] ;
228 -> 230 ;
231 [label="gini = 0.0\nsamples = 1\nvalue = [0, 0, 1, 0]\nclass = BH", fillcolor="#399de5"] ;
230 -> 231 ;
232 [label="gini = 0.0\nsamples = 2\nvalue = [2, 0, 0, 0]\nclass = SH", fillcolor="#e58139"] ;
230 -> 232 ;
233 [label="SHCovp <= 96.897\ngini = 0.465\nsamples = 20\nvalue = [4, 14, 1, 1]\nclass = SL", fillcolor="#8cef83"] ;
227 -> 233 ;
234 [label="HMLVol <= 0.0\ngini = 0.142\nsamples = 13\nvalue = [0, 12, 0, 1]\nclass = SL", fillcolor="#56e749"] ;
233 -> 234 ;
235 [label="gini = 0.0\nsamples = 1\nvalue = [0, 0, 0, 1]\nclass = BL", fillcolor="#d739e5"] ;
234 -> 235 ;
236 [label="gini = 0.0\nsamples = 12\nvalue = [0, 12, 0, 0]\nclass = SL", fillcolor="#47e539"] ;
234 -> 236 ;
237 [label="SMB_mom <= 1.008\ngini = 0.571\nsamples = 7\nvalue = [4, 2, 1, 0]\nclass = SH", fillcolor="#f5cdb0"] ;
233 -> 237 ;
238 [label="CBOEVIX_spr <= -0.001\ngini = 0.625\nsamples = 4\nvalue = [1, 2, 1, 0]\nclass = SL", fillcolor="#c2f6bd"] ;
237 -> 238 ;
239 [label="SBcov <= 0.527\ngini = 0.5\nsamples = 2\nvalue = [1, 0, 1, 0]\nclass = SH", fillcolor="#ffffff"] ;
238 -> 239 ;
240 [label="gini = 0.0\nsamples = 1\nvalue = [0, 0, 1, 0]\nclass = BH", fillcolor="#399de5"] ;
239 -> 240 ;
241 [label="gini = 0.0\nsamples = 1\nvalue = [1, 0, 0, 0]\nclass = SH", fillcolor="#e58139"] ;
239 -> 241 ;
242 [label="gini = 0.0\nsamples = 2\nvalue = [0, 2, 0, 0]\nclass = SL", fillcolor="#47e539"] ;
238 -> 242 ;
243 [label="gini = 0.0\nsamples = 3\nvalue = [3, 0, 0, 0]\nclass = SH", fillcolor="#e58139"] ;
237 -> 243 ;
244 [label="SHCov <= 0.0\ngini = 0.071\nsamples = 27\nvalue = [1, 26, 0, 0]\nclass = SL", fillcolor="#4ee641"] ;
226 -> 244 ;
245 [label="gini = 0.0\nsamples = 1\nvalue = [1, 0, 0, 0]\nclass = SH", fillcolor="#e58139"] ;
244 -> 245 ;
246 [label="gini = 0.0\nsamples = 26\nvalue = [0, 26, 0, 0]\nclass = SL", fillcolor="#47e539"] ;
244 -> 246 ;
247 [label="SHCovp <= 40.881\ngini = 0.123\nsamples = 31\nvalue = [29, 1, 1, 0]\nclass = SH", fillcolor="#e78946"] ;
163 -> 247 ;
248 [label="gini = 0.0\nsamples = 1\nvalue = [0, 1, 0, 0]\nclass = SL", fillcolor="#47e539"] ;
247 -> 248 ;
249 [label="HMLp <= 49.953\ngini = 0.064\nsamples = 30\nvalue = [29, 0, 1, 0]\nclass = SH", fillcolor="#e68540"] ;
247 -> 249 ;
250 [label="gini = 0.0\nsamples = 24\nvalue = [24, 0, 0, 0]\nclass = SH", fillcolor="#e58139"] ;
249 -> 250 ;
251 [label="HMLp <= 51.858\ngini = 0.278\nsamples = 6\nvalue = [5, 0, 1, 0]\nclass = SH", fillcolor="#ea9a61"] ;
249 -> 251 ;
252 [label="gini = 0.0\nsamples = 1\nvalue = [0, 0, 1, 0]\nclass = BH", fillcolor="#399de5"] ;
251 -> 252 ;
253 [label="gini = 0.0\nsamples = 5\nvalue = [5, 0, 0, 0]\nclass = SH", fillcolor="#e58139"] ;
251 -> 253 ;
254 [label="HLcov <= 0.954\ngini = 0.709\nsamples = 83\nvalue = [13, 17, 18, 35]\nclass = BL", fillcolor="#f5cbf8"] ;
158 -> 254 ;
255 [label="Rsqr <= 0.218\ngini = 0.678\nsamples = 74\nvalue = [13, 9, 17, 35]\nclass = BL", fillcolor="#f2c0f7"] ;
254 -> 255 ;
256 [label="SBcov <= 0.559\ngini = 0.111\nsamples = 17\nvalue = [0, 0, 1, 16]\nclass = BL", fillcolor="#da45e7"] ;
255 -> 256 ;
257 [label="gini = 0.0\nsamples = 14\nvalue = [0, 0, 0, 14]\nclass = BL", fillcolor="#d739e5"] ;
256 -> 257 ;
258 [label="HMLp <= -6.518\ngini = 0.444\nsamples = 3\nvalue = [0, 0, 1, 2]\nclass = BL", fillcolor="#eb9cf2"] ;
256 -> 258 ;
259 [label="gini = 0.0\nsamples = 1\nvalue = [0, 0, 1, 0]\nclass = BH", fillcolor="#399de5"] ;
258 -> 259 ;
260 [label="gini = 0.0\nsamples = 2\nvalue = [0, 0, 0, 2]\nclass = BL", fillcolor="#d739e5"] ;
258 -> 260 ;
261 [label="CBOEVIX_spr <= -0.001\ngini = 0.733\nsamples = 57\nvalue = [13, 9, 16, 19]\nclass = BL", fillcolor="#fcf1fd"] ;
255 -> 261 ;
262 [label="Rsqr <= 0.285\ngini = 0.662\nsamples = 43\nvalue = [2, 8, 14, 19]\nclass = BL", fillcolor="#f8ddfb"] ;
261 -> 262 ;
263 [label="HMLVol <= 0.0\ngini = 0.153\nsamples = 12\nvalue = [1, 0, 11, 0]\nclass = BH", fillcolor="#4ba6e7"] ;
262 -> 263 ;
264 [label="gini = 0.0\nsamples = 1\nvalue = [1, 0, 0, 0]\nclass = SH", fillcolor="#e58139"] ;
263 -> 264 ;
265 [label="gini = 0.0\nsamples = 11\nvalue = [0, 0, 11, 0]\nclass = BH", fillcolor="#399de5"] ;
263 -> 265 ;
266 [label="HML_mom <= 1.041\ngini = 0.547\nsamples = 31\nvalue = [1, 8, 3, 19]\nclass = BL", fillcolor="#eca0f3"] ;
262 -> 266 ;
267 [label="SHCovp <= 136.201\ngini = 0.438\nsamples = 26\nvalue = [1, 3, 3, 19]\nclass = BL", fillcolor="#e375ed"] ;
266 -> 267 ;
268 [label="SHCov <= 0.0\ngini = 0.354\nsamples = 24\nvalue = [1, 3, 1, 19]\nclass = BL", fillcolor="#e168eb"] ;
267 -> 268 ;
269 [label="gini = 0.0\nsamples = 2\nvalue = [0, 2, 0, 0]\nclass = SL", fillcolor="#47e539"] ;
268 -> 269 ;
270 [label="SHCov <= 0.0\ngini = 0.248\nsamples = 22\nvalue = [1, 1, 1, 19]\nclass = BL", fillcolor="#dd55e9"] ;
268 -> 270 ;
271 [label="SMBVol <= 0.0\ngini = 0.095\nsamples = 20\nvalue = [0, 0, 1, 19]\nclass = BL", fillcolor="#d943e6"] ;
270 -> 271 ;
272 [label="gini = 0.0\nsamples = 1\nvalue = [0, 0, 1, 0]\nclass = BH", fillcolor="#399de5"] ;
271 -> 272 ;
273 [label="gini = 0.0\nsamples = 19\nvalue = [0, 0, 0, 19]\nclass = BL", fillcolor="#d739e5"] ;
271 -> 273 ;
274 [label="Rsqr <= 0.327\ngini = 0.5\nsamples = 2\nvalue = [1, 1, 0, 0]\nclass = SH", fillcolor="#ffffff"] ;
270 -> 274 ;
275 [label="gini = 0.0\nsamples = 1\nvalue = [1, 0, 0, 0]\nclass = SH", fillcolor="#e58139"] ;
274 -> 275 ;
276 [label="gini = 0.0\nsamples = 1\nvalue = [0, 1, 0, 0]\nclass = SL", fillcolor="#47e539"] ;
274 -> 276 ;
277 [label="gini = 0.0\nsamples = 2\nvalue = [0, 0, 2, 0]\nclass = BH", fillcolor="#399de5"] ;
267 -> 277 ;
278 [label="gini = 0.0\nsamples = 5\nvalue = [0, 5, 0, 0]\nclass = SL", fillcolor="#47e539"] ;
266 -> 278 ;
279 [label="SMB_mom <= 1.043\ngini = 0.357\nsamples = 14\nvalue = [11, 1, 2, 0]\nclass = SH", fillcolor="#eca06b"] ;
261 -> 279 ;
280 [label="SBcov <= 0.619\ngini = 0.153\nsamples = 12\nvalue = [11, 1, 0, 0]\nclass = SH", fillcolor="#e78c4b"] ;
279 -> 280 ;
281 [label="gini = 0.0\nsamples = 11\nvalue = [11, 0, 0, 0]\nclass = SH", fillcolor="#e58139"] ;
280 -> 281 ;
282 [label="gini = 0.0\nsamples = 1\nvalue = [0, 1, 0, 0]\nclass = SL", fillcolor="#47e539"] ;
280 -> 282 ;
283 [label="gini = 0.0\nsamples = 2\nvalue = [0, 0, 2, 0]\nclass = BH", fillcolor="#399de5"] ;
279 -> 283 ;
284 [label="SHCov <= 0.0\ngini = 0.198\nsamples = 9\nvalue = [0, 8, 1, 0]\nclass = SL", fillcolor="#5ee852"] ;
254 -> 284 ;
285 [label="gini = 0.0\nsamples = 8\nvalue = [0, 8, 0, 0]\nclass = SL", fillcolor="#47e539"] ;
284 -> 285 ;
286 [label="gini = 0.0\nsamples = 1\nvalue = [0, 0, 1, 0]\nclass = BH", fillcolor="#399de5"] ;
284 -> 286 ;
287 [label="SHCov <= 0.0\ngini = 0.684\nsamples = 333\nvalue = [132, 15, 98, 88]\nclass = SH", fillcolor="#fbede2"] ;
3 -> 287 ;
288 [label="HML_mom <= 1.019\ngini = 0.67\nsamples = 233\nvalue = [55, 6, 91, 81]\nclass = BH", fillcolor="#f2f9fd"] ;
287 -> 288 ;
289 [label="HMLp <= 74.518\ngini = 0.644\nsamples = 121\nvalue = [47, 6, 16, 52]\nclass = BL", fillcolor="#fcf2fd"] ;
288 -> 289 ;
290 [label="SMB_mom <= 0.974\ngini = 0.557\nsamples = 84\nvalue = [18, 6, 8, 52]\nclass = BL", fillcolor="#ea99f2"] ;
289 -> 290 ;
291 [label="SHCov <= 0.0\ngini = 0.117\nsamples = 16\nvalue = [15, 0, 0, 1]\nclass = SH", fillcolor="#e78946"] ;
290 -> 291 ;
292 [label="gini = 0.0\nsamples = 15\nvalue = [15, 0, 0, 0]\nclass = SH", fillcolor="#e58139"] ;
291 -> 292 ;
293 [label="gini = 0.0\nsamples = 1\nvalue = [0, 0, 0, 1]\nclass = BL", fillcolor="#d739e5"] ;
291 -> 293 ;
294 [label="Rsqr <= 0.303\ngini = 0.414\nsamples = 68\nvalue = [3, 6, 8, 51]\nclass = BL", fillcolor="#e271ec"] ;
290 -> 294 ;
295 [label="SHCovp <= -124.682\ngini = 0.222\nsamples = 58\nvalue = [2, 3, 2, 51]\nclass = BL", fillcolor="#dc52e8"] ;
294 -> 295 ;
296 [label="gini = 0.0\nsamples = 1\nvalue = [0, 1, 0, 0]\nclass = SL", fillcolor="#47e539"] ;
295 -> 296 ;
297 [label="Rsqr <= 0.292\ngini = 0.196\nsamples = 57\nvalue = [2, 2, 2, 51]\nclass = BL", fillcolor="#db4fe8"] ;
295 -> 297 ;
298 [label="SMB_mom <= 1.022\ngini = 0.114\nsamples = 50\nvalue = [0, 1, 2, 47]\nclass = BL", fillcolor="#da45e7"] ;
297 -> 298 ;
299 [label="SBcov <= 0.166\ngini = 0.081\nsamples = 48\nvalue = [0, 1, 1, 46]\nclass = BL", fillcolor="#d941e6"] ;
298 -> 299 ;
300 [label="HML_mom <= 1.0\ngini = 0.5\nsamples = 2\nvalue = [0, 1, 0, 1]\nclass = SL", fillcolor="#ffffff"] ;
299 -> 300 ;
301 [label="gini = 0.0\nsamples = 1\nvalue = [0, 1, 0, 0]\nclass = SL", fillcolor="#47e539"] ;
300 -> 301 ;
302 [label="gini = 0.0\nsamples = 1\nvalue = [0, 0, 0, 1]\nclass = BL", fillcolor="#d739e5"] ;
300 -> 302 ;
303 [label="Rsqr <= 0.116\ngini = 0.043\nsamples = 46\nvalue = [0, 0, 1, 45]\nclass = BL", fillcolor="#d83de6"] ;
299 -> 303 ;
304 [label="HMLp <= 28.768\ngini = 0.219\nsamples = 8\nvalue = [0, 0, 1, 7]\nclass = BL", fillcolor="#dd55e9"] ;
303 -> 304 ;
305 [label="gini = 0.0\nsamples = 7\nvalue = [0, 0, 0, 7]\nclass = BL", fillcolor="#d739e5"] ;
304 -> 305 ;
306 [label="gini = 0.0\nsamples = 1\nvalue = [0, 0, 1, 0]\nclass = BH", fillcolor="#399de5"] ;
304 -> 306 ;
307 [label="gini = 0.0\nsamples = 38\nvalue = [0, 0, 0, 38]\nclass = BL", fillcolor="#d739e5"] ;
303 -> 307 ;
308 [label="CBOEVIX_spr <= -0.001\ngini = 0.5\nsamples = 2\nvalue = [0, 0, 1, 1]\nclass = BH", fillcolor="#ffffff"] ;
298 -> 308 ;
309 [label="gini = 0.0\nsamples = 1\nvalue = [0, 0, 1, 0]\nclass = BH", fillcolor="#399de5"] ;
308 -> 309 ;
310 [label="gini = 0.0\nsamples = 1\nvalue = [0, 0, 0, 1]\nclass = BL", fillcolor="#d739e5"] ;
308 -> 310 ;
311 [label="SHCovp <= 9.831\ngini = 0.571\nsamples = 7\nvalue = [2, 1, 0, 4]\nclass = BL", fillcolor="#efb0f5"] ;
297 -> 311 ;
312 [label="HML_mom <= 1.009\ngini = 0.32\nsamples = 5\nvalue = [0, 1, 0, 4]\nclass = BL", fillcolor="#e16aec"] ;
311 -> 312 ;
313 [label="gini = 0.0\nsamples = 4\nvalue = [0, 0, 0, 4]\nclass = BL", fillcolor="#d739e5"] ;
312 -> 313 ;
314 [label="gini = 0.0\nsamples = 1\nvalue = [0, 1, 0, 0]\nclass = SL", fillcolor="#47e539"] ;
312 -> 314 ;
315 [label="gini = 0.0\nsamples = 2\nvalue = [2, 0, 0, 0]\nclass = SH", fillcolor="#e58139"] ;
311 -> 315 ;
316 [label="SMBVol <= 0.0\ngini = 0.54\nsamples = 10\nvalue = [1, 3, 6, 0]\nclass = BH", fillcolor="#aad5f4"] ;
294 -> 316 ;
317 [label="SHCov <= 0.0\ngini = 0.375\nsamples = 4\nvalue = [1, 3, 0, 0]\nclass = SL", fillcolor="#84ee7b"] ;
316 -> 317 ;
318 [label="gini = 0.0\nsamples = 3\nvalue = [0, 3, 0, 0]\nclass = SL", fillcolor="#47e539"] ;
317 -> 318 ;
319 [label="gini = 0.0\nsamples = 1\nvalue = [1, 0, 0, 0]\nclass = SH", fillcolor="#e58139"] ;
317 -> 319 ;
320 [label="gini = 0.0\nsamples = 6\nvalue = [0, 0, 6, 0]\nclass = BH", fillcolor="#399de5"] ;
316 -> 320 ;
321 [label="HLcov <= 0.301\ngini = 0.339\nsamples = 37\nvalue = [29, 0, 8, 0]\nclass = SH", fillcolor="#eca470"] ;
289 -> 321 ;
322 [label="Rsqr <= 0.33\ngini = 0.49\nsamples = 14\nvalue = [6, 0, 8, 0]\nclass = BH", fillcolor="#cee6f8"] ;
321 -> 322 ;
323 [label="SHCov <= 0.0\ngini = 0.198\nsamples = 9\nvalue = [1, 0, 8, 0]\nclass = BH", fillcolor="#52a9e8"] ;
322 -> 323 ;
324 [label="gini = 0.0\nsamples = 8\nvalue = [0, 0, 8, 0]\nclass = BH", fillcolor="#399de5"] ;
323 -> 324 ;
325 [label="gini = 0.0\nsamples = 1\nvalue = [1, 0, 0, 0]\nclass = SH", fillcolor="#e58139"] ;
323 -> 325 ;
326 [label="gini = 0.0\nsamples = 5\nvalue = [5, 0, 0, 0]\nclass = SH", fillcolor="#e58139"] ;
322 -> 326 ;
327 [label="gini = 0.0\nsamples = 23\nvalue = [23, 0, 0, 0]\nclass = SH", fillcolor="#e58139"] ;
321 -> 327 ;
328 [label="SMB_mom <= 0.994\ngini = 0.479\nsamples = 112\nvalue = [8, 0, 75, 29]\nclass = BH", fillcolor="#91c9f1"] ;
288 -> 328 ;
329 [label="SMBVol <= 0.0\ngini = 0.54\nsamples = 44\nvalue = [3, 0, 16, 25]\nclass = BL", fillcolor="#f2bff7"] ;
328 -> 329 ;
330 [label="HMLp <= -295.133\ngini = 0.547\nsamples = 25\nvalue = [3, 0, 15, 7]\nclass = BH", fillcolor="#a7d3f3"] ;
329 -> 330 ;
331 [label="gini = 0.0\nsamples = 7\nvalue = [0, 0, 0, 7]\nclass = BL", fillcolor="#d739e5"] ;
330 -> 331 ;
332 [label="SBcov <= 0.571\ngini = 0.278\nsamples = 18\nvalue = [3, 0, 15, 0]\nclass = BH", fillcolor="#61b1ea"] ;
330 -> 332 ;
333 [label="gini = 0.0\nsamples = 12\nvalue = [0, 0, 12, 0]\nclass = BH", fillcolor="#399de5"] ;
332 -> 333 ;
334 [label="SHCovp <= -493.023\ngini = 0.5\nsamples = 6\nvalue = [3, 0, 3, 0]\nclass = SH", fillcolor="#ffffff"] ;
332 -> 334 ;
335 [label="gini = 0.0\nsamples = 3\nvalue = [0, 0, 3, 0]\nclass = BH", fillcolor="#399de5"] ;
334 -> 335 ;
336 [label="gini = 0.0\nsamples = 3\nvalue = [3, 0, 0, 0]\nclass = SH", fillcolor="#e58139"] ;
334 -> 336 ;
337 [label="CBOEVIX_spr <= -0.0\ngini = 0.1\nsamples = 19\nvalue = [0, 0, 1, 18]\nclass = BL", fillcolor="#d944e6"] ;
329 -> 337 ;
338 [label="gini = 0.0\nsamples = 18\nvalue = [0, 0, 0, 18]\nclass = BL", fillcolor="#d739e5"] ;
337 -> 338 ;
339 [label="gini = 0.0\nsamples = 1\nvalue = [0, 0, 1, 0]\nclass = BH", fillcolor="#399de5"] ;
337 -> 339 ;
340 [label="Rsqr <= 0.035\ngini = 0.238\nsamples = 68\nvalue = [5, 0, 59, 4]\nclass = BH", fillcolor="#55abe9"] ;
328 -> 340 ;
341 [label="SBcov <= 0.183\ngini = 0.375\nsamples = 4\nvalue = [0, 0, 1, 3]\nclass = BL", fillcolor="#e47bee"] ;
340 -> 341 ;
342 [label="gini = 0.0\nsamples = 3\nvalue = [0, 0, 0, 3]\nclass = BL", fillcolor="#d739e5"] ;
341 -> 342 ;
343 [label="gini = 0.0\nsamples = 1\nvalue = [0, 0, 1, 0]\nclass = BH", fillcolor="#399de5"] ;
341 -> 343 ;
344 [label="SHCov <= 0.0\ngini = 0.172\nsamples = 64\nvalue = [5, 0, 58, 1]\nclass = BH", fillcolor="#4da7e8"] ;
340 -> 344 ;
345 [label="SHCovp <= -139.451\ngini = 0.48\nsamples = 10\nvalue = [4, 0, 6, 0]\nclass = BH", fillcolor="#bddef6"] ;
344 -> 345 ;
346 [label="gini = 0.0\nsamples = 4\nvalue = [4, 0, 0, 0]\nclass = SH", fillcolor="#e58139"] ;
345 -> 346 ;
347 [label="gini = 0.0\nsamples = 6\nvalue = [0, 0, 6, 0]\nclass = BH", fillcolor="#399de5"] ;
345 -> 347 ;
348 [label="SHCov <= 0.0\ngini = 0.072\nsamples = 54\nvalue = [1, 0, 52, 1]\nclass = BH", fillcolor="#40a1e6"] ;
344 -> 348 ;
349 [label="SHCovp <= 69.363\ngini = 0.038\nsamples = 52\nvalue = [0, 0, 51, 1]\nclass = BH", fillcolor="#3d9fe6"] ;
348 -> 349 ;
350 [label="gini = 0.0\nsamples = 48\nvalue = [0, 0, 48, 0]\nclass = BH", fillcolor="#399de5"] ;
349 -> 350 ;
351 [label="SMBVol <= 0.0\ngini = 0.375\nsamples = 4\nvalue = [0, 0, 3, 1]\nclass = BH", fillcolor="#7bbeee"] ;
349 -> 351 ;
352 [label="gini = 0.0\nsamples = 3\nvalue = [0, 0, 3, 0]\nclass = BH", fillcolor="#399de5"] ;
351 -> 352 ;
353 [label="gini = 0.0\nsamples = 1\nvalue = [0, 0, 0, 1]\nclass = BL", fillcolor="#d739e5"] ;
351 -> 353 ;
354 [label="SHCov <= 0.0\ngini = 0.5\nsamples = 2\nvalue = [1, 0, 1, 0]\nclass = SH", fillcolor="#ffffff"] ;
348 -> 354 ;
355 [label="gini = 0.0\nsamples = 1\nvalue = [1, 0, 0, 0]\nclass = SH", fillcolor="#e58139"] ;
354 -> 355 ;
356 [label="gini = 0.0\nsamples = 1\nvalue = [0, 0, 1, 0]\nclass = BH", fillcolor="#399de5"] ;
354 -> 356 ;
357 [label="HML_mom <= 1.028\ngini = 0.389\nsamples = 100\nvalue = [77, 9, 7, 7]\nclass = SH", fillcolor="#eca16b"] ;
287 -> 357 ;
358 [label="SBcov <= 0.418\ngini = 0.196\nsamples = 75\nvalue = [67, 5, 3, 0]\nclass = SH", fillcolor="#e88f50"] ;
357 -> 358 ;
359 [label="gini = 0.0\nsamples = 2\nvalue = [0, 0, 2, 0]\nclass = BH", fillcolor="#399de5"] ;
358 -> 359 ;
360 [label="SMBp <= -55.532\ngini = 0.153\nsamples = 73\nvalue = [67, 5, 1, 0]\nclass = SH", fillcolor="#e78c4a"] ;
358 -> 360 ;
361 [label="gini = 0.0\nsamples = 45\nvalue = [45, 0, 0, 0]\nclass = SH", fillcolor="#e58139"] ;
360 -> 361 ;
362 [label="SHCov <= 0.0\ngini = 0.349\nsamples = 28\nvalue = [22, 5, 1, 0]\nclass = SH", fillcolor="#eca26d"] ;
360 -> 362 ;
363 [label="SBcov <= 0.435\ngini = 0.375\nsamples = 4\nvalue = [0, 3, 1, 0]\nclass = SL", fillcolor="#84ee7b"] ;
362 -> 363 ;
364 [label="gini = 0.0\nsamples = 1\nvalue = [0, 0, 1, 0]\nclass = BH", fillcolor="#399de5"] ;
363 -> 364 ;
365 [label="gini = 0.0\nsamples = 3\nvalue = [0, 3, 0, 0]\nclass = SL", fillcolor="#47e539"] ;
363 -> 365 ;
366 [label="SBcov <= 0.467\ngini = 0.153\nsamples = 24\nvalue = [22, 2, 0, 0]\nclass = SH", fillcolor="#e78c4b"] ;
362 -> 366 ;
367 [label="CBOEVIX_spr <= -0.002\ngini = 0.444\nsamples = 6\nvalue = [4, 2, 0, 0]\nclass = SH", fillcolor="#f2c09c"] ;
366 -> 367 ;
368 [label="gini = 0.0\nsamples = 2\nvalue = [0, 2, 0, 0]\nclass = SL", fillcolor="#47e539"] ;
367 -> 368 ;
369 [label="gini = 0.0\nsamples = 4\nvalue = [4, 0, 0, 0]\nclass = SH", fillcolor="#e58139"] ;
367 -> 369 ;
370 [label="gini = 0.0\nsamples = 18\nvalue = [18, 0, 0, 0]\nclass = SH", fillcolor="#e58139"] ;
366 -> 370 ;
371 [label="SBcov <= 0.441\ngini = 0.71\nsamples = 25\nvalue = [10, 4, 4, 7]\nclass = SH", fillcolor="#fbeade"] ;
357 -> 371 ;
372 [label="SMB_mom <= 1.053\ngini = 0.165\nsamples = 11\nvalue = [10, 0, 1, 0]\nclass = SH", fillcolor="#e88e4d"] ;
371 -> 372 ;
373 [label="gini = 0.0\nsamples = 10\nvalue = [10, 0, 0, 0]\nclass = SH", fillcolor="#e58139"] ;
372 -> 373 ;
374 [label="gini = 0.0\nsamples = 1\nvalue = [0, 0, 1, 0]\nclass = BH", fillcolor="#399de5"] ;
372 -> 374 ;
375 [label="SHCovp <= 22.187\ngini = 0.622\nsamples = 14\nvalue = [0, 4, 3, 7]\nclass = BL", fillcolor="#f3c4f7"] ;
371 -> 375 ;
376 [label="CBOEVIX_spr <= -0.003\ngini = 0.49\nsamples = 7\nvalue = [0, 4, 3, 0]\nclass = SL", fillcolor="#d1f8ce"] ;
375 -> 376 ;
377 [label="gini = 0.0\nsamples = 3\nvalue = [0, 0, 3, 0]\nclass = BH", fillcolor="#399de5"] ;
376 -> 377 ;
378 [label="gini = 0.0\nsamples = 4\nvalue = [0, 4, 0, 0]\nclass = SL", fillcolor="#47e539"] ;
376 -> 378 ;
379 [label="gini = 0.0\nsamples = 7\nvalue = [0, 0, 0, 7]\nclass = BL", fillcolor="#d739e5"] ;
375 -> 379 ;
380 [label="HMLVol <= 0.0\ngini = 0.726\nsamples = 1387\nvalue = [335, 269, 256, 527]\nclass = BL", fillcolor="#f8dbfa"] ;
2 -> 380 ;
381 [label="SHCov <= 0.0\ngini = 0.687\nsamples = 747\nvalue = [112, 139, 148, 348]\nclass = BL", fillcolor="#f2bdf6"] ;
380 -> 381 ;
382 [label="SMB_mom <= 0.991\ngini = 0.673\nsamples = 704\nvalue = [106, 139, 115, 344]\nclass = BL", fillcolor="#f0b7f6"] ;
381 -> 382 ;
383 [label="HMLVol <= 0.0\ngini = 0.722\nsamples = 383\nvalue = [87, 90, 59, 147]\nclass = BL", fillcolor="#f7d8fa"] ;
382 -> 383 ;
384 [label="HMLVol <= 0.0\ngini = 0.605\nsamples = 83\nvalue = [48, 13, 9, 13]\nclass = SH", fillcolor="#f2c09c"] ;
383 -> 384 ;
385 [label="SMB_mom <= 0.935\ngini = 0.723\nsamples = 35\nvalue = [5, 8, 9, 13]\nclass = BL", fillcolor="#f9e1fb"] ;
384 -> 385 ;
386 [label="gini = 0.0\nsamples = 5\nvalue = [5, 0, 0, 0]\nclass = SH", fillcolor="#e58139"] ;
385 -> 386 ;
387 [label="SBcov <= 0.269\ngini = 0.651\nsamples = 30\nvalue = [0, 8, 9, 13]\nclass = BL", fillcolor="#f7d9fa"] ;
385 -> 387 ;
388 [label="gini = 0.0\nsamples = 5\nvalue = [0, 0, 5, 0]\nclass = BH", fillcolor="#399de5"] ;
387 -> 388 ;
389 [label="SHCov <= -0.0\ngini = 0.602\nsamples = 25\nvalue = [0, 8, 4, 13]\nclass = BL", fillcolor="#f3c5f7"] ;
387 -> 389 ;
390 [label="Rsqr <= 0.141\ngini = 0.542\nsamples = 12\nvalue = [0, 7, 4, 1]\nclass = SL", fillcolor="#baf5b5"] ;
389 -> 390 ;
391 [label="gini = 0.0\nsamples = 4\nvalue = [0, 0, 4, 0]\nclass = BH", fillcolor="#399de5"] ;
390 -> 391 ;
392 [label="SMBVol <= 0.0\ngini = 0.219\nsamples = 8\nvalue = [0, 7, 0, 1]\nclass = SL", fillcolor="#61e955"] ;
390 -> 392 ;
393 [label="gini = 0.0\nsamples = 7\nvalue = [0, 7, 0, 0]\nclass = SL", fillcolor="#47e539"] ;
392 -> 393 ;
394 [label="gini = 0.0\nsamples = 1\nvalue = [0, 0, 0, 1]\nclass = BL", fillcolor="#d739e5"] ;
392 -> 394 ;
395 [label="SBcov <= 0.494\ngini = 0.142\nsamples = 13\nvalue = [0, 1, 0, 12]\nclass = BL", fillcolor="#da49e7"] ;
389 -> 395 ;
396 [label="gini = 0.0\nsamples = 12\nvalue = [0, 0, 0, 12]\nclass = BL", fillcolor="#d739e5"] ;
395 -> 396 ;
397 [label="gini = 0.0\nsamples = 1\nvalue = [0, 1, 0, 0]\nclass = SL", fillcolor="#47e539"] ;
395 -> 397 ;
398 [label="SMBVol <= 0.0\ngini = 0.187\nsamples = 48\nvalue = [43, 5, 0, 0]\nclass = SH", fillcolor="#e89050"] ;
384 -> 398 ;
399 [label="gini = 0.0\nsamples = 35\nvalue = [35, 0, 0, 0]\nclass = SH", fillcolor="#e58139"] ;
398 -> 399 ;
400 [label="HMLp <= -103.96\ngini = 0.473\nsamples = 13\nvalue = [8, 5, 0, 0]\nclass = SH", fillcolor="#f5d0b5"] ;
398 -> 400 ;
401 [label="gini = 0.0\nsamples = 4\nvalue = [0, 4, 0, 0]\nclass = SL", fillcolor="#47e539"] ;
400 -> 401 ;
402 [label="Rsqr <= 0.2\ngini = 0.198\nsamples = 9\nvalue = [8, 1, 0, 0]\nclass = SH", fillcolor="#e89152"] ;
400 -> 402 ;
403 [label="gini = 0.0\nsamples = 8\nvalue = [8, 0, 0, 0]\nclass = SH", fillcolor="#e58139"] ;
402 -> 403 ;
404 [label="gini = 0.0\nsamples = 1\nvalue = [0, 1, 0, 0]\nclass = SL", fillcolor="#47e539"] ;
402 -> 404 ;
405 [label="HMLVol <= 0.0\ngini = 0.69\nsamples = 300\nvalue = [39, 77, 50, 134]\nclass = BL", fillcolor="#f5ccf8"] ;
383 -> 405 ;
406 [label="HML_mom <= 0.976\ngini = 0.684\nsamples = 235\nvalue = [32, 43, 50, 110]\nclass = BL", fillcolor="#f2bff7"] ;
405 -> 406 ;
407 [label="SMBp <= -82.732\ngini = 0.67\nsamples = 89\nvalue = [8, 13, 40, 28]\nclass = BH", fillcolor="#d8ecfa"] ;
406 -> 407 ;
408 [label="SHCov <= 0.0\ngini = 0.304\nsamples = 34\nvalue = [2, 0, 28, 4]\nclass = BH", fillcolor="#61b1ea"] ;
407 -> 408 ;
409 [label="HMLp <= 303.212\ngini = 0.219\nsamples = 32\nvalue = [0, 0, 28, 4]\nclass = BH", fillcolor="#55abe9"] ;
408 -> 409 ;
410 [label="SMBVol <= 0.0\ngini = 0.124\nsamples = 30\nvalue = [0, 0, 28, 2]\nclass = BH", fillcolor="#47a4e7"] ;
409 -> 410 ;
411 [label="Rsqr <= 0.223\ngini = 0.5\nsamples = 4\nvalue = [0, 0, 2, 2]\nclass = BH", fillcolor="#ffffff"] ;
410 -> 411 ;
412 [label="gini = 0.0\nsamples = 2\nvalue = [0, 0, 2, 0]\nclass = BH", fillcolor="#399de5"] ;
411 -> 412 ;
413 [label="gini = 0.0\nsamples = 2\nvalue = [0, 0, 0, 2]\nclass = BL", fillcolor="#d739e5"] ;
411 -> 413 ;
414 [label="gini = 0.0\nsamples = 26\nvalue = [0, 0, 26, 0]\nclass = BH", fillcolor="#399de5"] ;
410 -> 414 ;
415 [label="gini = 0.0\nsamples = 2\nvalue = [0, 0, 0, 2]\nclass = BL", fillcolor="#d739e5"] ;
409 -> 415 ;
416 [label="gini = 0.0\nsamples = 2\nvalue = [2, 0, 0, 0]\nclass = SH", fillcolor="#e58139"] ;
408 -> 416 ;
417 [label="Rsqr <= 0.267\ngini = 0.694\nsamples = 55\nvalue = [6, 13, 12, 24]\nclass = BL", fillcolor="#f5cbf8"] ;
407 -> 417 ;
418 [label="Rsqr <= 0.202\ngini = 0.646\nsamples = 46\nvalue = [6, 13, 4, 23]\nclass = BL", fillcolor="#f3c3f7"] ;
417 -> 418 ;
419 [label="SMBVol <= 0.0\ngini = 0.577\nsamples = 33\nvalue = [6, 3, 4, 20]\nclass = BL", fillcolor="#ea98f2"] ;
418 -> 419 ;
420 [label="HLcov <= 1.167\ngini = 0.105\nsamples = 18\nvalue = [0, 0, 1, 17]\nclass = BL", fillcolor="#d945e7"] ;
419 -> 420 ;
421 [label="gini = 0.0\nsamples = 17\nvalue = [0, 0, 0, 17]\nclass = BL", fillcolor="#d739e5"] ;
420 -> 421 ;
422 [label="gini = 0.0\nsamples = 1\nvalue = [0, 0, 1, 0]\nclass = BH", fillcolor="#399de5"] ;
420 -> 422 ;
423 [label="HMLVol <= 0.0\ngini = 0.72\nsamples = 15\nvalue = [6, 3, 3, 3]\nclass = SH", fillcolor="#f8e0ce"] ;
419 -> 423 ;
424 [label="SMBVol <= 0.0\ngini = 0.5\nsamples = 6\nvalue = [0, 0, 3, 3]\nclass = BH", fillcolor="#ffffff"] ;
423 -> 424 ;
425 [label="gini = 0.0\nsamples = 3\nvalue = [0, 0, 3, 0]\nclass = BH", fillcolor="#399de5"] ;
424 -> 425 ;
426 [label="gini = 0.0\nsamples = 3\nvalue = [0, 0, 0, 3]\nclass = BL", fillcolor="#d739e5"] ;
424 -> 426 ;
427 [label="HLcov <= 1.068\ngini = 0.444\nsamples = 9\nvalue = [6, 3, 0, 0]\nclass = SH", fillcolor="#f2c09c"] ;
423 -> 427 ;
428 [label="gini = 0.0\nsamples = 3\nvalue = [0, 3, 0, 0]\nclass = SL", fillcolor="#47e539"] ;
427 -> 428 ;
429 [label="gini = 0.0\nsamples = 6\nvalue = [6, 0, 0, 0]\nclass = SH", fillcolor="#e58139"] ;
427 -> 429 ;
430 [label="SHCovp <= 62.294\ngini = 0.355\nsamples = 13\nvalue = [0, 10, 0, 3]\nclass = SL", fillcolor="#7eed74"] ;
418 -> 430 ;
431 [label="gini = 0.0\nsamples = 9\nvalue = [0, 9, 0, 0]\nclass = SL", fillcolor="#47e539"] ;
430 -> 431 ;
432 [label="SHCov <= 0.0\ngini = 0.375\nsamples = 4\nvalue = [0, 1, 0, 3]\nclass = BL", fillcolor="#e47bee"] ;
430 -> 432 ;
433 [label="gini = 0.0\nsamples = 3\nvalue = [0, 0, 0, 3]\nclass = BL", fillcolor="#d739e5"] ;
432 -> 433 ;
434 [label="gini = 0.0\nsamples = 1\nvalue = [0, 1, 0, 0]\nclass = SL", fillcolor="#47e539"] ;
432 -> 434 ;
435 [label="SHCovp <= 240.819\ngini = 0.198\nsamples = 9\nvalue = [0, 0, 8, 1]\nclass = BH", fillcolor="#52a9e8"] ;
417 -> 435 ;
436 [label="gini = 0.0\nsamples = 8\nvalue = [0, 0, 8, 0]\nclass = BH", fillcolor="#399de5"] ;
435 -> 436 ;
437 [label="gini = 0.0\nsamples = 1\nvalue = [0, 0, 0, 1]\nclass = BL", fillcolor="#d739e5"] ;
435 -> 437 ;
438 [label="SBcov <= 1.019\ngini = 0.611\nsamples = 146\nvalue = [24, 30, 10, 82]\nclass = BL", fillcolor="#eda6f3"] ;
406 -> 438 ;
439 [label="SMB_mom <= 0.949\ngini = 0.593\nsamples = 140\nvalue = [24, 24, 10, 82]\nclass = BL", fillcolor="#eb9cf2"] ;
438 -> 439 ;
440 [label="Rsqr <= 0.246\ngini = 0.646\nsamples = 32\nvalue = [6, 15, 1, 10]\nclass = SL", fillcolor="#d5f9d2"] ;
439 -> 440 ;
441 [label="SHCov <= 0.0\ngini = 0.381\nsamples = 17\nvalue = [3, 13, 0, 1]\nclass = SL", fillcolor="#7cec72"] ;
440 -> 441 ;
442 [label="HMLVol <= 0.0\ngini = 0.133\nsamples = 14\nvalue = [0, 13, 0, 1]\nclass = SL", fillcolor="#55e748"] ;
441 -> 442 ;
443 [label="gini = 0.0\nsamples = 1\nvalue = [0, 0, 0, 1]\nclass = BL", fillcolor="#d739e5"] ;
442 -> 443 ;
444 [label="gini = 0.0\nsamples = 13\nvalue = [0, 13, 0, 0]\nclass = SL", fillcolor="#47e539"] ;
442 -> 444 ;
445 [label="gini = 0.0\nsamples = 3\nvalue = [3, 0, 0, 0]\nclass = SH", fillcolor="#e58139"] ;
441 -> 445 ;
446 [label="HMLp <= -105.478\ngini = 0.578\nsamples = 15\nvalue = [3, 2, 1, 9]\nclass = BL", fillcolor="#eb9cf2"] ;
440 -> 446 ;
447 [label="HMLVol <= 0.0\ngini = 0.611\nsamples = 6\nvalue = [3, 2, 0, 1]\nclass = SH", fillcolor="#f8e0ce"] ;
446 -> 447 ;
448 [label="gini = 0.0\nsamples = 3\nvalue = [3, 0, 0, 0]\nclass = SH", fillcolor="#e58139"] ;
447 -> 448 ;
449 [label="HMLVol <= 0.0\ngini = 0.444\nsamples = 3\nvalue = [0, 2, 0, 1]\nclass = SL", fillcolor="#a3f29c"] ;
447 -> 449 ;
450 [label="gini = 0.0\nsamples = 2\nvalue = [0, 2, 0, 0]\nclass = SL", fillcolor="#47e539"] ;
449 -> 450 ;
451 [label="gini = 0.0\nsamples = 1\nvalue = [0, 0, 0, 1]\nclass = BL", fillcolor="#d739e5"] ;
449 -> 451 ;
452 [label="SBcov <= 0.324\ngini = 0.198\nsamples = 9\nvalue = [0, 0, 1, 8]\nclass = BL", fillcolor="#dc52e8"] ;
446 -> 452 ;
453 [label="gini = 0.0\nsamples = 1\nvalue = [0, 0, 1, 0]\nclass = BH", fillcolor="#399de5"] ;
452 -> 453 ;
454 [label="gini = 0.0\nsamples = 8\nvalue = [0, 0, 0, 8]\nclass = BL", fillcolor="#d739e5"] ;
452 -> 454 ;
455 [label="SMBp <= 336.361\ngini = 0.514\nsamples = 108\nvalue = [18, 9, 9, 72]\nclass = BL", fillcolor="#e788ef"] ;
439 -> 455 ;
456 [label="SHCovp <= -235.47\ngini = 0.469\nsamples = 102\nvalue = [15, 9, 6, 72]\nclass = BL", fillcolor="#e57dee"] ;
455 -> 456 ;
457 [label="HML_mom <= 1.014\ngini = 0.66\nsamples = 10\nvalue = [5, 2, 1, 2]\nclass = SH", fillcolor="#f5d0b5"] ;
456 -> 457 ;
458 [label="HLcov <= 1.07\ngini = 0.625\nsamples = 4\nvalue = [1, 2, 1, 0]\nclass = SL", fillcolor="#c2f6bd"] ;
457 -> 458 ;
459 [label="gini = 0.0\nsamples = 2\nvalue = [0, 2, 0, 0]\nclass = SL", fillcolor="#47e539"] ;
458 -> 459 ;
460 [label="SHCov <= 0.0\ngini = 0.5\nsamples = 2\nvalue = [1, 0, 1, 0]\nclass = SH", fillcolor="#ffffff"] ;
458 -> 460 ;
461 [label="gini = 0.0\nsamples = 1\nvalue = [0, 0, 1, 0]\nclass = BH", fillcolor="#399de5"] ;
460 -> 461 ;
462 [label="gini = 0.0\nsamples = 1\nvalue = [1, 0, 0, 0]\nclass = SH", fillcolor="#e58139"] ;
460 -> 462 ;
463 [label="HMLVol <= 0.0\ngini = 0.444\nsamples = 6\nvalue = [4, 0, 0, 2]\nclass = SH", fillcolor="#f2c09c"] ;
457 -> 463 ;
464 [label="gini = 0.0\nsamples = 2\nvalue = [0, 0, 0, 2]\nclass = BL", fillcolor="#d739e5"] ;
463 -> 464 ;
465 [label="gini = 0.0\nsamples = 4\nvalue = [4, 0, 0, 0]\nclass = SH", fillcolor="#e58139"] ;
463 -> 465 ;
466 [label="SHCov <= 0.0\ngini = 0.401\nsamples = 92\nvalue = [10, 7, 5, 70]\nclass = BL", fillcolor="#e26eec"] ;
456 -> 466 ;
467 [label="HMLVol <= 0.0\ngini = 0.2\nsamples = 64\nvalue = [2, 0, 5, 57]\nclass = BL", fillcolor="#dc50e8"] ;
466 -> 467 ;
468 [label="CBOEVIX_spr <= -0.001\ngini = 0.444\nsamples = 3\nvalue = [2, 0, 1, 0]\nclass = SH", fillcolor="#f2c09c"] ;
467 -> 468 ;
469 [label="gini = 0.0\nsamples = 2\nvalue = [2, 0, 0, 0]\nclass = SH", fillcolor="#e58139"] ;
468 -> 469 ;
470 [label="gini = 0.0\nsamples = 1\nvalue = [0, 0, 1, 0]\nclass = BH", fillcolor="#399de5"] ;
468 -> 470 ;
471 [label="SMBVol <= 0.0\ngini = 0.123\nsamples = 61\nvalue = [0, 0, 4, 57]\nclass = BL", fillcolor="#da47e7"] ;
467 -> 471 ;
472 [label="CBOEVIX_spr <= -0.001\ngini = 0.375\nsamples = 4\nvalue = [0, 0, 3, 1]\nclass = BH", fillcolor="#7bbeee"] ;
471 -> 472 ;
473 [label="gini = 0.0\nsamples = 1\nvalue = [0, 0, 0, 1]\nclass = BL", fillcolor="#d739e5"] ;
472 -> 473 ;
474 [label="gini = 0.0\nsamples = 3\nvalue = [0, 0, 3, 0]\nclass = BH", fillcolor="#399de5"] ;
472 -> 474 ;
475 [label="SBcov <= 0.433\ngini = 0.034\nsamples = 57\nvalue = [0, 0, 1, 56]\nclass = BL", fillcolor="#d83de5"] ;
471 -> 475 ;
476 [label="gini = 0.0\nsamples = 1\nvalue = [0, 0, 1, 0]\nclass = BH", fillcolor="#399de5"] ;
475 -> 476 ;
477 [label="gini = 0.0\nsamples = 56\nvalue = [0, 0, 0, 56]\nclass = BL", fillcolor="#d739e5"] ;
475 -> 477 ;
478 [label="HML_mom <= 1.038\ngini = 0.64\nsamples = 28\nvalue = [8, 7, 0, 13]\nclass = BL", fillcolor="#f5cef8"] ;
466 -> 478 ;
479 [label="SBcov <= 0.838\ngini = 0.604\nsamples = 15\nvalue = [8, 4, 0, 3]\nclass = SH", fillcolor="#f6d1b7"] ;
478 -> 479 ;
480 [label="SMB_mom <= 0.969\ngini = 0.444\nsamples = 12\nvalue = [8, 4, 0, 0]\nclass = SH", fillcolor="#f2c09c"] ;
479 -> 480 ;
481 [label="gini = 0.0\nsamples = 6\nvalue = [6, 0, 0, 0]\nclass = SH", fillcolor="#e58139"] ;
480 -> 481 ;
482 [label="SHCov <= 0.0\ngini = 0.444\nsamples = 6\nvalue = [2, 4, 0, 0]\nclass = SL", fillcolor="#a3f29c"] ;
480 -> 482 ;
483 [label="gini = 0.0\nsamples = 2\nvalue = [2, 0, 0, 0]\nclass = SH", fillcolor="#e58139"] ;
482 -> 483 ;
484 [label="gini = 0.0\nsamples = 4\nvalue = [0, 4, 0, 0]\nclass = SL", fillcolor="#47e539"] ;
482 -> 484 ;
485 [label="gini = 0.0\nsamples = 3\nvalue = [0, 0, 0, 3]\nclass = BL", fillcolor="#d739e5"] ;
479 -> 485 ;
486 [label="CBOEVIX_spr <= -0.002\ngini = 0.355\nsamples = 13\nvalue = [0, 3, 0, 10]\nclass = BL", fillcolor="#e374ed"] ;
478 -> 486 ;
487 [label="SBcov <= 0.847\ngini = 0.375\nsamples = 4\nvalue = [0, 3, 0, 1]\nclass = SL", fillcolor="#84ee7b"] ;
486 -> 487 ;
488 [label="gini = 0.0\nsamples = 3\nvalue = [0, 3, 0, 0]\nclass = SL", fillcolor="#47e539"] ;
487 -> 488 ;
489 [label="gini = 0.0\nsamples = 1\nvalue = [0, 0, 0, 1]\nclass = BL", fillcolor="#d739e5"] ;
487 -> 489 ;
490 [label="gini = 0.0\nsamples = 9\nvalue = [0, 0, 0, 9]\nclass = BL", fillcolor="#d739e5"] ;
486 -> 490 ;
491 [label="HML_mom <= 1.007\ngini = 0.5\nsamples = 6\nvalue = [3, 0, 3, 0]\nclass = SH", fillcolor="#ffffff"] ;
455 -> 491 ;
492 [label="gini = 0.0\nsamples = 3\nvalue = [3, 0, 0, 0]\nclass = SH", fillcolor="#e58139"] ;
491 -> 492 ;
493 [label="gini = 0.0\nsamples = 3\nvalue = [0, 0, 3, 0]\nclass = BH", fillcolor="#399de5"] ;
491 -> 493 ;
494 [label="gini = 0.0\nsamples = 6\nvalue = [0, 6, 0, 0]\nclass = SL", fillcolor="#47e539"] ;
438 -> 494 ;
495 [label="HMLVol <= 0.0\ngini = 0.578\nsamples = 65\nvalue = [7, 34, 0, 24]\nclass = SL", fillcolor="#d2f9cf"] ;
405 -> 495 ;
496 [label="SHCov <= 0.0\ngini = 0.543\nsamples = 54\nvalue = [7, 33, 0, 14]\nclass = SL", fillcolor="#a8f3a1"] ;
495 -> 496 ;
497 [label="HMLVol <= 0.0\ngini = 0.492\nsamples = 49\nvalue = [7, 33, 0, 9]\nclass = SL", fillcolor="#91ef88"] ;
496 -> 497 ;
498 [label="Rsqr <= 0.352\ngini = 0.496\nsamples = 11\nvalue = [6, 5, 0, 0]\nclass = SH", fillcolor="#fbeade"] ;
497 -> 498 ;
499 [label="gini = 0.0\nsamples = 6\nvalue = [6, 0, 0, 0]\nclass = SH", fillcolor="#e58139"] ;
498 -> 499 ;
500 [label="gini = 0.0\nsamples = 5\nvalue = [0, 5, 0, 0]\nclass = SL", fillcolor="#47e539"] ;
498 -> 500 ;
501 [label="HLcov <= 0.237\ngini = 0.4\nsamples = 38\nvalue = [1, 28, 0, 9]\nclass = SL", fillcolor="#86ee7d"] ;
497 -> 501 ;
502 [label="SMB_mom <= 0.947\ngini = 0.571\nsamples = 7\nvalue = [1, 2, 0, 4]\nclass = BL", fillcolor="#efb0f5"] ;
501 -> 502 ;
503 [label="SBcov <= 0.215\ngini = 0.444\nsamples = 3\nvalue = [1, 2, 0, 0]\nclass = SL", fillcolor="#a3f29c"] ;
502 -> 503 ;
504 [label="gini = 0.0\nsamples = 1\nvalue = [1, 0, 0, 0]\nclass = SH", fillcolor="#e58139"] ;
503 -> 504 ;
505 [label="gini = 0.0\nsamples = 2\nvalue = [0, 2, 0, 0]\nclass = SL", fillcolor="#47e539"] ;
503 -> 505 ;
506 [label="gini = 0.0\nsamples = 4\nvalue = [0, 0, 0, 4]\nclass = BL", fillcolor="#d739e5"] ;
502 -> 506 ;
507 [label="HML_mom <= 0.942\ngini = 0.271\nsamples = 31\nvalue = [0, 26, 0, 5]\nclass = SL", fillcolor="#6aea5f"] ;
501 -> 507 ;
508 [label="gini = 0.0\nsamples = 2\nvalue = [0, 0, 0, 2]\nclass = BL", fillcolor="#d739e5"] ;
507 -> 508 ;
509 [label="CBOEVIX_spr <= -0.003\ngini = 0.185\nsamples = 29\nvalue = [0, 26, 0, 3]\nclass = SL", fillcolor="#5ce850"] ;
507 -> 509 ;
510 [label="SMBp <= 157.256\ngini = 0.444\nsamples = 3\nvalue = [0, 1, 0, 2]\nclass = BL", fillcolor="#eb9cf2"] ;
509 -> 510 ;
511 [label="gini = 0.0\nsamples = 2\nvalue = [0, 0, 0, 2]\nclass = BL", fillcolor="#d739e5"] ;
510 -> 511 ;
512 [label="gini = 0.0\nsamples = 1\nvalue = [0, 1, 0, 0]\nclass = SL", fillcolor="#47e539"] ;
510 -> 512 ;
513 [label="HMLVol <= 0.0\ngini = 0.074\nsamples = 26\nvalue = [0, 25, 0, 1]\nclass = SL", fillcolor="#4ee641"] ;
509 -> 513 ;
514 [label="gini = 0.0\nsamples = 22\nvalue = [0, 22, 0, 0]\nclass = SL", fillcolor="#47e539"] ;
513 -> 514 ;
515 [label="CBOEVIX_spr <= -0.002\ngini = 0.375\nsamples = 4\nvalue = [0, 3, 0, 1]\nclass = SL", fillcolor="#84ee7b"] ;
513 -> 515 ;
516 [label="gini = 0.0\nsamples = 3\nvalue = [0, 3, 0, 0]\nclass = SL", fillcolor="#47e539"] ;
515 -> 516 ;
517 [label="gini = 0.0\nsamples = 1\nvalue = [0, 0, 0, 1]\nclass = BL", fillcolor="#d739e5"] ;
515 -> 517 ;
518 [label="gini = 0.0\nsamples = 5\nvalue = [0, 0, 0, 5]\nclass = BL", fillcolor="#d739e5"] ;
496 -> 518 ;
519 [label="SMBVol <= 0.0\ngini = 0.165\nsamples = 11\nvalue = [0, 1, 0, 10]\nclass = BL", fillcolor="#db4de8"] ;
495 -> 519 ;
520 [label="gini = 0.0\nsamples = 10\nvalue = [0, 0, 0, 10]\nclass = BL", fillcolor="#d739e5"] ;
519 -> 520 ;
521 [label="gini = 0.0\nsamples = 1\nvalue = [0, 1, 0, 0]\nclass = SL", fillcolor="#47e539"] ;
519 -> 521 ;
522 [label="HMLp <= 87.763\ngini = 0.566\nsamples = 321\nvalue = [19, 49, 56, 197]\nclass = BL", fillcolor="#ea96f1"] ;
382 -> 522 ;
523 [label="SMB_mom <= 1.069\ngini = 0.628\nsamples = 267\nvalue = [19, 48, 56, 144]\nclass = BL", fillcolor="#eeacf4"] ;
522 -> 523 ;
524 [label="SHCov <= -0.0\ngini = 0.614\nsamples = 257\nvalue = [19, 48, 46, 144]\nclass = BL", fillcolor="#eda4f3"] ;
523 -> 524 ;
525 [label="SBcov <= 0.505\ngini = 0.614\nsamples = 44\nvalue = [1, 7, 23, 13]\nclass = BH", fillcolor="#bfdff7"] ;
524 -> 525 ;
526 [label="HML_mom <= 0.997\ngini = 0.489\nsamples = 37\nvalue = [1, 0, 23, 13]\nclass = BH", fillcolor="#add6f4"] ;
525 -> 526 ;
527 [label="SHCovp <= 52.718\ngini = 0.211\nsamples = 25\nvalue = [0, 0, 22, 3]\nclass = BH", fillcolor="#54aae9"] ;
526 -> 527 ;
528 [label="HMLp <= -24.47\ngini = 0.083\nsamples = 23\nvalue = [0, 0, 22, 1]\nclass = BH", fillcolor="#42a1e6"] ;
527 -> 528 ;
529 [label="gini = 0.0\nsamples = 22\nvalue = [0, 0, 22, 0]\nclass = BH", fillcolor="#399de5"] ;
528 -> 529 ;
530 [label="gini = 0.0\nsamples = 1\nvalue = [0, 0, 0, 1]\nclass = BL", fillcolor="#d739e5"] ;
528 -> 530 ;
531 [label="gini = 0.0\nsamples = 2\nvalue = [0, 0, 0, 2]\nclass = BL", fillcolor="#d739e5"] ;
527 -> 531 ;
532 [label="SMBVol <= 0.0\ngini = 0.292\nsamples = 12\nvalue = [1, 0, 1, 10]\nclass = BL", fillcolor="#de5dea"] ;
526 -> 532 ;
533 [label="gini = 0.0\nsamples = 10\nvalue = [0, 0, 0, 10]\nclass = BL", fillcolor="#d739e5"] ;
532 -> 533 ;
534 [label="SBcov <= 0.479\ngini = 0.5\nsamples = 2\nvalue = [1, 0, 1, 0]\nclass = SH", fillcolor="#ffffff"] ;
532 -> 534 ;
535 [label="gini = 0.0\nsamples = 1\nvalue = [0, 0, 1, 0]\nclass = BH", fillcolor="#399de5"] ;
534 -> 535 ;
536 [label="gini = 0.0\nsamples = 1\nvalue = [1, 0, 0, 0]\nclass = SH", fillcolor="#e58139"] ;
534 -> 536 ;
537 [label="gini = 0.0\nsamples = 7\nvalue = [0, 7, 0, 0]\nclass = SL", fillcolor="#47e539"] ;
525 -> 537 ;
538 [label="HLcov <= 1.04\ngini = 0.566\nsamples = 213\nvalue = [18, 41, 23, 131]\nclass = BL", fillcolor="#ea97f1"] ;
524 -> 538 ;
539 [label="SHCovp <= 18.536\ngini = 0.455\nsamples = 149\nvalue = [12, 20, 10, 107]\nclass = BL", fillcolor="#e479ed"] ;
538 -> 539 ;
540 [label="HML_mom <= 1.0\ngini = 0.61\nsamples = 82\nvalue = [12, 18, 6, 46]\nclass = BL", fillcolor="#eea8f4"] ;
539 -> 540 ;
541 [label="SBcov <= 0.313\ngini = 0.673\nsamples = 29\nvalue = [9, 13, 3, 4]\nclass = SL", fillcolor="#dafad7"] ;
540 -> 541 ;
542 [label="gini = 0.0\nsamples = 9\nvalue = [9, 0, 0, 0]\nclass = SH", fillcolor="#e58139"] ;
541 -> 542 ;
543 [label="SHCov <= 0.0\ngini = 0.515\nsamples = 20\nvalue = [0, 13, 3, 4]\nclass = SL", fillcolor="#98f090"] ;
541 -> 543 ;
544 [label="SMBp <= -173.624\ngini = 0.24\nsamples = 15\nvalue = [0, 13, 1, 1]\nclass = SL", fillcolor="#61e955"] ;
543 -> 544 ;
545 [label="gini = 0.0\nsamples = 1\nvalue = [0, 0, 0, 1]\nclass = BL", fillcolor="#d739e5"] ;
544 -> 545 ;
546 [label="SMB_mom <= 0.998\ngini = 0.133\nsamples = 14\nvalue = [0, 13, 1, 0]\nclass = SL", fillcolor="#55e748"] ;
544 -> 546 ;
547 [label="gini = 0.0\nsamples = 1\nvalue = [0, 0, 1, 0]\nclass = BH", fillcolor="#399de5"] ;
546 -> 547 ;
548 [label="gini = 0.0\nsamples = 13\nvalue = [0, 13, 0, 0]\nclass = SL", fillcolor="#47e539"] ;
546 -> 548 ;
549 [label="SMB_mom <= 1.015\ngini = 0.48\nsamples = 5\nvalue = [0, 0, 2, 3]\nclass = BL", fillcolor="#f2bdf6"] ;
543 -> 549 ;
550 [label="gini = 0.0\nsamples = 3\nvalue = [0, 0, 0, 3]\nclass = BL", fillcolor="#d739e5"] ;
549 -> 550 ;
551 [label="gini = 0.0\nsamples = 2\nvalue = [0, 0, 2, 0]\nclass = BH", fillcolor="#399de5"] ;
549 -> 551 ;
552 [label="SMBVol <= 0.0\ngini = 0.357\nsamples = 53\nvalue = [3, 5, 3, 42]\nclass = BL", fillcolor="#e066eb"] ;
540 -> 552 ;
553 [label="HMLVol <= 0.0\ngini = 0.286\nsamples = 50\nvalue = [3, 2, 3, 42]\nclass = BL", fillcolor="#de5be9"] ;
552 -> 553 ;
554 [label="SMB_mom <= 1.056\ngini = 0.199\nsamples = 46\nvalue = [3, 2, 0, 41]\nclass = BL", fillcolor="#dc50e8"] ;
553 -> 554 ;
555 [label="SMB_mom <= 0.998\ngini = 0.097\nsamples = 39\nvalue = [0, 2, 0, 37]\nclass = BL", fillcolor="#d944e6"] ;
554 -> 555 ;
556 [label="gini = 0.0\nsamples = 1\nvalue = [0, 1, 0, 0]\nclass = SL", fillcolor="#47e539"] ;
555 -> 556 ;
557 [label="SBcov <= 0.678\ngini = 0.051\nsamples = 38\nvalue = [0, 1, 0, 37]\nclass = BL", fillcolor="#d83ee6"] ;
555 -> 557 ;
558 [label="gini = 0.0\nsamples = 37\nvalue = [0, 0, 0, 37]\nclass = BL", fillcolor="#d739e5"] ;
557 -> 558 ;
559 [label="gini = 0.0\nsamples = 1\nvalue = [0, 1, 0, 0]\nclass = SL", fillcolor="#47e539"] ;
557 -> 559 ;
560 [label="SMBVol <= 0.0\ngini = 0.49\nsamples = 7\nvalue = [3, 0, 0, 4]\nclass = BL", fillcolor="#f5cef8"] ;
554 -> 560 ;
561 [label="gini = 0.0\nsamples = 3\nvalue = [3, 0, 0, 0]\nclass = SH", fillcolor="#e58139"] ;
560 -> 561 ;
562 [label="gini = 0.0\nsamples = 4\nvalue = [0, 0, 0, 4]\nclass = BL", fillcolor="#d739e5"] ;
560 -> 562 ;
563 [label="Rsqr <= 0.51\ngini = 0.375\nsamples = 4\nvalue = [0, 0, 3, 1]\nclass = BH", fillcolor="#7bbeee"] ;
553 -> 563 ;
564 [label="gini = 0.0\nsamples = 3\nvalue = [0, 0, 3, 0]\nclass = BH", fillcolor="#399de5"] ;
563 -> 564 ;
565 [label="gini = 0.0\nsamples = 1\nvalue = [0, 0, 0, 1]\nclass = BL", fillcolor="#d739e5"] ;
563 -> 565 ;
566 [label="gini = 0.0\nsamples = 3\nvalue = [0, 3, 0, 0]\nclass = SL", fillcolor="#47e539"] ;
552 -> 566 ;
567 [label="SHCov <= 0.0\ngini = 0.167\nsamples = 67\nvalue = [0, 2, 4, 61]\nclass = BL", fillcolor="#db4ce7"] ;
539 -> 567 ;
568 [label="HMLp <= -281.881\ngini = 0.116\nsamples = 65\nvalue = [0, 0, 4, 61]\nclass = BL", fillcolor="#da46e7"] ;
567 -> 568 ;
569 [label="SMB_mom <= 1.005\ngini = 0.48\nsamples = 5\nvalue = [0, 0, 2, 3]\nclass = BL", fillcolor="#f2bdf6"] ;
568 -> 569 ;
570 [label="gini = 0.0\nsamples = 2\nvalue = [0, 0, 2, 0]\nclass = BH", fillcolor="#399de5"] ;
569 -> 570 ;
571 [label="gini = 0.0\nsamples = 3\nvalue = [0, 0, 0, 3]\nclass = BL", fillcolor="#d739e5"] ;
569 -> 571 ;
572 [label="SHCovp <= 185.909\ngini = 0.064\nsamples = 60\nvalue = [0, 0, 2, 58]\nclass = BL", fillcolor="#d840e6"] ;
568 -> 572 ;
573 [label="gini = 0.0\nsamples = 46\nvalue = [0, 0, 0, 46]\nclass = BL", fillcolor="#d739e5"] ;
572 -> 573 ;
574 [label="SHCovp <= 190.075\ngini = 0.245\nsamples = 14\nvalue = [0, 0, 2, 12]\nclass = BL", fillcolor="#de5ae9"] ;
572 -> 574 ;
575 [label="gini = 0.0\nsamples = 2\nvalue = [0, 0, 2, 0]\nclass = BH", fillcolor="#399de5"] ;
574 -> 575 ;
576 [label="gini = 0.0\nsamples = 12\nvalue = [0, 0, 0, 12]\nclass = BL", fillcolor="#d739e5"] ;
574 -> 576 ;
577 [label="gini = 0.0\nsamples = 2\nvalue = [0, 2, 0, 0]\nclass = SL", fillcolor="#47e539"] ;
567 -> 577 ;
578 [label="SMBVol <= 0.0\ngini = 0.702\nsamples = 64\nvalue = [6, 21, 13, 24]\nclass = BL", fillcolor="#fcf1fd"] ;
538 -> 578 ;
579 [label="HMLp <= -211.74\ngini = 0.662\nsamples = 54\nvalue = [6, 21, 5, 22]\nclass = BL", fillcolor="#fef9fe"] ;
578 -> 579 ;
580 [label="HML_mom <= 0.95\ngini = 0.357\nsamples = 14\nvalue = [1, 0, 2, 11]\nclass = BL", fillcolor="#e16bec"] ;
579 -> 580 ;
581 [label="SMBp <= 378.487\ngini = 0.444\nsamples = 3\nvalue = [1, 0, 2, 0]\nclass = BH", fillcolor="#9ccef2"] ;
580 -> 581 ;
582 [label="gini = 0.0\nsamples = 1\nvalue = [1, 0, 0, 0]\nclass = SH", fillcolor="#e58139"] ;
581 -> 582 ;
583 [label="gini = 0.0\nsamples = 2\nvalue = [0, 0, 2, 0]\nclass = BH", fillcolor="#399de5"] ;
581 -> 583 ;
584 [label="gini = 0.0\nsamples = 11\nvalue = [0, 0, 0, 11]\nclass = BL", fillcolor="#d739e5"] ;
580 -> 584 ;
585 [label="SMBVol <= 0.0\ngini = 0.628\nsamples = 40\nvalue = [5, 21, 3, 11]\nclass = SL", fillcolor="#c0f6bb"] ;
579 -> 585 ;
586 [label="HLcov <= 1.39\ngini = 0.133\nsamples = 14\nvalue = [1, 13, 0, 0]\nclass = SL", fillcolor="#55e748"] ;
585 -> 586 ;
587 [label="gini = 0.0\nsamples = 13\nvalue = [0, 13, 0, 0]\nclass = SL", fillcolor="#47e539"] ;
586 -> 587 ;
588 [label="gini = 0.0\nsamples = 1\nvalue = [1, 0, 0, 0]\nclass = SH", fillcolor="#e58139"] ;
586 -> 588 ;
589 [label="SMBp <= 359.295\ngini = 0.689\nsamples = 26\nvalue = [4, 8, 3, 11]\nclass = BL", fillcolor="#f8defb"] ;
585 -> 589 ;
590 [label="SMBp <= 329.504\ngini = 0.599\nsamples = 22\nvalue = [0, 8, 3, 11]\nclass = BL", fillcolor="#f6d5f9"] ;
589 -> 590 ;
591 [label="SHCovp <= 113.87\ngini = 0.519\nsamples = 17\nvalue = [0, 3, 3, 11]\nclass = BL", fillcolor="#e88ef0"] ;
590 -> 591 ;
592 [label="SBcov <= 0.887\ngini = 0.667\nsamples = 9\nvalue = [0, 3, 3, 3]\nclass = SL", fillcolor="#ffffff"] ;
591 -> 592 ;
593 [label="gini = 0.0\nsamples = 3\nvalue = [0, 3, 0, 0]\nclass = SL", fillcolor="#47e539"] ;
592 -> 593 ;
594 [label="HMLp <= 69.913\ngini = 0.5\nsamples = 6\nvalue = [0, 0, 3, 3]\nclass = BH", fillcolor="#ffffff"] ;
592 -> 594 ;
595 [label="HLcov <= 1.389\ngini = 0.375\nsamples = 4\nvalue = [0, 0, 1, 3]\nclass = BL", fillcolor="#e47bee"] ;
594 -> 595 ;
596 [label="gini = 0.0\nsamples = 3\nvalue = [0, 0, 0, 3]\nclass = BL", fillcolor="#d739e5"] ;
595 -> 596 ;
597 [label="gini = 0.0\nsamples = 1\nvalue = [0, 0, 1, 0]\nclass = BH", fillcolor="#399de5"] ;
595 -> 597 ;
598 [label="gini = 0.0\nsamples = 2\nvalue = [0, 0, 2, 0]\nclass = BH", fillcolor="#399de5"] ;
594 -> 598 ;
599 [label="gini = 0.0\nsamples = 8\nvalue = [0, 0, 0, 8]\nclass = BL", fillcolor="#d739e5"] ;
591 -> 599 ;
600 [label="gini = 0.0\nsamples = 5\nvalue = [0, 5, 0, 0]\nclass = SL", fillcolor="#47e539"] ;
590 -> 600 ;
601 [label="gini = 0.0\nsamples = 4\nvalue = [4, 0, 0, 0]\nclass = SH", fillcolor="#e58139"] ;
589 -> 601 ;
602 [label="SHCov <= 0.0\ngini = 0.32\nsamples = 10\nvalue = [0, 0, 8, 2]\nclass = BH", fillcolor="#6ab6ec"] ;
578 -> 602 ;
603 [label="SBcov <= 0.843\ngini = 0.198\nsamples = 9\nvalue = [0, 0, 8, 1]\nclass = BH", fillcolor="#52a9e8"] ;
602 -> 603 ;
604 [label="gini = 0.0\nsamples = 7\nvalue = [0, 0, 7, 0]\nclass = BH", fillcolor="#399de5"] ;
603 -> 604 ;
605 [label="HML_mom <= 0.996\ngini = 0.5\nsamples = 2\nvalue = [0, 0, 1, 1]\nclass = BH", fillcolor="#ffffff"] ;
603 -> 605 ;
606 [label="gini = 0.0\nsamples = 1\nvalue = [0, 0, 1, 0]\nclass = BH", fillcolor="#399de5"] ;
605 -> 606 ;
607 [label="gini = 0.0\nsamples = 1\nvalue = [0, 0, 0, 1]\nclass = BL", fillcolor="#d739e5"] ;
605 -> 607 ;
608 [label="gini = 0.0\nsamples = 1\nvalue = [0, 0, 0, 1]\nclass = BL", fillcolor="#d739e5"] ;
602 -> 608 ;
609 [label="gini = 0.0\nsamples = 10\nvalue = [0, 0, 10, 0]\nclass = BH", fillcolor="#399de5"] ;
523 -> 609 ;
610 [label="SMBp <= -182.225\ngini = 0.036\nsamples = 54\nvalue = [0, 1, 0, 53]\nclass = BL", fillcolor="#d83de5"] ;
522 -> 610 ;
611 [label="gini = 0.0\nsamples = 1\nvalue = [0, 1, 0, 0]\nclass = SL", fillcolor="#47e539"] ;
610 -> 611 ;
612 [label="gini = 0.0\nsamples = 53\nvalue = [0, 0, 0, 53]\nclass = BL", fillcolor="#d739e5"] ;
610 -> 612 ;
613 [label="SMBp <= -55.262\ngini = 0.383\nsamples = 43\nvalue = [6, 0, 33, 4]\nclass = BH", fillcolor="#6fb7ec"] ;
381 -> 613 ;
614 [label="gini = 0.0\nsamples = 6\nvalue = [6, 0, 0, 0]\nclass = SH", fillcolor="#e58139"] ;
613 -> 614 ;
615 [label="SMBp <= -49.666\ngini = 0.193\nsamples = 37\nvalue = [0, 0, 33, 4]\nclass = BH", fillcolor="#51a9e8"] ;
613 -> 615 ;
616 [label="gini = 0.0\nsamples = 33\nvalue = [0, 0, 33, 0]\nclass = BH", fillcolor="#399de5"] ;
615 -> 616 ;
617 [label="gini = 0.0\nsamples = 4\nvalue = [0, 0, 0, 4]\nclass = BL", fillcolor="#d739e5"] ;
615 -> 617 ;
618 [label="SHCov <= 0.0\ngini = 0.731\nsamples = 640\nvalue = [223, 130, 108, 179]\nclass = SH", fillcolor="#fdf3ec"] ;
380 -> 618 ;
619 [label="SHCov <= 0.0\ngini = 0.465\nsamples = 112\nvalue = [76, 6, 30, 0]\nclass = SH", fillcolor="#f0b890"] ;
618 -> 619 ;
620 [label="SMBp <= 213.41\ngini = 0.206\nsamples = 62\nvalue = [55, 5, 2, 0]\nclass = SH", fillcolor="#e89051"] ;
619 -> 620 ;
621 [label="Rsqr <= 0.48\ngini = 0.153\nsamples = 60\nvalue = [55, 5, 0, 0]\nclass = SH", fillcolor="#e78c4b"] ;
620 -> 621 ;
622 [label="gini = 0.0\nsamples = 44\nvalue = [44, 0, 0, 0]\nclass = SH", fillcolor="#e58139"] ;
621 -> 622 ;
623 [label="HLcov <= 1.306\ngini = 0.43\nsamples = 16\nvalue = [11, 5, 0, 0]\nclass = SH", fillcolor="#f1ba93"] ;
621 -> 623 ;
624 [label="SBcov <= 0.752\ngini = 0.32\nsamples = 5\nvalue = [1, 4, 0, 0]\nclass = SL", fillcolor="#75ec6a"] ;
623 -> 624 ;
625 [label="gini = 0.0\nsamples = 1\nvalue = [1, 0, 0, 0]\nclass = SH", fillcolor="#e58139"] ;
624 -> 625 ;
626 [label="gini = 0.0\nsamples = 4\nvalue = [0, 4, 0, 0]\nclass = SL", fillcolor="#47e539"] ;
624 -> 626 ;
627 [label="HMLp <= -97.05\ngini = 0.165\nsamples = 11\nvalue = [10, 1, 0, 0]\nclass = SH", fillcolor="#e88e4d"] ;
623 -> 627 ;
628 [label="gini = 0.0\nsamples = 1\nvalue = [0, 1, 0, 0]\nclass = SL", fillcolor="#47e539"] ;
627 -> 628 ;
629 [label="gini = 0.0\nsamples = 10\nvalue = [10, 0, 0, 0]\nclass = SH", fillcolor="#e58139"] ;
627 -> 629 ;
630 [label="gini = 0.0\nsamples = 2\nvalue = [0, 0, 2, 0]\nclass = BH", fillcolor="#399de5"] ;
620 -> 630 ;
631 [label="SMB_mom <= 1.023\ngini = 0.51\nsamples = 50\nvalue = [21, 1, 28, 0]\nclass = BH", fillcolor="#cfe7f9"] ;
619 -> 631 ;
632 [label="SHCovp <= 359.612\ngini = 0.335\nsamples = 20\nvalue = [16, 1, 3, 0]\nclass = SH", fillcolor="#eb9f68"] ;
631 -> 632 ;
633 [label="gini = 0.0\nsamples = 15\nvalue = [15, 0, 0, 0]\nclass = SH", fillcolor="#e58139"] ;
632 -> 633 ;
634 [label="Rsqr <= 0.575\ngini = 0.56\nsamples = 5\nvalue = [1, 1, 3, 0]\nclass = BH", fillcolor="#9ccef2"] ;
632 -> 634 ;
635 [label="SHCov <= 0.0\ngini = 0.5\nsamples = 2\nvalue = [1, 1, 0, 0]\nclass = SH", fillcolor="#ffffff"] ;
634 -> 635 ;
636 [label="gini = 0.0\nsamples = 1\nvalue = [0, 1, 0, 0]\nclass = SL", fillcolor="#47e539"] ;
635 -> 636 ;
637 [label="gini = 0.0\nsamples = 1\nvalue = [1, 0, 0, 0]\nclass = SH", fillcolor="#e58139"] ;
635 -> 637 ;
638 [label="gini = 0.0\nsamples = 3\nvalue = [0, 0, 3, 0]\nclass = BH", fillcolor="#399de5"] ;
634 -> 638 ;
639 [label="SMBp <= -86.772\ngini = 0.278\nsamples = 30\nvalue = [5, 0, 25, 0]\nclass = BH", fillcolor="#61b1ea"] ;
631 -> 639 ;
640 [label="SMB_mom <= 1.027\ngini = 0.375\nsamples = 4\nvalue = [3, 0, 1, 0]\nclass = SH", fillcolor="#eeab7b"] ;
639 -> 640 ;
641 [label="gini = 0.0\nsamples = 1\nvalue = [0, 0, 1, 0]\nclass = BH", fillcolor="#399de5"] ;
640 -> 641 ;
642 [label="gini = 0.0\nsamples = 3\nvalue = [3, 0, 0, 0]\nclass = SH", fillcolor="#e58139"] ;
640 -> 642 ;
643 [label="Rsqr <= 0.567\ngini = 0.142\nsamples = 26\nvalue = [2, 0, 24, 0]\nclass = BH", fillcolor="#49a5e7"] ;
639 -> 643 ;
644 [label="gini = 0.0\nsamples = 23\nvalue = [0, 0, 23, 0]\nclass = BH", fillcolor="#399de5"] ;
643 -> 644 ;
645 [label="SMB_mom <= 1.03\ngini = 0.444\nsamples = 3\nvalue = [2, 0, 1, 0]\nclass = SH", fillcolor="#f2c09c"] ;
643 -> 645 ;
646 [label="gini = 0.0\nsamples = 1\nvalue = [0, 0, 1, 0]\nclass = BH", fillcolor="#399de5"] ;
645 -> 646 ;
647 [label="gini = 0.0\nsamples = 2\nvalue = [2, 0, 0, 0]\nclass = SH", fillcolor="#e58139"] ;
645 -> 647 ;
648 [label="Rsqr <= 0.758\ngini = 0.731\nsamples = 528\nvalue = [147, 124, 78, 179]\nclass = BL", fillcolor="#fceefd"] ;
618 -> 648 ;
649 [label="SHCovp <= -699.086\ngini = 0.728\nsamples = 493\nvalue = [114, 124, 76, 179]\nclass = BL", fillcolor="#f9e1fb"] ;
648 -> 649 ;
650 [label="SMBp <= -275.641\ngini = 0.397\nsamples = 33\nvalue = [0, 0, 24, 9]\nclass = BH", fillcolor="#83c2ef"] ;
649 -> 650 ;
651 [label="HML_mom <= 1.017\ngini = 0.18\nsamples = 10\nvalue = [0, 0, 1, 9]\nclass = BL", fillcolor="#db4fe8"] ;
650 -> 651 ;
652 [label="gini = 0.0\nsamples = 1\nvalue = [0, 0, 1, 0]\nclass = BH", fillcolor="#399de5"] ;
651 -> 652 ;
653 [label="gini = 0.0\nsamples = 9\nvalue = [0, 0, 0, 9]\nclass = BL", fillcolor="#d739e5"] ;
651 -> 653 ;
654 [label="gini = 0.0\nsamples = 23\nvalue = [0, 0, 23, 0]\nclass = BH", fillcolor="#399de5"] ;
650 -> 654 ;
655 [label="SHCov <= 0.0\ngini = 0.717\nsamples = 460\nvalue = [114, 124, 52, 170]\nclass = BL", fillcolor="#fae4fb"] ;
649 -> 655 ;
656 [label="SMBVol <= 0.0\ngini = 0.648\nsamples = 190\nvalue = [38, 21, 32, 99]\nclass = BL", fillcolor="#efb0f5"] ;
655 -> 656 ;
657 [label="CBOEVIX_spr <= -0.001\ngini = 0.32\nsamples = 15\nvalue = [3, 12, 0, 0]\nclass = SL", fillcolor="#75ec6a"] ;
656 -> 657 ;
658 [label="gini = 0.0\nsamples = 12\nvalue = [0, 12, 0, 0]\nclass = SL", fillcolor="#47e539"] ;
657 -> 658 ;
659 [label="gini = 0.0\nsamples = 3\nvalue = [3, 0, 0, 0]\nclass = SH", fillcolor="#e58139"] ;
657 -> 659 ;
660 [label="SBcov <= 0.384\ngini = 0.604\nsamples = 175\nvalue = [35, 9, 32, 99]\nclass = BL", fillcolor="#eda4f3"] ;
656 -> 660 ;
661 [label="SHCov <= 0.0\ngini = 0.49\nsamples = 25\nvalue = [17, 1, 2, 5]\nclass = SH", fillcolor="#efb388"] ;
660 -> 661 ;
662 [label="CBOEVIX_spr <= -0.002\ngini = 0.278\nsamples = 6\nvalue = [0, 1, 0, 5]\nclass = BL", fillcolor="#df61ea"] ;
661 -> 662 ;
663 [label="gini = 0.0\nsamples = 1\nvalue = [0, 1, 0, 0]\nclass = SL", fillcolor="#47e539"] ;
662 -> 663 ;
664 [label="gini = 0.0\nsamples = 5\nvalue = [0, 0, 0, 5]\nclass = BL", fillcolor="#d739e5"] ;
662 -> 664 ;
665 [label="HMLp <= -72.385\ngini = 0.188\nsamples = 19\nvalue = [17, 0, 2, 0]\nclass = SH", fillcolor="#e89050"] ;
661 -> 665 ;
666 [label="gini = 0.0\nsamples = 17\nvalue = [17, 0, 0, 0]\nclass = SH", fillcolor="#e58139"] ;
665 -> 666 ;
667 [label="gini = 0.0\nsamples = 2\nvalue = [0, 0, 2, 0]\nclass = BH", fillcolor="#399de5"] ;
665 -> 667 ;
668 [label="HMLVol <= 0.0\ngini = 0.55\nsamples = 150\nvalue = [18, 8, 30, 94]\nclass = BL", fillcolor="#ea95f1"] ;
660 -> 668 ;
669 [label="SMB_mom <= 0.975\ngini = 0.282\nsamples = 68\nvalue = [3, 8, 0, 57]\nclass = BL", fillcolor="#de5dea"] ;
668 -> 669 ;
670 [label="SMBp <= -184.237\ngini = 0.496\nsamples = 11\nvalue = [0, 6, 0, 5]\nclass = SL", fillcolor="#e0fbde"] ;
669 -> 670 ;
671 [label="gini = 0.0\nsamples = 3\nvalue = [0, 0, 0, 3]\nclass = BL", fillcolor="#d739e5"] ;
670 -> 671 ;
672 [label="SHCovp <= -66.438\ngini = 0.375\nsamples = 8\nvalue = [0, 6, 0, 2]\nclass = SL", fillcolor="#84ee7b"] ;
670 -> 672 ;
673 [label="gini = 0.0\nsamples = 5\nvalue = [0, 5, 0, 0]\nclass = SL", fillcolor="#47e539"] ;
672 -> 673 ;
674 [label="HLcov <= 0.555\ngini = 0.444\nsamples = 3\nvalue = [0, 1, 0, 2]\nclass = BL", fillcolor="#eb9cf2"] ;
672 -> 674 ;
675 [label="gini = 0.0\nsamples = 1\nvalue = [0, 1, 0, 0]\nclass = SL", fillcolor="#47e539"] ;
674 -> 675 ;
676 [label="gini = 0.0\nsamples = 2\nvalue = [0, 0, 0, 2]\nclass = BL", fillcolor="#d739e5"] ;
674 -> 676 ;
677 [label="HMLp <= -76.364\ngini = 0.164\nsamples = 57\nvalue = [3, 2, 0, 52]\nclass = BL", fillcolor="#db4be7"] ;
669 -> 677 ;
678 [label="SMBp <= -159.476\ngini = 0.444\nsamples = 3\nvalue = [2, 1, 0, 0]\nclass = SH", fillcolor="#f2c09c"] ;
677 -> 678 ;
679 [label="gini = 0.0\nsamples = 1\nvalue = [0, 1, 0, 0]\nclass = SL", fillcolor="#47e539"] ;
678 -> 679 ;
680 [label="gini = 0.0\nsamples = 2\nvalue = [2, 0, 0, 0]\nclass = SH", fillcolor="#e58139"] ;
678 -> 680 ;
681 [label="CBOEVIX_spr <= -0.001\ngini = 0.072\nsamples = 54\nvalue = [1, 1, 0, 52]\nclass = BL", fillcolor="#d940e6"] ;
677 -> 681 ;
682 [label="gini = 0.0\nsamples = 51\nvalue = [0, 0, 0, 51]\nclass = BL", fillcolor="#d739e5"] ;
681 -> 682 ;
683 [label="HLcov <= 0.523\ngini = 0.667\nsamples = 3\nvalue = [1, 1, 0, 1]\nclass = SH", fillcolor="#ffffff"] ;
681 -> 683 ;
684 [label="gini = 0.0\nsamples = 1\nvalue = [0, 0, 0, 1]\nclass = BL", fillcolor="#d739e5"] ;
683 -> 684 ;
685 [label="SHCov <= 0.0\ngini = 0.5\nsamples = 2\nvalue = [1, 1, 0, 0]\nclass = SH", fillcolor="#ffffff"] ;
683 -> 685 ;
686 [label="gini = 0.0\nsamples = 1\nvalue = [1, 0, 0, 0]\nclass = SH", fillcolor="#e58139"] ;
685 -> 686 ;
687 [label="gini = 0.0\nsamples = 1\nvalue = [0, 1, 0, 0]\nclass = SL", fillcolor="#47e539"] ;
685 -> 687 ;
688 [label="Rsqr <= 0.593\ngini = 0.629\nsamples = 82\nvalue = [15, 0, 30, 37]\nclass = BL", fillcolor="#fae4fc"] ;
668 -> 688 ;
689 [label="HMLp <= -35.861\ngini = 0.623\nsamples = 54\nvalue = [15, 0, 27, 12]\nclass = BH", fillcolor="#c2e1f7"] ;
688 -> 689 ;
690 [label="SHCovp <= 130.003\ngini = 0.551\nsamples = 45\nvalue = [6, 0, 27, 12]\nclass = BH", fillcolor="#a5d2f3"] ;
689 -> 690 ;
691 [label="SMB_mom <= 1.056\ngini = 0.453\nsamples = 38\nvalue = [6, 0, 27, 5]\nclass = BH", fillcolor="#7dbfee"] ;
690 -> 691 ;
692 [label="HMLVol <= 0.0\ngini = 0.271\nsamples = 32\nvalue = [1, 0, 27, 4]\nclass = BH", fillcolor="#5caeea"] ;
691 -> 692 ;
693 [label="HML_mom <= 1.126\ngini = 0.087\nsamples = 22\nvalue = [1, 0, 21, 0]\nclass = BH", fillcolor="#42a2e6"] ;
692 -> 693 ;
694 [label="gini = 0.0\nsamples = 21\nvalue = [0, 0, 21, 0]\nclass = BH", fillcolor="#399de5"] ;
693 -> 694 ;
695 [label="gini = 0.0\nsamples = 1\nvalue = [1, 0, 0, 0]\nclass = SH", fillcolor="#e58139"] ;
693 -> 695 ;
696 [label="HML_mom <= 0.972\ngini = 0.48\nsamples = 10\nvalue = [0, 0, 6, 4]\nclass = BH", fillcolor="#bddef6"] ;
692 -> 696 ;
697 [label="gini = 0.0\nsamples = 5\nvalue = [0, 0, 5, 0]\nclass = BH", fillcolor="#399de5"] ;
696 -> 697 ;
698 [label="HMLp <= -65.597\ngini = 0.32\nsamples = 5\nvalue = [0, 0, 1, 4]\nclass = BL", fillcolor="#e16aec"] ;
696 -> 698 ;
699 [label="gini = 0.0\nsamples = 4\nvalue = [0, 0, 0, 4]\nclass = BL", fillcolor="#d739e5"] ;
698 -> 699 ;
700 [label="gini = 0.0\nsamples = 1\nvalue = [0, 0, 1, 0]\nclass = BH", fillcolor="#399de5"] ;
698 -> 700 ;
701 [label="Rsqr <= 0.581\ngini = 0.278\nsamples = 6\nvalue = [5, 0, 0, 1]\nclass = SH", fillcolor="#ea9a61"] ;
691 -> 701 ;
702 [label="gini = 0.0\nsamples = 5\nvalue = [5, 0, 0, 0]\nclass = SH", fillcolor="#e58139"] ;
701 -> 702 ;
703 [label="gini = 0.0\nsamples = 1\nvalue = [0, 0, 0, 1]\nclass = BL", fillcolor="#d739e5"] ;
701 -> 703 ;
704 [label="gini = 0.0\nsamples = 7\nvalue = [0, 0, 0, 7]\nclass = BL", fillcolor="#d739e5"] ;
690 -> 704 ;
705 [label="gini = 0.0\nsamples = 9\nvalue = [9, 0, 0, 0]\nclass = SH", fillcolor="#e58139"] ;
689 -> 705 ;
706 [label="SBcov <= 0.585\ngini = 0.191\nsamples = 28\nvalue = [0, 0, 3, 25]\nclass = BL", fillcolor="#dc51e8"] ;
688 -> 706 ;
707 [label="gini = 0.0\nsamples = 3\nvalue = [0, 0, 3, 0]\nclass = BH", fillcolor="#399de5"] ;
706 -> 707 ;
708 [label="gini = 0.0\nsamples = 25\nvalue = [0, 0, 0, 25]\nclass = BL", fillcolor="#d739e5"] ;
706 -> 708 ;
709 [label="SMBVol <= 0.0\ngini = 0.701\nsamples = 270\nvalue = [76, 103, 20, 71]\nclass = SL", fillcolor="#e5fbe3"] ;
655 -> 709 ;
710 [label="gini = 0.0\nsamples = 17\nvalue = [17, 0, 0, 0]\nclass = SH", fillcolor="#e58139"] ;
709 -> 710 ;
711 [label="HLcov <= 1.855\ngini = 0.695\nsamples = 253\nvalue = [59, 103, 20, 71]\nclass = SL", fillcolor="#dffadc"] ;
709 -> 711 ;
712 [label="HLcov <= 1.686\ngini = 0.516\nsamples = 113\nvalue = [7, 70, 1, 35]\nclass = SL", fillcolor="#acf3a6"] ;
711 -> 712 ;
713 [label="SMBVol <= 0.0\ngini = 0.58\nsamples = 75\nvalue = [7, 34, 0, 34]\nclass = SL", fillcolor="#ffffff"] ;
712 -> 713 ;
714 [label="CBOEVIX_spr <= -0.004\ngini = 0.492\nsamples = 43\nvalue = [7, 29, 0, 7]\nclass = SL", fillcolor="#8fef86"] ;
713 -> 714 ;
715 [label="HLcov <= 1.483\ngini = 0.375\nsamples = 8\nvalue = [0, 2, 0, 6]\nclass = BL", fillcolor="#e47bee"] ;
714 -> 715 ;
716 [label="gini = 0.0\nsamples = 6\nvalue = [0, 0, 0, 6]\nclass = BL", fillcolor="#d739e5"] ;
715 -> 716 ;
717 [label="gini = 0.0\nsamples = 2\nvalue = [0, 2, 0, 0]\nclass = SL", fillcolor="#47e539"] ;
715 -> 717 ;
718 [label="HML_mom <= 0.939\ngini = 0.364\nsamples = 35\nvalue = [7, 27, 0, 1]\nclass = SL", fillcolor="#7cec72"] ;
714 -> 718 ;
719 [label="gini = 0.0\nsamples = 4\nvalue = [4, 0, 0, 0]\nclass = SH", fillcolor="#e58139"] ;
718 -> 719 ;
720 [label="CBOEVIX_spr <= -0.004\ngini = 0.231\nsamples = 31\nvalue = [3, 27, 0, 1]\nclass = SL", fillcolor="#61e955"] ;
718 -> 720 ;
721 [label="gini = 0.0\nsamples = 1\nvalue = [1, 0, 0, 0]\nclass = SH", fillcolor="#e58139"] ;
720 -> 721 ;
722 [label="SMBp <= 73.122\ngini = 0.184\nsamples = 30\nvalue = [2, 27, 0, 1]\nclass = SL", fillcolor="#5be84e"] ;
720 -> 722 ;
723 [label="gini = 0.0\nsamples = 1\nvalue = [1, 0, 0, 0]\nclass = SH", fillcolor="#e58139"] ;
722 -> 723 ;
724 [label="Rsqr <= 0.24\ngini = 0.131\nsamples = 29\nvalue = [1, 27, 0, 1]\nclass = SL", fillcolor="#54e747"] ;
722 -> 724 ;
725 [label="SMB_mom <= 0.993\ngini = 0.5\nsamples = 2\nvalue = [0, 1, 0, 1]\nclass = SL", fillcolor="#ffffff"] ;
724 -> 725 ;
726 [label="gini = 0.0\nsamples = 1\nvalue = [0, 1, 0, 0]\nclass = SL", fillcolor="#47e539"] ;
725 -> 726 ;
727 [label="gini = 0.0\nsamples = 1\nvalue = [0, 0, 0, 1]\nclass = BL", fillcolor="#d739e5"] ;
725 -> 727 ;
728 [label="SMBVol <= 0.0\ngini = 0.071\nsamples = 27\nvalue = [1, 26, 0, 0]\nclass = SL", fillcolor="#4ee641"] ;
724 -> 728 ;
729 [label="HMLp <= -45.229\ngini = 0.375\nsamples = 4\nvalue = [1, 3, 0, 0]\nclass = SL", fillcolor="#84ee7b"] ;
728 -> 729 ;
730 [label="gini = 0.0\nsamples = 1\nvalue = [1, 0, 0, 0]\nclass = SH", fillcolor="#e58139"] ;
729 -> 730 ;
731 [label="gini = 0.0\nsamples = 3\nvalue = [0, 3, 0, 0]\nclass = SL", fillcolor="#47e539"] ;
729 -> 731 ;
732 [label="gini = 0.0\nsamples = 23\nvalue = [0, 23, 0, 0]\nclass = SL", fillcolor="#47e539"] ;
728 -> 732 ;
733 [label="SHCovp <= -93.327\ngini = 0.264\nsamples = 32\nvalue = [0, 5, 0, 27]\nclass = BL", fillcolor="#de5eea"] ;
713 -> 733 ;
734 [label="gini = 0.0\nsamples = 4\nvalue = [0, 4, 0, 0]\nclass = SL", fillcolor="#47e539"] ;
733 -> 734 ;
735 [label="SBcov <= 1.394\ngini = 0.069\nsamples = 28\nvalue = [0, 1, 0, 27]\nclass = BL", fillcolor="#d840e6"] ;
733 -> 735 ;
736 [label="gini = 0.0\nsamples = 26\nvalue = [0, 0, 0, 26]\nclass = BL", fillcolor="#d739e5"] ;
735 -> 736 ;
737 [label="CBOEVIX_spr <= -0.002\ngini = 0.5\nsamples = 2\nvalue = [0, 1, 0, 1]\nclass = SL", fillcolor="#ffffff"] ;
735 -> 737 ;
738 [label="gini = 0.0\nsamples = 1\nvalue = [0, 0, 0, 1]\nclass = BL", fillcolor="#d739e5"] ;
737 -> 738 ;
739 [label="gini = 0.0\nsamples = 1\nvalue = [0, 1, 0, 0]\nclass = SL", fillcolor="#47e539"] ;
737 -> 739 ;
740 [label="HML_mom <= 0.929\ngini = 0.101\nsamples = 38\nvalue = [0, 36, 1, 1]\nclass = SL", fillcolor="#51e644"] ;
712 -> 740 ;
741 [label="gini = 0.0\nsamples = 1\nvalue = [0, 0, 1, 0]\nclass = BH", fillcolor="#399de5"] ;
740 -> 741 ;
742 [label="HMLVol <= 0.0\ngini = 0.053\nsamples = 37\nvalue = [0, 36, 0, 1]\nclass = SL", fillcolor="#4ce63e"] ;
740 -> 742 ;
743 [label="HMLVol <= 0.0\ngini = 0.5\nsamples = 2\nvalue = [0, 1, 0, 1]\nclass = SL", fillcolor="#ffffff"] ;
742 -> 743 ;
744 [label="gini = 0.0\nsamples = 1\nvalue = [0, 1, 0, 0]\nclass = SL", fillcolor="#47e539"] ;
743 -> 744 ;
745 [label="gini = 0.0\nsamples = 1\nvalue = [0, 0, 0, 1]\nclass = BL", fillcolor="#d739e5"] ;
743 -> 745 ;
746 [label="gini = 0.0\nsamples = 35\nvalue = [0, 35, 0, 0]\nclass = SL", fillcolor="#47e539"] ;
742 -> 746 ;
747 [label="HMLp <= 147.604\ngini = 0.722\nsamples = 140\nvalue = [52, 33, 19, 36]\nclass = SH", fillcolor="#fbece1"] ;
711 -> 747 ;
748 [label="SMBVol <= 0.0\ngini = 0.567\nsamples = 68\nvalue = [42, 6, 11, 9]\nclass = SH", fillcolor="#f1ba93"] ;
747 -> 748 ;
749 [label="SMB_mom <= 1.05\ngini = 0.699\nsamples = 28\nvalue = [5, 3, 11, 9]\nclass = BH", fillcolor="#eaf5fc"] ;
748 -> 749 ;
750 [label="SHCov <= 0.0\ngini = 0.639\nsamples = 21\nvalue = [5, 3, 11, 2]\nclass = BH", fillcolor="#b5daf5"] ;
749 -> 750 ;
751 [label="HML_mom <= 1.056\ngini = 0.612\nsamples = 7\nvalue = [3, 3, 0, 1]\nclass = SH", fillcolor="#ffffff"] ;
750 -> 751 ;
752 [label="SMB_mom <= 1.03\ngini = 0.375\nsamples = 4\nvalue = [3, 0, 0, 1]\nclass = SH", fillcolor="#eeab7b"] ;
751 -> 752 ;
753 [label="gini = 0.0\nsamples = 3\nvalue = [3, 0, 0, 0]\nclass = SH", fillcolor="#e58139"] ;
752 -> 753 ;
754 [label="gini = 0.0\nsamples = 1\nvalue = [0, 0, 0, 1]\nclass = BL", fillcolor="#d739e5"] ;
752 -> 754 ;
755 [label="gini = 0.0\nsamples = 3\nvalue = [0, 3, 0, 0]\nclass = SL", fillcolor="#47e539"] ;
751 -> 755 ;
756 [label="HLcov <= 2.987\ngini = 0.357\nsamples = 14\nvalue = [2, 0, 11, 1]\nclass = BH", fillcolor="#6bb6ec"] ;
750 -> 756 ;
757 [label="Rsqr <= 0.499\ngini = 0.444\nsamples = 3\nvalue = [2, 0, 1, 0]\nclass = SH", fillcolor="#f2c09c"] ;
756 -> 757 ;
758 [label="gini = 0.0\nsamples = 2\nvalue = [2, 0, 0, 0]\nclass = SH", fillcolor="#e58139"] ;
757 -> 758 ;
759 [label="gini = 0.0\nsamples = 1\nvalue = [0, 0, 1, 0]\nclass = BH", fillcolor="#399de5"] ;
757 -> 759 ;
760 [label="CBOEVIX_spr <= -0.003\ngini = 0.165\nsamples = 11\nvalue = [0, 0, 10, 1]\nclass = BH", fillcolor="#4da7e8"] ;
756 -> 760 ;
761 [label="gini = 0.0\nsamples = 9\nvalue = [0, 0, 9, 0]\nclass = BH", fillcolor="#399de5"] ;
760 -> 761 ;
762 [label="SHCov <= 0.0\ngini = 0.5\nsamples = 2\nvalue = [0, 0, 1, 1]\nclass = BH", fillcolor="#ffffff"] ;
760 -> 762 ;
763 [label="gini = 0.0\nsamples = 1\nvalue = [0, 0, 0, 1]\nclass = BL", fillcolor="#d739e5"] ;
762 -> 763 ;
764 [label="gini = 0.0\nsamples = 1\nvalue = [0, 0, 1, 0]\nclass = BH", fillcolor="#399de5"] ;
762 -> 764 ;
765 [label="gini = 0.0\nsamples = 7\nvalue = [0, 0, 0, 7]\nclass = BL", fillcolor="#d739e5"] ;
749 -> 765 ;
766 [label="HLcov <= 3.006\ngini = 0.139\nsamples = 40\nvalue = [37, 3, 0, 0]\nclass = SH", fillcolor="#e78b49"] ;
748 -> 766 ;
767 [label="gini = 0.0\nsamples = 35\nvalue = [35, 0, 0, 0]\nclass = SH", fillcolor="#e58139"] ;
766 -> 767 ;
768 [label="SBcov <= 2.289\ngini = 0.48\nsamples = 5\nvalue = [2, 3, 0, 0]\nclass = SL", fillcolor="#c2f6bd"] ;
766 -> 768 ;
769 [label="gini = 0.0\nsamples = 3\nvalue = [0, 3, 0, 0]\nclass = SL", fillcolor="#47e539"] ;
768 -> 769 ;
770 [label="gini = 0.0\nsamples = 2\nvalue = [2, 0, 0, 0]\nclass = SH", fillcolor="#e58139"] ;
768 -> 770 ;
771 [label="HMLVol <= 0.0\ngini = 0.687\nsamples = 72\nvalue = [10, 27, 8, 27]\nclass = SL", fillcolor="#ffffff"] ;
747 -> 771 ;
772 [label="SHCovp <= -683.141\ngini = 0.489\nsamples = 47\nvalue = [0, 20, 0, 27]\nclass = BL", fillcolor="#f5ccf8"] ;
771 -> 772 ;
773 [label="SMBp <= 1.879\ngini = 0.432\nsamples = 19\nvalue = [0, 13, 0, 6]\nclass = SL", fillcolor="#9cf194"] ;
772 -> 773 ;
774 [label="gini = 0.0\nsamples = 5\nvalue = [0, 0, 0, 5]\nclass = BL", fillcolor="#d739e5"] ;
773 -> 774 ;
775 [label="SMBVol <= 0.0\ngini = 0.133\nsamples = 14\nvalue = [0, 13, 0, 1]\nclass = SL", fillcolor="#55e748"] ;
773 -> 775 ;
776 [label="gini = 0.0\nsamples = 13\nvalue = [0, 13, 0, 0]\nclass = SL", fillcolor="#47e539"] ;
775 -> 776 ;
777 [label="gini = 0.0\nsamples = 1\nvalue = [0, 0, 0, 1]\nclass = BL", fillcolor="#d739e5"] ;
775 -> 777 ;
778 [label="SMBp <= 129.893\ngini = 0.375\nsamples = 28\nvalue = [0, 7, 0, 21]\nclass = BL", fillcolor="#e47bee"] ;
772 -> 778 ;
779 [label="SHCovp <= -573.466\ngini = 0.311\nsamples = 26\nvalue = [0, 5, 0, 21]\nclass = BL", fillcolor="#e168eb"] ;
778 -> 779 ;
780 [label="gini = 0.0\nsamples = 14\nvalue = [0, 0, 0, 14]\nclass = BL", fillcolor="#d739e5"] ;
779 -> 780 ;
781 [label="SHCov <= 0.0\ngini = 0.486\nsamples = 12\nvalue = [0, 5, 0, 7]\nclass = BL", fillcolor="#f4c6f8"] ;
779 -> 781 ;
782 [label="CBOEVIX_spr <= -0.004\ngini = 0.278\nsamples = 6\nvalue = [0, 1, 0, 5]\nclass = BL", fillcolor="#df61ea"] ;
781 -> 782 ;
783 [label="gini = 0.0\nsamples = 5\nvalue = [0, 0, 0, 5]\nclass = BL", fillcolor="#d739e5"] ;
782 -> 783 ;
784 [label="gini = 0.0\nsamples = 1\nvalue = [0, 1, 0, 0]\nclass = SL", fillcolor="#47e539"] ;
782 -> 784 ;
785 [label="HLcov <= 2.965\ngini = 0.444\nsamples = 6\nvalue = [0, 4, 0, 2]\nclass = SL", fillcolor="#a3f29c"] ;
781 -> 785 ;
786 [label="CBOEVIX_spr <= -0.006\ngini = 0.444\nsamples = 3\nvalue = [0, 1, 0, 2]\nclass = BL", fillcolor="#eb9cf2"] ;
785 -> 786 ;
787 [label="gini = 0.0\nsamples = 2\nvalue = [0, 0, 0, 2]\nclass = BL", fillcolor="#d739e5"] ;
786 -> 787 ;
788 [label="gini = 0.0\nsamples = 1\nvalue = [0, 1, 0, 0]\nclass = SL", fillcolor="#47e539"] ;
786 -> 788 ;
789 [label="gini = 0.0\nsamples = 3\nvalue = [0, 3, 0, 0]\nclass = SL", fillcolor="#47e539"] ;
785 -> 789 ;
790 [label="gini = 0.0\nsamples = 2\nvalue = [0, 2, 0, 0]\nclass = SL", fillcolor="#47e539"] ;
778 -> 790 ;
791 [label="SMBp <= -131.585\ngini = 0.659\nsamples = 25\nvalue = [10, 7, 8, 0]\nclass = SH", fillcolor="#fcf0e8"] ;
771 -> 791 ;
792 [label="HMLp <= 291.837\ngini = 0.484\nsamples = 17\nvalue = [10, 7, 0, 0]\nclass = SH", fillcolor="#f7d9c4"] ;
791 -> 792 ;
793 [label="gini = 0.0\nsamples = 7\nvalue = [7, 0, 0, 0]\nclass = SH", fillcolor="#e58139"] ;
792 -> 793 ;
794 [label="SMB_mom <= 0.986\ngini = 0.42\nsamples = 10\nvalue = [3, 7, 0, 0]\nclass = SL", fillcolor="#96f08e"] ;
792 -> 794 ;
795 [label="HML_mom <= 1.01\ngini = 0.375\nsamples = 4\nvalue = [3, 1, 0, 0]\nclass = SH", fillcolor="#eeab7b"] ;
794 -> 795 ;
796 [label="gini = 0.0\nsamples = 3\nvalue = [3, 0, 0, 0]\nclass = SH", fillcolor="#e58139"] ;
795 -> 796 ;
797 [label="gini = 0.0\nsamples = 1\nvalue = [0, 1, 0, 0]\nclass = SL", fillcolor="#47e539"] ;
795 -> 797 ;
798 [label="gini = 0.0\nsamples = 6\nvalue = [0, 6, 0, 0]\nclass = SL", fillcolor="#47e539"] ;
794 -> 798 ;
799 [label="gini = 0.0\nsamples = 8\nvalue = [0, 0, 8, 0]\nclass = BH", fillcolor="#399de5"] ;
791 -> 799 ;
800 [label="SMBp <= -60.704\ngini = 0.108\nsamples = 35\nvalue = [33, 0, 2, 0]\nclass = SH", fillcolor="#e78945"] ;
648 -> 800 ;
801 [label="gini = 0.0\nsamples = 2\nvalue = [0, 0, 2, 0]\nclass = BH", fillcolor="#399de5"] ;
800 -> 801 ;
802 [label="gini = 0.0\nsamples = 33\nvalue = [33, 0, 0, 0]\nclass = SH", fillcolor="#e58139"] ;
800 -> 802 ;
803 [label="HLcov <= 1.078\ngini = 0.65\nsamples = 1167\nvalue = [601, 250, 118, 198]\nclass = SH", fillcolor="#f5cfb3"] ;
1 -> 803 ;
804 [label="SMBp <= 461.794\ngini = 0.747\nsamples = 337\nvalue = [82, 72, 84, 99]\nclass = BL", fillcolor="#fdf3fd"] ;
803 -> 804 ;
805 [label="Rsqr <= 0.333\ngini = 0.746\nsamples = 298\nvalue = [82, 72, 84, 60]\nclass = BH", fillcolor="#fdfeff"] ;
804 -> 805 ;
806 [label="CBOEVIX_spr <= -0.003\ngini = 0.664\nsamples = 168\nvalue = [42, 18, 82, 26]\nclass = BH", fillcolor="#c0e0f7"] ;
805 -> 806 ;
807 [label="Rsqr <= 0.211\ngini = 0.355\nsamples = 26\nvalue = [20, 6, 0, 0]\nclass = SH", fillcolor="#eda774"] ;
806 -> 807 ;
808 [label="Rsqr <= 0.165\ngini = 0.48\nsamples = 10\nvalue = [4, 6, 0, 0]\nclass = SL", fillcolor="#c2f6bd"] ;
807 -> 808 ;
809 [label="Rsqr <= 0.129\ngini = 0.32\nsamples = 5\nvalue = [4, 1, 0, 0]\nclass = SH", fillcolor="#eca06a"] ;
808 -> 809 ;
810 [label="gini = 0.0\nsamples = 1\nvalue = [0, 1, 0, 0]\nclass = SL", fillcolor="#47e539"] ;
809 -> 810 ;
811 [label="gini = 0.0\nsamples = 4\nvalue = [4, 0, 0, 0]\nclass = SH", fillcolor="#e58139"] ;
809 -> 811 ;
812 [label="gini = 0.0\nsamples = 5\nvalue = [0, 5, 0, 0]\nclass = SL", fillcolor="#47e539"] ;
808 -> 812 ;
813 [label="gini = 0.0\nsamples = 16\nvalue = [16, 0, 0, 0]\nclass = SH", fillcolor="#e58139"] ;
807 -> 813 ;
814 [label="SBcov <= 0.458\ngini = 0.602\nsamples = 142\nvalue = [22, 12, 82, 26]\nclass = BH", fillcolor="#9fd0f2"] ;
806 -> 814 ;
815 [label="SMBp <= -30.344\ngini = 0.704\nsamples = 30\nvalue = [11, 6, 3, 10]\nclass = SH", fillcolor="#fef9f5"] ;
814 -> 815 ;
816 [label="SBcov <= 0.457\ngini = 0.18\nsamples = 10\nvalue = [9, 1, 0, 0]\nclass = SH", fillcolor="#e88f4f"] ;
815 -> 816 ;
817 [label="gini = 0.0\nsamples = 9\nvalue = [9, 0, 0, 0]\nclass = SH", fillcolor="#e58139"] ;
816 -> 817 ;
818 [label="gini = 0.0\nsamples = 1\nvalue = [0, 1, 0, 0]\nclass = SL", fillcolor="#47e539"] ;
816 -> 818 ;
819 [label="SMB_mom <= 0.998\ngini = 0.655\nsamples = 20\nvalue = [2, 5, 3, 10]\nclass = BL", fillcolor="#f2bdf6"] ;
815 -> 819 ;
820 [label="HML_mom <= 1.003\ngini = 0.571\nsamples = 7\nvalue = [2, 4, 1, 0]\nclass = SL", fillcolor="#b5f5b0"] ;
819 -> 820 ;
821 [label="HMLVol <= 0.0\ngini = 0.444\nsamples = 3\nvalue = [2, 0, 1, 0]\nclass = SH", fillcolor="#f2c09c"] ;
820 -> 821 ;
822 [label="gini = 0.0\nsamples = 2\nvalue = [2, 0, 0, 0]\nclass = SH", fillcolor="#e58139"] ;
821 -> 822 ;
823 [label="gini = 0.0\nsamples = 1\nvalue = [0, 0, 1, 0]\nclass = BH", fillcolor="#399de5"] ;
821 -> 823 ;
824 [label="gini = 0.0\nsamples = 4\nvalue = [0, 4, 0, 0]\nclass = SL", fillcolor="#47e539"] ;
820 -> 824 ;
825 [label="SHCovp <= -711.062\ngini = 0.379\nsamples = 13\nvalue = [0, 1, 2, 10]\nclass = BL", fillcolor="#e26fec"] ;
819 -> 825 ;
826 [label="HMLp <= 1041.351\ngini = 0.444\nsamples = 3\nvalue = [0, 0, 2, 1]\nclass = BH", fillcolor="#9ccef2"] ;
825 -> 826 ;
827 [label="gini = 0.0\nsamples = 1\nvalue = [0, 0, 0, 1]\nclass = BL", fillcolor="#d739e5"] ;
826 -> 827 ;
828 [label="gini = 0.0\nsamples = 2\nvalue = [0, 0, 2, 0]\nclass = BH", fillcolor="#399de5"] ;
826 -> 828 ;
829 [label="SMBp <= -15.535\ngini = 0.18\nsamples = 10\nvalue = [0, 1, 0, 9]\nclass = BL", fillcolor="#db4fe8"] ;
825 -> 829 ;
830 [label="gini = 0.0\nsamples = 1\nvalue = [0, 1, 0, 0]\nclass = SL", fillcolor="#47e539"] ;
