digraph Tree {
node [shape=box, style="filled, rounded", color="black", fontname=helvetica] ;
edge [fontname=helvetica] ;
0 [label="CBOEVIX_spr <= 0.004\ngini = 0.751\nsamples = 7013\nvalue = [1567, 704, 657, 1538, 2547]\nclass = NA", fillcolor="#fadbf4"] ;
1 [label="SMBVol <= 0.0\ngini = 0.744\nsamples = 6245\nvalue = [1497, 616, 607, 1133, 2392]\nclass = NA", fillcolor="#fadaf3"] ;
0 -> 1 [labeldistance=2.5, labelangle=45, headlabel="True"] ;
2 [label="CBOEVIX_spr <= -0.001\ngini = 0.717\nsamples = 4375\nvalue = [804, 390, 458, 766, 1957]\nclass = NA", fillcolor="#f7bfeb"] ;
1 -> 2 ;
3 [label="HMLVol <= 0.0\ngini = 0.704\nsamples = 1921\nvalue = [533, 118, 169, 269, 832]\nclass = NA", fillcolor="#f9d4f1"] ;
2 -> 3 ;
4 [label="SMBVol <= 0.0\ngini = 0.703\nsamples = 1884\nvalue = [497, 118, 169, 269, 831]\nclass = NA", fillcolor="#f9cff0"] ;
3 -> 4 ;
5 [label="SHCovp <= 650.15\ngini = 0.631\nsamples = 797\nvalue = [260, 34, 58, 45, 400]\nclass = NA", fillcolor="#f8cbef"] ;
4 -> 5 ;
6 [label="Rsqr <= 0.321\ngini = 0.645\nsamples = 731\nvalue = [260, 30, 58, 42, 341]\nclass = NA", fillcolor="#fbddf4"] ;
5 -> 6 ;
7 [label="SHCovp <= -78.432\ngini = 0.63\nsamples = 492\nvalue = [135, 22, 41, 33, 261]\nclass = NA", fillcolor="#f6b9e9"] ;
6 -> 7 ;
8 [label="SHCov <= 0.0\ngini = 0.607\nsamples = 134\nvalue = [70, 9, 6, 4, 45]\nclass = SH", fillcolor="#f8dcc7"] ;
7 -> 8 ;
9 [label="HLcov <= 0.395\ngini = 0.461\nsamples = 95\nvalue = [65, 2, 3, 0, 25]\nclass = SH", fillcolor="#f0b78e"] ;
8 -> 9 ;
10 [label="SBcov <= 0.115\ngini = 0.336\nsamples = 73\nvalue = [58, 2, 0, 0, 13]\nclass = SH", fillcolor="#eca06a"] ;
9 -> 10 ;
11 [label="HMLVol <= 0.0\ngini = 0.5\nsamples = 4\nvalue = [0, 2, 0, 0, 2]\nclass = SL", fillcolor="#ffffff"] ;
10 -> 11 ;
12 [label="gini = 0.0\nsamples = 2\nvalue = [0, 2, 0, 0, 0]\nclass = SL", fillcolor="#7be539"] ;
11 -> 12 ;
13 [label="gini = 0.0\nsamples = 2\nvalue = [0, 0, 0, 0, 2]\nclass = NA", fillcolor="#e539c0"] ;
11 -> 13 ;
14 [label="SMBVol <= 0.0\ngini = 0.268\nsamples = 69\nvalue = [58, 0, 0, 0, 11]\nclass = SH", fillcolor="#ea995f"] ;
10 -> 14 ;
15 [label="SHCovp <= -289.862\ngini = 0.494\nsamples = 9\nvalue = [4, 0, 0, 0, 5]\nclass = NA", fillcolor="#fad7f2"] ;
14 -> 15 ;
16 [label="HLcov <= 0.37\ngini = 0.32\nsamples = 5\nvalue = [4, 0, 0, 0, 1]\nclass = SH", fillcolor="#eca06a"] ;
15 -> 16 ;
17 [label="gini = 0.0\nsamples = 1\nvalue = [0, 0, 0, 0, 1]\nclass = NA", fillcolor="#e539c0"] ;
16 -> 17 ;
18 [label="gini = 0.0\nsamples = 4\nvalue = [4, 0, 0, 0, 0]\nclass = SH", fillcolor="#e58139"] ;
16 -> 18 ;
19 [label="gini = 0.0\nsamples = 4\nvalue = [0, 0, 0, 0, 4]\nclass = NA", fillcolor="#e539c0"] ;
15 -> 19 ;
20 [label="HMLVol <= 0.0\ngini = 0.18\nsamples = 60\nvalue = [54, 0, 0, 0, 6]\nclass = SH", fillcolor="#e88f4f"] ;
14 -> 20 ;
21 [label="gini = 0.0\nsamples = 35\nvalue = [35, 0, 0, 0, 0]\nclass = SH", fillcolor="#e58139"] ;
20 -> 21 ;
22 [label="SHCovp <= -140.383\ngini = 0.365\nsamples = 25\nvalue = [19, 0, 0, 0, 6]\nclass = SH", fillcolor="#eda978"] ;
20 -> 22 ;
23 [label="gini = 0.0\nsamples = 2\nvalue = [0, 0, 0, 0, 2]\nclass = NA", fillcolor="#e539c0"] ;
22 -> 23 ;
24 [label="SBcov <= 0.118\ngini = 0.287\nsamples = 23\nvalue = [19, 0, 0, 0, 4]\nclass = SH", fillcolor="#ea9c63"] ;
22 -> 24 ;
25 [label="gini = 0.0\nsamples = 2\nvalue = [0, 0, 0, 0, 2]\nclass = NA", fillcolor="#e539c0"] ;
24 -> 25 ;
26 [label="CBOEVIX_spr <= -0.001\ngini = 0.172\nsamples = 21\nvalue = [19, 0, 0, 0, 2]\nclass = SH", fillcolor="#e88e4e"] ;
24 -> 26 ;
27 [label="HLcov <= 0.386\ngini = 0.095\nsamples = 20\nvalue = [19, 0, 0, 0, 1]\nclass = SH", fillcolor="#e68843"] ;
26 -> 27 ;
28 [label="HLcov <= 0.385\ngini = 0.375\nsamples = 4\nvalue = [3, 0, 0, 0, 1]\nclass = SH", fillcolor="#eeab7b"] ;
27 -> 28 ;
29 [label="gini = 0.0\nsamples = 3\nvalue = [3, 0, 0, 0, 0]\nclass = SH", fillcolor="#e58139"] ;
28 -> 29 ;
30 [label="gini = 0.0\nsamples = 1\nvalue = [0, 0, 0, 0, 1]\nclass = NA", fillcolor="#e539c0"] ;
28 -> 30 ;
31 [label="gini = 0.0\nsamples = 16\nvalue = [16, 0, 0, 0, 0]\nclass = SH", fillcolor="#e58139"] ;
27 -> 31 ;
32 [label="gini = 0.0\nsamples = 1\nvalue = [0, 0, 0, 0, 1]\nclass = NA", fillcolor="#e539c0"] ;
26 -> 32 ;
33 [label="SMBVol <= 0.0\ngini = 0.583\nsamples = 22\nvalue = [7, 0, 3, 0, 12]\nclass = NA", fillcolor="#f6bdea"] ;
9 -> 33 ;
34 [label="gini = 0.0\nsamples = 3\nvalue = [0, 0, 3, 0, 0]\nclass = BH", fillcolor="#39e5c5"] ;
33 -> 34 ;
35 [label="SHCov <= 0.0\ngini = 0.465\nsamples = 19\nvalue = [7, 0, 0, 0, 12]\nclass = NA", fillcolor="#f4ace5"] ;
33 -> 35 ;
36 [label="SBcov <= 0.161\ngini = 0.48\nsamples = 10\nvalue = [6, 0, 0, 0, 4]\nclass = SH", fillcolor="#f6d5bd"] ;
35 -> 36 ;
37 [label="gini = 0.0\nsamples = 6\nvalue = [6, 0, 0, 0, 0]\nclass = SH", fillcolor="#e58139"] ;
36 -> 37 ;
38 [label="gini = 0.0\nsamples = 4\nvalue = [0, 0, 0, 0, 4]\nclass = NA", fillcolor="#e539c0"] ;
36 -> 38 ;
39 [label="SBcov <= 0.129\ngini = 0.198\nsamples = 9\nvalue = [1, 0, 0, 0, 8]\nclass = NA", fillcolor="#e852c8"] ;
35 -> 39 ;
40 [label="gini = 0.0\nsamples = 1\nvalue = [1, 0, 0, 0, 0]\nclass = SH", fillcolor="#e58139"] ;
39 -> 40 ;
41 [label="gini = 0.0\nsamples = 8\nvalue = [0, 0, 0, 0, 8]\nclass = NA", fillcolor="#e539c0"] ;
39 -> 41 ;
42 [label="HMLp <= -128.259\ngini = 0.672\nsamples = 39\nvalue = [5, 7, 3, 4, 20]\nclass = NA", fillcolor="#f4afe5"] ;
8 -> 42 ;
43 [label="Rsqr <= 0.095\ngini = 0.463\nsamples = 11\nvalue = [0, 7, 0, 0, 4]\nclass = SL", fillcolor="#c6f4aa"] ;
42 -> 43 ;
44 [label="gini = 0.0\nsamples = 2\nvalue = [0, 0, 0, 0, 2]\nclass = NA", fillcolor="#e539c0"] ;
43 -> 44 ;
45 [label="SBcov <= 0.113\ngini = 0.346\nsamples = 9\nvalue = [0, 7, 0, 0, 2]\nclass = SL", fillcolor="#a1ec72"] ;
43 -> 45 ;
46 [label="SBcov <= 0.112\ngini = 0.5\nsamples = 4\nvalue = [0, 2, 0, 0, 2]\nclass = SL", fillcolor="#ffffff"] ;
45 -> 46 ;
47 [label="gini = 0.0\nsamples = 2\nvalue = [0, 2, 0, 0, 0]\nclass = SL", fillcolor="#7be539"] ;
46 -> 47 ;
48 [label="gini = 0.0\nsamples = 2\nvalue = [0, 0, 0, 0, 2]\nclass = NA", fillcolor="#e539c0"] ;
46 -> 48 ;
49 [label="gini = 0.0\nsamples = 5\nvalue = [0, 5, 0, 0, 0]\nclass = SL", fillcolor="#7be539"] ;
45 -> 49 ;
50 [label="Rsqr <= 0.234\ngini = 0.61\nsamples = 28\nvalue = [5, 0, 3, 4, 16]\nclass = NA", fillcolor="#f3a0e1"] ;
42 -> 50 ;
51 [label="SMBVol <= 0.0\ngini = 0.364\nsamples = 18\nvalue = [1, 0, 3, 0, 14]\nclass = NA", fillcolor="#ec6ed1"] ;
50 -> 51 ;
52 [label="SMBp <= 68.701\ngini = 0.291\nsamples = 17\nvalue = [0, 0, 3, 0, 14]\nclass = NA", fillcolor="#eb63ce"] ;
51 -> 52 ;
53 [label="HMLVol <= 0.0\ngini = 0.48\nsamples = 5\nvalue = [0, 0, 2, 0, 3]\nclass = NA", fillcolor="#f6bdea"] ;
52 -> 53 ;
54 [label="gini = 0.0\nsamples = 2\nvalue = [0, 0, 0, 0, 2]\nclass = NA", fillcolor="#e539c0"] ;
53 -> 54 ;
55 [label="CBOEVIX_spr <= -0.002\ngini = 0.444\nsamples = 3\nvalue = [0, 0, 2, 0, 1]\nclass = BH", fillcolor="#9cf2e2"] ;
53 -> 55 ;
56 [label="gini = 0.0\nsamples = 1\nvalue = [0, 0, 0, 0, 1]\nclass = NA", fillcolor="#e539c0"] ;
55 -> 56 ;
57 [label="gini = 0.0\nsamples = 2\nvalue = [0, 0, 2, 0, 0]\nclass = BH", fillcolor="#39e5c5"] ;
55 -> 57 ;
58 [label="Rsqr <= 0.101\ngini = 0.153\nsamples = 12\nvalue = [0, 0, 1, 0, 11]\nclass = NA", fillcolor="#e74bc6"] ;
52 -> 58 ;
59 [label="Rsqr <= 0.099\ngini = 0.5\nsamples = 2\nvalue = [0, 0, 1, 0, 1]\nclass = BH", fillcolor="#ffffff"] ;
58 -> 59 ;
60 [label="gini = 0.0\nsamples = 1\nvalue = [0, 0, 0, 0, 1]\nclass = NA", fillcolor="#e539c0"] ;
59 -> 60 ;
61 [label="gini = 0.0\nsamples = 1\nvalue = [0, 0, 1, 0, 0]\nclass = BH", fillcolor="#39e5c5"] ;
59 -> 61 ;
62 [label="gini = 0.0\nsamples = 10\nvalue = [0, 0, 0, 0, 10]\nclass = NA", fillcolor="#e539c0"] ;
58 -> 62 ;
63 [label="gini = 0.0\nsamples = 1\nvalue = [1, 0, 0, 0, 0]\nclass = SH", fillcolor="#e58139"] ;
51 -> 63 ;
64 [label="HLcov <= 1.054\ngini = 0.64\nsamples = 10\nvalue = [4, 0, 0, 4, 2]\nclass = SH", fillcolor="#ffffff"] ;
50 -> 64 ;
65 [label="gini = 0.0\nsamples = 4\nvalue = [4, 0, 0, 0, 0]\nclass = SH", fillcolor="#e58139"] ;
64 -> 65 ;
66 [label="SHCov <= 0.0\ngini = 0.444\nsamples = 6\nvalue = [0, 0, 0, 4, 2]\nclass = BL", fillcolor="#9e9cf2"] ;
64 -> 66 ;
67 [label="gini = 0.0\nsamples = 3\nvalue = [0, 0, 0, 3, 0]\nclass = BL", fillcolor="#3c39e5"] ;
66 -> 67 ;
68 [label="CBOEVIX_spr <= -0.002\ngini = 0.444\nsamples = 3\nvalue = [0, 0, 0, 1, 2]\nclass = NA", fillcolor="#f29ce0"] ;
66 -> 68 ;
69 [label="gini = 0.0\nsamples = 1\nvalue = [0, 0, 0, 1, 0]\nclass = BL", fillcolor="#3c39e5"] ;
68 -> 69 ;
70 [label="gini = 0.0\nsamples = 2\nvalue = [0, 0, 0, 0, 2]\nclass = NA", fillcolor="#e539c0"] ;
68 -> 70 ;
71 [label="HMLp <= -228.102\ngini = 0.586\nsamples = 358\nvalue = [65, 13, 35, 29, 216]\nclass = NA", fillcolor="#f299df"] ;
7 -> 71 ;
72 [label="SHCov <= 0.0\ngini = 0.165\nsamples = 11\nvalue = [1, 0, 10, 0, 0]\nclass = BH", fillcolor="#4de8cb"] ;
71 -> 72 ;
73 [label="gini = 0.0\nsamples = 1\nvalue = [1, 0, 0, 0, 0]\nclass = SH", fillcolor="#e58139"] ;
72 -> 73 ;
74 [label="gini = 0.0\nsamples = 10\nvalue = [0, 0, 10, 0, 0]\nclass = BH", fillcolor="#39e5c5"] ;
72 -> 74 ;
75 [label="SBcov <= 0.107\ngini = 0.565\nsamples = 347\nvalue = [64, 13, 25, 29, 216]\nclass = NA", fillcolor="#f195dd"] ;
71 -> 75 ;
76 [label="gini = 0.0\nsamples = 7\nvalue = [0, 7, 0, 0, 0]\nclass = SL", fillcolor="#7be539"] ;
75 -> 76 ;
77 [label="HMLp <= 81.211\ngini = 0.548\nsamples = 340\nvalue = [64, 6, 25, 29, 216]\nclass = NA", fillcolor="#f192dc"] ;
75 -> 77 ;
78 [label="SMBp <= -362.755\ngini = 0.531\nsamples = 331\nvalue = [64, 6, 25, 21, 215]\nclass = NA", fillcolor="#f08fdb"] ;
77 -> 78 ;
79 [label="Rsqr <= 0.235\ngini = 0.738\nsamples = 32\nvalue = [4, 1, 9, 7, 11]\nclass = NA", fillcolor="#fdeefa"] ;
78 -> 79 ;
80 [label="HMLp <= 16.409\ngini = 0.694\nsamples = 25\nvalue = [4, 1, 2, 7, 11]\nclass = NA", fillcolor="#f9d3f1"] ;
79 -> 80 ;
81 [label="Rsqr <= 0.124\ngini = 0.46\nsamples = 10\nvalue = [0, 1, 0, 7, 2]\nclass = BL", fillcolor="#8583ef"] ;
80 -> 81 ;
82 [label="gini = 0.0\nsamples = 6\nvalue = [0, 0, 0, 6, 0]\nclass = BL", fillcolor="#3c39e5"] ;
81 -> 82 ;
83 [label="SBcov <= 0.16\ngini = 0.625\nsamples = 4\nvalue = [0, 1, 0, 1, 2]\nclass = NA", fillcolor="#f6bdea"] ;
81 -> 83 ;
84 [label="gini = 0.0\nsamples = 1\nvalue = [0, 0, 0, 1, 0]\nclass = BL", fillcolor="#3c39e5"] ;
83 -> 84 ;
85 [label="SMBVol <= 0.0\ngini = 0.444\nsamples = 3\nvalue = [0, 1, 0, 0, 2]\nclass = NA", fillcolor="#f29ce0"] ;
83 -> 85 ;
86 [label="gini = 0.0\nsamples = 2\nvalue = [0, 0, 0, 0, 2]\nclass = NA", fillcolor="#e539c0"] ;
85 -> 86 ;
87 [label="gini = 0.0\nsamples = 1\nvalue = [0, 1, 0, 0, 0]\nclass = SL", fillcolor="#7be539"] ;
85 -> 87 ;
88 [label="SHCov <= 0.0\ngini = 0.551\nsamples = 15\nvalue = [4, 0, 2, 0, 9]\nclass = NA", fillcolor="#f3a5e2"] ;
80 -> 88 ;
89 [label="CBOEVIX_spr <= -0.001\ngini = 0.444\nsamples = 6\nvalue = [4, 0, 0, 0, 2]\nclass = SH", fillcolor="#f2c09c"] ;
88 -> 89 ;
90 [label="gini = 0.0\nsamples = 1\nvalue = [0, 0, 0, 0, 1]\nclass = NA", fillcolor="#e539c0"] ;
89 -> 90 ;
91 [label="SMBVol <= 0.0\ngini = 0.32\nsamples = 5\nvalue = [4, 0, 0, 0, 1]\nclass = SH", fillcolor="#eca06a"] ;
89 -> 91 ;
92 [label="gini = 0.0\nsamples = 4\nvalue = [4, 0, 0, 0, 0]\nclass = SH", fillcolor="#e58139"] ;
91 -> 92 ;
93 [label="gini = 0.0\nsamples = 1\nvalue = [0, 0, 0, 0, 1]\nclass = NA", fillcolor="#e539c0"] ;
91 -> 93 ;
94 [label="SMBp <= -440.224\ngini = 0.346\nsamples = 9\nvalue = [0, 0, 2, 0, 7]\nclass = NA", fillcolor="#ec72d2"] ;
88 -> 94 ;
95 [label="gini = 0.0\nsamples = 6\nvalue = [0, 0, 0, 0, 6]\nclass = NA", fillcolor="#e539c0"] ;
94 -> 95 ;
96 [label="Rsqr <= 0.112\ngini = 0.444\nsamples = 3\nvalue = [0, 0, 2, 0, 1]\nclass = BH", fillcolor="#9cf2e2"] ;
94 -> 96 ;
97 [label="gini = 0.0\nsamples = 1\nvalue = [0, 0, 0, 0, 1]\nclass = NA", fillcolor="#e539c0"] ;
96 -> 97 ;
98 [label="gini = 0.0\nsamples = 2\nvalue = [0, 0, 2, 0, 0]\nclass = BH", fillcolor="#39e5c5"] ;
96 -> 98 ;
99 [label="gini = 0.0\nsamples = 7\nvalue = [0, 0, 7, 0, 0]\nclass = BH", fillcolor="#39e5c5"] ;
79 -> 99 ;
100 [label="HMLVol <= 0.0\ngini = 0.489\nsamples = 299\nvalue = [60, 5, 16, 14, 204]\nclass = NA", fillcolor="#ef88d9"] ;
78 -> 100 ;
101 [label="SBcov <= 0.151\ngini = 0.526\nsamples = 252\nvalue = [59, 5, 15, 11, 162]\nclass = NA", fillcolor="#f195dd"] ;
100 -> 101 ;
102 [label="SHCov <= 0.0\ngini = 0.622\nsamples = 15\nvalue = [8, 4, 1, 0, 2]\nclass = SH", fillcolor="#f6d1b7"] ;
101 -> 102 ;
103 [label="SHCovp <= -7.308\ngini = 0.198\nsamples = 9\nvalue = [8, 0, 1, 0, 0]\nclass = SH", fillcolor="#e89152"] ;
102 -> 103 ;
104 [label="gini = 0.0\nsamples = 1\nvalue = [0, 0, 1, 0, 0]\nclass = BH", fillcolor="#39e5c5"] ;
103 -> 104 ;
105 [label="gini = 0.0\nsamples = 8\nvalue = [8, 0, 0, 0, 0]\nclass = SH", fillcolor="#e58139"] ;
103 -> 105 ;
106 [label="SMBVol <= 0.0\ngini = 0.444\nsamples = 6\nvalue = [0, 4, 0, 0, 2]\nclass = SL", fillcolor="#bdf29c"] ;
102 -> 106 ;
107 [label="gini = 0.0\nsamples = 2\nvalue = [0, 0, 0, 0, 2]\nclass = NA", fillcolor="#e539c0"] ;
106 -> 107 ;
108 [label="gini = 0.0\nsamples = 4\nvalue = [0, 4, 0, 0, 0]\nclass = SL", fillcolor="#7be539"] ;
106 -> 108 ;
109 [label="HLcov <= 0.312\ngini = 0.492\nsamples = 237\nvalue = [51, 1, 14, 11, 160]\nclass = NA", fillcolor="#f08bda"] ;
101 -> 109 ;
110 [label="HMLVol <= 0.0\ngini = 0.046\nsamples = 42\nvalue = [0, 0, 1, 0, 41]\nclass = NA", fillcolor="#e63ec2"] ;
109 -> 110 ;
111 [label="gini = 0.0\nsamples = 41\nvalue = [0, 0, 0, 0, 41]\nclass = NA", fillcolor="#e539c0"] ;
110 -> 111 ;
112 [label="gini = 0.0\nsamples = 1\nvalue = [0, 0, 1, 0, 0]\nclass = BH", fillcolor="#39e5c5"] ;
110 -> 112 ;
113 [label="HMLp <= 22.964\ngini = 0.552\nsamples = 195\nvalue = [51, 1, 13, 11, 119]\nclass = NA", fillcolor="#f3a1e1"] ;
109 -> 113 ;
114 [label="SMBp <= 227.286\ngini = 0.526\nsamples = 179\nvalue = [38, 1, 13, 11, 116]\nclass = NA", fillcolor="#f191dc"] ;
113 -> 114 ;
115 [label="HMLVol <= 0.0\ngini = 0.479\nsamples = 143\nvalue = [20, 1, 13, 9, 100]\nclass = NA", fillcolor="#ee7ed6"] ;
114 -> 115 ;
116 [label="SHCovp <= 174.708\ngini = 0.433\nsamples = 135\nvalue = [20, 1, 10, 5, 99]\nclass = NA", fillcolor="#ed77d4"] ;
115 -> 116 ;
117 [label="SHCovp <= -24.582\ngini = 0.406\nsamples = 131\nvalue = [17, 1, 9, 5, 99]\nclass = NA", fillcolor="#ec71d2"] ;
116 -> 117 ;
118 [label="SBcov <= 0.634\ngini = 0.573\nsamples = 27\nvalue = [9, 0, 2, 1, 15]\nclass = NA", fillcolor="#f6bdea"] ;
117 -> 118 ;
119 [label="HMLp <= -21.692\ngini = 0.587\nsamples = 15\nvalue = [8, 0, 2, 0, 5]\nclass = SH", fillcolor="#f7d9c4"] ;
118 -> 119 ;
120 [label="HMLp <= -33.28\ngini = 0.408\nsamples = 7\nvalue = [2, 0, 0, 0, 5]\nclass = NA", fillcolor="#ef88d9"] ;
119 -> 120 ;
121 [label="HLcov <= 0.61\ngini = 0.444\nsamples = 3\nvalue = [2, 0, 0, 0, 1]\nclass = SH", fillcolor="#f2c09c"] ;
120 -> 121 ;
122 [label="gini = 0.0\nsamples = 1\nvalue = [0, 0, 0, 0, 1]\nclass = NA", fillcolor="#e539c0"] ;
121 -> 122 ;
123 [label="gini = 0.0\nsamples = 2\nvalue = [2, 0, 0, 0, 0]\nclass = SH", fillcolor="#e58139"] ;
121 -> 123 ;
124 [label="gini = 0.0\nsamples = 4\nvalue = [0, 0, 0, 0, 4]\nclass = NA", fillcolor="#e539c0"] ;
120 -> 124 ;
125 [label="Rsqr <= 0.246\ngini = 0.375\nsamples = 8\nvalue = [6, 0, 2, 0, 0]\nclass = SH", fillcolor="#eeab7b"] ;
119 -> 125 ;
126 [label="gini = 0.0\nsamples = 6\nvalue = [6, 0, 0, 0, 0]\nclass = SH", fillcolor="#e58139"] ;
125 -> 126 ;
127 [label="gini = 0.0\nsamples = 2\nvalue = [0, 0, 2, 0, 0]\nclass = BH", fillcolor="#39e5c5"] ;
125 -> 127 ;
128 [label="SMBVol <= 0.0\ngini = 0.292\nsamples = 12\nvalue = [1, 0, 0, 1, 10]\nclass = NA", fillcolor="#ea5dcb"] ;
118 -> 128 ;
129 [label="Rsqr <= 0.229\ngini = 0.165\nsamples = 11\nvalue = [1, 0, 0, 0, 10]\nclass = NA", fillcolor="#e84dc6"] ;
128 -> 129 ;
130 [label="HMLp <= 22.235\ngini = 0.5\nsamples = 2\nvalue = [1, 0, 0, 0, 1]\nclass = SH", fillcolor="#ffffff"] ;
129 -> 130 ;
131 [label="gini = 0.0\nsamples = 1\nvalue = [1, 0, 0, 0, 0]\nclass = SH", fillcolor="#e58139"] ;
130 -> 131 ;
132 [label="gini = 0.0\nsamples = 1\nvalue = [0, 0, 0, 0, 1]\nclass = NA", fillcolor="#e539c0"] ;
130 -> 132 ;
133 [label="gini = 0.0\nsamples = 9\nvalue = [0, 0, 0, 0, 9]\nclass = NA", fillcolor="#e539c0"] ;
129 -> 133 ;
134 [label="gini = 0.0\nsamples = 1\nvalue = [0, 0, 0, 1, 0]\nclass = BL", fillcolor="#3c39e5"] ;
128 -> 134 ;
135 [label="HLcov <= 0.487\ngini = 0.336\nsamples = 104\nvalue = [8, 1, 7, 4, 84]\nclass = NA", fillcolor="#ea62cd"] ;
117 -> 135 ;
136 [label="gini = 0.0\nsamples = 38\nvalue = [0, 0, 0, 0, 38]\nclass = NA", fillcolor="#e539c0"] ;
135 -> 136 ;
137 [label="SBcov <= 0.418\ngini = 0.484\nsamples = 66\nvalue = [8, 1, 7, 4, 46]\nclass = NA", fillcolor="#ee7dd6"] ;
135 -> 137 ;
138 [label="SMBVol <= 0.0\ngini = 0.611\nsamples = 6\nvalue = [3, 0, 2, 0, 1]\nclass = SH", fillcolor="#f8e0ce"] ;
137 -> 138 ;
139 [label="gini = 0.0\nsamples = 2\nvalue = [0, 0, 2, 0, 0]\nclass = BH", fillcolor="#39e5c5"] ;
138 -> 139 ;
140 [label="SBcov <= 0.417\ngini = 0.375\nsamples = 4\nvalue = [3, 0, 0, 0, 1]\nclass = SH", fillcolor="#eeab7b"] ;
138 -> 140 ;
141 [label="SHCovp <= 50.473\ngini = 0.5\nsamples = 2\nvalue = [1, 0, 0, 0, 1]\nclass = SH", fillcolor="#ffffff"] ;
140 -> 141 ;
142 [label="gini = 0.0\nsamples = 1\nvalue = [0, 0, 0, 0, 1]\nclass = NA", fillcolor="#e539c0"] ;
141 -> 142 ;
143 [label="gini = 0.0\nsamples = 1\nvalue = [1, 0, 0, 0, 0]\nclass = SH", fillcolor="#e58139"] ;
141 -> 143 ;
144 [label="gini = 0.0\nsamples = 2\nvalue = [2, 0, 0, 0, 0]\nclass = SH", fillcolor="#e58139"] ;
140 -> 144 ;
145 [label="Rsqr <= 0.283\ngini = 0.419\nsamples = 60\nvalue = [5, 1, 5, 4, 45]\nclass = NA", fillcolor="#ec6fd1"] ;
137 -> 145 ;
146 [label="CBOEVIX_spr <= -0.001\ngini = 0.351\nsamples = 54\nvalue = [1, 1, 5, 4, 43]\nclass = NA", fillcolor="#eb65ce"] ;
145 -> 146 ;
147 [label="SMBp <= -87.546\ngini = 0.259\nsamples = 49\nvalue = [1, 1, 3, 2, 42]\nclass = NA", fillcolor="#e957ca"] ;
146 -> 147 ;
148 [label="HMLp <= -41.489\ngini = 0.54\nsamples = 10\nvalue = [0, 1, 3, 0, 6]\nclass = NA", fillcolor="#f4aae4"] ;
147 -> 148 ;
149 [label="gini = 0.0\nsamples = 3\nvalue = [0, 0, 3, 0, 0]\nclass = BH", fillcolor="#39e5c5"] ;
148 -> 149 ;
150 [label="HMLVol <= 0.0\ngini = 0.245\nsamples = 7\nvalue = [0, 1, 0, 0, 6]\nclass = NA", fillcolor="#e95acb"] ;
148 -> 150 ;
151 [label="gini = 0.0\nsamples = 1\nvalue = [0, 1, 0, 0, 0]\nclass = SL", fillcolor="#7be539"] ;
150 -> 151 ;
152 [label="gini = 0.0\nsamples = 6\nvalue = [0, 0, 0, 0, 6]\nclass = NA", fillcolor="#e539c0"] ;
150 -> 152 ;
153 [label="SHCovp <= 61.646\ngini = 0.145\nsamples = 39\nvalue = [1, 0, 0, 2, 36]\nclass = NA", fillcolor="#e749c5"] ;
147 -> 153 ;
154 [label="SMBVol <= 0.0\ngini = 0.338\nsamples = 15\nvalue = [1, 0, 0, 2, 12]\nclass = NA", fillcolor="#eb67cf"] ;
153 -> 154 ;
155 [label="HLcov <= 0.68\ngini = 0.444\nsamples = 3\nvalue = [0, 0, 0, 2, 1]\nclass = BL", fillcolor="#9e9cf2"] ;
154 -> 155 ;
156 [label="gini = 0.0\nsamples = 2\nvalue = [0, 0, 0, 2, 0]\nclass = BL", fillcolor="#3c39e5"] ;
155 -> 156 ;
157 [label="gini = 0.0\nsamples = 1\nvalue = [0, 0, 0, 0, 1]\nclass = NA", fillcolor="#e539c0"] ;
155 -> 157 ;
158 [label="SMBVol <= 0.0\ngini = 0.153\nsamples = 12\nvalue = [1, 0, 0, 0, 11]\nclass = NA", fillcolor="#e74bc6"] ;
154 -> 158 ;
159 [label="SBcov <= 0.42\ngini = 0.444\nsamples = 3\nvalue = [1, 0, 0, 0, 2]\nclass = NA", fillcolor="#f29ce0"] ;
158 -> 159 ;
160 [label="gini = 0.0\nsamples = 2\nvalue = [0, 0, 0, 0, 2]\nclass = NA", fillcolor="#e539c0"] ;
159 -> 160 ;
161 [label="gini = 0.0\nsamples = 1\nvalue = [1, 0, 0, 0, 0]\nclass = SH", fillcolor="#e58139"] ;
159 -> 161 ;
162 [label="gini = 0.0\nsamples = 9\nvalue = [0, 0, 0, 0, 9]\nclass = NA", fillcolor="#e539c0"] ;
158 -> 162 ;
163 [label="gini = 0.0\nsamples = 24\nvalue = [0, 0, 0, 0, 24]\nclass = NA", fillcolor="#e539c0"] ;
153 -> 163 ;
164 [label="HMLp <= -38.5\ngini = 0.64\nsamples = 5\nvalue = [0, 0, 2, 2, 1]\nclass = BH", fillcolor="#ffffff"] ;
146 -> 164 ;
165 [label="CBOEVIX_spr <= -0.001\ngini = 0.444\nsamples = 3\nvalue = [0, 0, 0, 2, 1]\nclass = BL", fillcolor="#9e9cf2"] ;
164 -> 165 ;
166 [label="gini = 0.0\nsamples = 2\nvalue = [0, 0, 0, 2, 0]\nclass = BL", fillcolor="#3c39e5"] ;
165 -> 166 ;
167 [label="gini = 0.0\nsamples = 1\nvalue = [0, 0, 0, 0, 1]\nclass = NA", fillcolor="#e539c0"] ;
165 -> 167 ;
168 [label="gini = 0.0\nsamples = 2\nvalue = [0, 0, 2, 0, 0]\nclass = BH", fillcolor="#39e5c5"] ;
164 -> 168 ;
169 [label="SHCovp <= 75.952\ngini = 0.444\nsamples = 6\nvalue = [4, 0, 0, 0, 2]\nclass = SH", fillcolor="#f2c09c"] ;
145 -> 169 ;
170 [label="gini = 0.0\nsamples = 2\nvalue = [0, 0, 0, 0, 2]\nclass = NA", fillcolor="#e539c0"] ;
169 -> 170 ;
171 [label="gini = 0.0\nsamples = 4\nvalue = [4, 0, 0, 0, 0]\nclass = SH", fillcolor="#e58139"] ;
169 -> 171 ;
172 [label="HMLp <= -148.955\ngini = 0.375\nsamples = 4\nvalue = [3, 0, 1, 0, 0]\nclass = SH", fillcolor="#eeab7b"] ;
116 -> 172 ;
173 [label="gini = 0.0\nsamples = 1\nvalue = [0, 0, 1, 0, 0]\nclass = BH", fillcolor="#39e5c5"] ;
172 -> 173 ;
174 [label="gini = 0.0\nsamples = 3\nvalue = [3, 0, 0, 0, 0]\nclass = SH", fillcolor="#e58139"] ;
172 -> 174 ;
175 [label="HLcov <= 0.894\ngini = 0.594\nsamples = 8\nvalue = [0, 0, 3, 4, 1]\nclass = BL", fillcolor="#d8d7fa"] ;
115 -> 175 ;
176 [label="gini = 0.0\nsamples = 4\nvalue = [0, 0, 0, 4, 0]\nclass = BL", fillcolor="#3c39e5"] ;
175 -> 176 ;
177 [label="SHCovp <= -26.796\ngini = 0.375\nsamples = 4\nvalue = [0, 0, 3, 0, 1]\nclass = BH", fillcolor="#7beed8"] ;
175 -> 177 ;
178 [label="gini = 0.0\nsamples = 1\nvalue = [0, 0, 0, 0, 1]\nclass = NA", fillcolor="#e539c0"] ;
177 -> 178 ;
179 [label="gini = 0.0\nsamples = 3\nvalue = [0, 0, 3, 0, 0]\nclass = BH", fillcolor="#39e5c5"] ;
177 -> 179 ;
180 [label="HMLVol <= 0.0\ngini = 0.549\nsamples = 36\nvalue = [18, 0, 0, 2, 16]\nclass = SH", fillcolor="#fcf2eb"] ;
114 -> 180 ;
181 [label="SHCov <= 0.0\ngini = 0.142\nsamples = 13\nvalue = [12, 0, 0, 0, 1]\nclass = SH", fillcolor="#e78c49"] ;
180 -> 181 ;
182 [label="gini = 0.0\nsamples = 12\nvalue = [12, 0, 0, 0, 0]\nclass = SH", fillcolor="#e58139"] ;
181 -> 182 ;
183 [label="gini = 0.0\nsamples = 1\nvalue = [0, 0, 0, 0, 1]\nclass = NA", fillcolor="#e539c0"] ;
181 -> 183 ;
184 [label="Rsqr <= 0.163\ngini = 0.499\nsamples = 23\nvalue = [6, 0, 0, 2, 15]\nclass = NA", fillcolor="#f196de"] ;
180 -> 184 ;
185 [label="gini = 0.0\nsamples = 12\nvalue = [0, 0, 0, 0, 12]\nclass = NA", fillcolor="#e539c0"] ;
184 -> 185 ;
186 [label="SHCov <= 0.0\ngini = 0.595\nsamples = 11\nvalue = [6, 0, 0, 2, 3]\nclass = SH", fillcolor="#f5d0b5"] ;
184 -> 186 ;
187 [label="gini = 0.0\nsamples = 3\nvalue = [0, 0, 0, 0, 3]\nclass = NA", fillcolor="#e539c0"] ;
186 -> 187 ;
188 [label="SHCov <= 0.0\ngini = 0.375\nsamples = 8\nvalue = [6, 0, 0, 2, 0]\nclass = SH", fillcolor="#eeab7b"] ;
186 -> 188 ;
189 [label="gini = 0.0\nsamples = 6\nvalue = [6, 0, 0, 0, 0]\nclass = SH", fillcolor="#e58139"] ;
188 -> 189 ;
190 [label="gini = 0.0\nsamples = 2\nvalue = [0, 0, 0, 2, 0]\nclass = BL", fillcolor="#3c39e5"] ;
188 -> 190 ;
191 [label="HMLp <= 30.258\ngini = 0.305\nsamples = 16\nvalue = [13, 0, 0, 0, 3]\nclass = SH", fillcolor="#eb9e67"] ;
113 -> 191 ;
192 [label="gini = 0.0\nsamples = 13\nvalue = [13, 0, 0, 0, 0]\nclass = SH", fillcolor="#e58139"] ;
191 -> 192 ;
193 [label="gini = 0.0\nsamples = 3\nvalue = [0, 0, 0, 0, 3]\nclass = NA", fillcolor="#e539c0"] ;
191 -> 193 ;
194 [label="SBcov <= 0.108\ngini = 0.196\nsamples = 47\nvalue = [1, 0, 1, 3, 42]\nclass = NA", fillcolor="#e850c7"] ;
100 -> 194 ;
195 [label="gini = 0.0\nsamples = 1\nvalue = [1, 0, 0, 0, 0]\nclass = SH", fillcolor="#e58139"] ;
194 -> 195 ;
196 [label="SMBVol <= 0.0\ngini = 0.162\nsamples = 46\nvalue = [0, 0, 1, 3, 42]\nclass = NA", fillcolor="#e74bc6"] ;
194 -> 196 ;
197 [label="HMLp <= 21.458\ngini = 0.05\nsamples = 39\nvalue = [0, 0, 0, 1, 38]\nclass = NA", fillcolor="#e63ec2"] ;
196 -> 197 ;
198 [label="gini = 0.0\nsamples = 37\nvalue = [0, 0, 0, 0, 37]\nclass = NA", fillcolor="#e539c0"] ;
197 -> 198 ;
199 [label="HLcov <= 0.898\ngini = 0.5\nsamples = 2\nvalue = [0, 0, 0, 1, 1]\nclass = BL", fillcolor="#ffffff"] ;
197 -> 199 ;
200 [label="gini = 0.0\nsamples = 1\nvalue = [0, 0, 0, 1, 0]\nclass = BL", fillcolor="#3c39e5"] ;
199 -> 200 ;
201 [label="gini = 0.0\nsamples = 1\nvalue = [0, 0, 0, 0, 1]\nclass = NA", fillcolor="#e539c0"] ;
199 -> 201 ;
202 [label="CBOEVIX_spr <= -0.001\ngini = 0.571\nsamples = 7\nvalue = [0, 0, 1, 2, 4]\nclass = NA", fillcolor="#f5b0e6"] ;
196 -> 202 ;
203 [label="Rsqr <= 0.287\ngini = 0.444\nsamples = 3\nvalue = [0, 0, 1, 2, 0]\nclass = BL", fillcolor="#9e9cf2"] ;
202 -> 203 ;
204 [label="gini = 0.0\nsamples = 2\nvalue = [0, 0, 0, 2, 0]\nclass = BL", fillcolor="#3c39e5"] ;
203 -> 204 ;
205 [label="gini = 0.0\nsamples = 1\nvalue = [0, 0, 1, 0, 0]\nclass = BH", fillcolor="#39e5c5"] ;
203 -> 205 ;
206 [label="gini = 0.0\nsamples = 4\nvalue = [0, 0, 0, 0, 4]\nclass = NA", fillcolor="#e539c0"] ;
202 -> 206 ;
207 [label="HMLVol <= 0.0\ngini = 0.198\nsamples = 9\nvalue = [0, 0, 0, 8, 1]\nclass = BL", fillcolor="#5452e8"] ;
77 -> 207 ;
208 [label="gini = 0.0\nsamples = 8\nvalue = [0, 0, 0, 8, 0]\nclass = BL", fillcolor="#3c39e5"] ;
207 -> 208 ;
209 [label="gini = 0.0\nsamples = 1\nvalue = [0, 0, 0, 0, 1]\nclass = NA", fillcolor="#e539c0"] ;
207 -> 209 ;
210 [label="SMBp <= 173.392\ngini = 0.607\nsamples = 239\nvalue = [125, 8, 17, 9, 80]\nclass = SH", fillcolor="#f8dbc7"] ;
6 -> 210 ;
211 [label="SMBVol <= 0.0\ngini = 0.538\nsamples = 212\nvalue = [125, 7, 4, 5, 71]\nclass = SH", fillcolor="#f5cfb3"] ;
210 -> 211 ;
212 [label="HMLVol <= 0.0\ngini = 0.484\nsamples = 190\nvalue = [123, 2, 4, 2, 59]\nclass = SH", fillcolor="#f2c19e"] ;
211 -> 212 ;
213 [label="HMLVol <= 0.0\ngini = 0.569\nsamples = 99\nvalue = [51, 2, 4, 2, 40]\nclass = SH", fillcolor="#fae8da"] ;
212 -> 213 ;
214 [label="Rsqr <= 0.407\ngini = 0.502\nsamples = 68\nvalue = [45, 2, 4, 1, 16]\nclass = SH", fillcolor="#f0b991"] ;
213 -> 214 ;
215 [label="SHCovp <= 87.911\ngini = 0.703\nsamples = 23\nvalue = [6, 2, 4, 1, 10]\nclass = NA", fillcolor="#f9d0f0"] ;
214 -> 215 ;
216 [label="Rsqr <= 0.381\ngini = 0.609\nsamples = 19\nvalue = [6, 2, 0, 1, 10]\nclass = NA", fillcolor="#f7c2ec"] ;
215 -> 216 ;
217 [label="SMBVol <= 0.0\ngini = 0.66\nsamples = 10\nvalue = [5, 2, 0, 1, 2]\nclass = SH", fillcolor="#f5d0b5"] ;
216 -> 217 ;
218 [label="HLcov <= 0.423\ngini = 0.444\nsamples = 3\nvalue = [0, 2, 0, 1, 0]\nclass = SL", fillcolor="#bdf29c"] ;
217 -> 218 ;
219 [label="gini = 0.0\nsamples = 1\nvalue = [0, 0, 0, 1, 0]\nclass = BL", fillcolor="#3c39e5"] ;
218 -> 219 ;
220 [label="gini = 0.0\nsamples = 2\nvalue = [0, 2, 0, 0, 0]\nclass = SL", fillcolor="#7be539"] ;
218 -> 220 ;
221 [label="CBOEVIX_spr <= -0.002\ngini = 0.408\nsamples = 7\nvalue = [5, 0, 0, 0, 2]\nclass = SH", fillcolor="#efb388"] ;
217 -> 221 ;
222 [label="HLcov <= 0.482\ngini = 0.444\nsamples = 3\nvalue = [1, 0, 0, 0, 2]\nclass = NA", fillcolor="#f29ce0"] ;
221 -> 222 ;
223 [label="gini = 0.0\nsamples = 1\nvalue = [1, 0, 0, 0, 0]\nclass = SH", fillcolor="#e58139"] ;
222 -> 223 ;
224 [label="gini = 0.0\nsamples = 2\nvalue = [0, 0, 0, 0, 2]\nclass = NA", fillcolor="#e539c0"] ;
222 -> 224 ;
225 [label="gini = 0.0\nsamples = 4\nvalue = [4, 0, 0, 0, 0]\nclass = SH", fillcolor="#e58139"] ;
221 -> 225 ;
226 [label="SMBp <= -60.702\ngini = 0.198\nsamples = 9\nvalue = [1, 0, 0, 0, 8]\nclass = NA", fillcolor="#e852c8"] ;
216 -> 226 ;
227 [label="gini = 0.0\nsamples = 1\nvalue = [1, 0, 0, 0, 0]\nclass = SH", fillcolor="#e58139"] ;
226 -> 227 ;
228 [label="gini = 0.0\nsamples = 8\nvalue = [0, 0, 0, 0, 8]\nclass = NA", fillcolor="#e539c0"] ;
226 -> 228 ;
229 [label="gini = 0.0\nsamples = 4\nvalue = [0, 0, 4, 0, 0]\nclass = BH", fillcolor="#39e5c5"] ;
215 -> 229 ;
230 [label="SHCovp <= 610.378\ngini = 0.231\nsamples = 45\nvalue = [39, 0, 0, 0, 6]\nclass = SH", fillcolor="#e99457"] ;
214 -> 230 ;
231 [label="SMBp <= -55.689\ngini = 0.061\nsamples = 32\nvalue = [31, 0, 0, 0, 1]\nclass = SH", fillcolor="#e6853f"] ;
230 -> 231 ;
232 [label="gini = 0.0\nsamples = 30\nvalue = [30, 0, 0, 0, 0]\nclass = SH", fillcolor="#e58139"] ;
231 -> 232 ;
233 [label="SMBp <= -55.532\ngini = 0.5\nsamples = 2\nvalue = [1, 0, 0, 0, 1]\nclass = SH", fillcolor="#ffffff"] ;
231 -> 233 ;
234 [label="gini = 0.0\nsamples = 1\nvalue = [0, 0, 0, 0, 1]\nclass = NA", fillcolor="#e539c0"] ;
233 -> 234 ;
235 [label="gini = 0.0\nsamples = 1\nvalue = [1, 0, 0, 0, 0]\nclass = SH", fillcolor="#e58139"] ;
233 -> 235 ;
236 [label="SBcov <= 0.363\ngini = 0.473\nsamples = 13\nvalue = [8, 0, 0, 0, 5]\nclass = SH", fillcolor="#f5d0b5"] ;
230 -> 236 ;
237 [label="gini = 0.0\nsamples = 6\nvalue = [6, 0, 0, 0, 0]\nclass = SH", fillcolor="#e58139"] ;
236 -> 237 ;
238 [label="SHCov <= 0.0\ngini = 0.408\nsamples = 7\nvalue = [2, 0, 0, 0, 5]\nclass = NA", fillcolor="#ef88d9"] ;
236 -> 238 ;
239 [label="SHCov <= 0.0\ngini = 0.444\nsamples = 3\nvalue = [2, 0, 0, 0, 1]\nclass = SH", fillcolor="#f2c09c"] ;
238 -> 239 ;
240 [label="gini = 0.0\nsamples = 1\nvalue = [0, 0, 0, 0, 1]\nclass = NA", fillcolor="#e539c0"] ;
239 -> 240 ;
241 [label="gini = 0.0\nsamples = 2\nvalue = [2, 0, 0, 0, 0]\nclass = SH", fillcolor="#e58139"] ;
239 -> 241 ;
242 [label="gini = 0.0\nsamples = 4\nvalue = [0, 0, 0, 0, 4]\nclass = NA", fillcolor="#e539c0"] ;
238 -> 242 ;
243 [label="SHCovp <= 101.481\ngini = 0.362\nsamples = 31\nvalue = [6, 0, 0, 1, 24]\nclass = NA", fillcolor="#ec70d2"] ;
213 -> 243 ;
244 [label="HMLp <= 37.718\ngini = 0.15\nsamples = 25\nvalue = [1, 0, 0, 1, 23]\nclass = NA", fillcolor="#e749c5"] ;
243 -> 244 ;
245 [label="HLcov <= 0.511\ngini = 0.083\nsamples = 23\nvalue = [1, 0, 0, 0, 22]\nclass = NA", fillcolor="#e642c3"] ;
244 -> 245 ;
246 [label="HLcov <= 0.51\ngini = 0.32\nsamples = 5\nvalue = [1, 0, 0, 0, 4]\nclass = NA", fillcolor="#ec6ad0"] ;
245 -> 246 ;
247 [label="gini = 0.0\nsamples = 4\nvalue = [0, 0, 0, 0, 4]\nclass = NA", fillcolor="#e539c0"] ;
246 -> 247 ;
248 [label="gini = 0.0\nsamples = 1\nvalue = [1, 0, 0, 0, 0]\nclass = SH", fillcolor="#e58139"] ;
246 -> 248 ;
249 [label="gini = 0.0\nsamples = 18\nvalue = [0, 0, 0, 0, 18]\nclass = NA", fillcolor="#e539c0"] ;
245 -> 249 ;
250 [label="SMBp <= -60.359\ngini = 0.5\nsamples = 2\nvalue = [0, 0, 0, 1, 1]\nclass = BL", fillcolor="#ffffff"] ;
244 -> 250 ;
251 [label="gini = 0.0\nsamples = 1\nvalue = [0, 0, 0, 1, 0]\nclass = BL", fillcolor="#3c39e5"] ;
250 -> 251 ;
252 [label="gini = 0.0\nsamples = 1\nvalue = [0, 0, 0, 0, 1]\nclass = NA", fillcolor="#e539c0"] ;
250 -> 252 ;
253 [label="Rsqr <= 0.576\ngini = 0.278\nsamples = 6\nvalue = [5, 0, 0, 0, 1]\nclass = SH", fillcolor="#ea9a61"] ;
243 -> 253 ;
254 [label="gini = 0.0\nsamples = 5\nvalue = [5, 0, 0, 0, 0]\nclass = SH", fillcolor="#e58139"] ;
253 -> 254 ;
255 [label="gini = 0.0\nsamples = 1\nvalue = [0, 0, 0, 0, 1]\nclass = NA", fillcolor="#e539c0"] ;
253 -> 255 ;
256 [label="HLcov <= 0.951\ngini = 0.33\nsamples = 91\nvalue = [72, 0, 0, 0, 19]\nclass = SH", fillcolor="#eca26d"] ;
212 -> 256 ;
257 [label="SHCov <= 0.0\ngini = 0.252\nsamples = 81\nvalue = [69, 0, 0, 0, 12]\nclass = SH", fillcolor="#ea975b"] ;
256 -> 257 ;
258 [label="CBOEVIX_spr <= -0.003\ngini = 0.173\nsamples = 73\nvalue = [66, 0, 0, 0, 7]\nclass = SH", fillcolor="#e88e4e"] ;
257 -> 258 ;
259 [label="SMBVol <= 0.0\ngini = 0.432\nsamples = 19\nvalue = [13, 0, 0, 0, 6]\nclass = SH", fillcolor="#f1bb94"] ;
258 -> 259 ;
260 [label="Rsqr <= 0.324\ngini = 0.5\nsamples = 12\nvalue = [6, 0, 0, 0, 6]\nclass = SH", fillcolor="#ffffff"] ;
259 -> 260 ;
261 [label="gini = 0.0\nsamples = 5\nvalue = [5, 0, 0, 0, 0]\nclass = SH", fillcolor="#e58139"] ;
260 -> 261 ;
262 [label="SHCovp <= 7.257\ngini = 0.245\nsamples = 7\nvalue = [1, 0, 0, 0, 6]\nclass = NA", fillcolor="#e95acb"] ;
260 -> 262 ;
263 [label="gini = 0.0\nsamples = 6\nvalue = [0, 0, 0, 0, 6]\nclass = NA", fillcolor="#e539c0"] ;
262 -> 263 ;
264 [label="gini = 0.0\nsamples = 1\nvalue = [1, 0, 0, 0, 0]\nclass = SH", fillcolor="#e58139"] ;
262 -> 264 ;
265 [label="gini = 0.0\nsamples = 7\nvalue = [7, 0, 0, 0, 0]\nclass = SH", fillcolor="#e58139"] ;
259 -> 265 ;
266 [label="SHCov <= 0.0\ngini = 0.036\nsamples = 54\nvalue = [53, 0, 0, 0, 1]\nclass = SH", fillcolor="#e5833d"] ;
258 -> 266 ;
267 [label="gini = 0.0\nsamples = 50\nvalue = [50, 0, 0, 0, 0]\nclass = SH", fillcolor="#e58139"] ;
266 -> 267 ;
268 [label="CBOEVIX_spr <= -0.002\ngini = 0.375\nsamples = 4\nvalue = [3, 0, 0, 0, 1]\nclass = SH", fillcolor="#eeab7b"] ;
266 -> 268 ;
269 [label="gini = 0.0\nsamples = 1\nvalue = [0, 0, 0, 0, 1]\nclass = NA", fillcolor="#e539c0"] ;
268 -> 269 ;
270 [label="gini = 0.0\nsamples = 3\nvalue = [3, 0, 0, 0, 0]\nclass = SH", fillcolor="#e58139"] ;
268 -> 270 ;
271 [label="SMBp <= -38.653\ngini = 0.469\nsamples = 8\nvalue = [3, 0, 0, 0, 5]\nclass = NA", fillcolor="#f5b0e6"] ;
257 -> 271 ;
272 [label="gini = 0.0\nsamples = 5\nvalue = [0, 0, 0, 0, 5]\nclass = NA", fillcolor="#e539c0"] ;
271 -> 272 ;
273 [label="gini = 0.0\nsamples = 3\nvalue = [3, 0, 0, 0, 0]\nclass = SH", fillcolor="#e58139"] ;
271 -> 273 ;
274 [label="HLcov <= 0.954\ngini = 0.42\nsamples = 10\nvalue = [3, 0, 0, 0, 7]\nclass = NA", fillcolor="#f08edb"] ;
256 -> 274 ;
275 [label="gini = 0.0\nsamples = 6\nvalue = [0, 0, 0, 0, 6]\nclass = NA", fillcolor="#e539c0"] ;
274 -> 275 ;
276 [label="Rsqr <= 0.476\ngini = 0.375\nsamples = 4\nvalue = [3, 0, 0, 0, 1]\nclass = SH", fillcolor="#eeab7b"] ;
274 -> 276 ;
277 [label="gini = 0.0\nsamples = 3\nvalue = [3, 0, 0, 0, 0]\nclass = SH", fillcolor="#e58139"] ;
276 -> 277 ;
278 [label="gini = 0.0\nsamples = 1\nvalue = [0, 0, 0, 0, 1]\nclass = NA", fillcolor="#e539c0"] ;
276 -> 278 ;
279 [label="SHCov <= 0.0\ngini = 0.624\nsamples = 22\nvalue = [2, 5, 0, 3, 12]\nclass = NA", fillcolor="#f4ade5"] ;
211 -> 279 ;
280 [label="Rsqr <= 0.356\ngini = 0.278\nsamples = 6\nvalue = [1, 5, 0, 0, 0]\nclass = SL", fillcolor="#95ea61"] ;
279 -> 280 ;
281 [label="gini = 0.0\nsamples = 5\nvalue = [0, 5, 0, 0, 0]\nclass = SL", fillcolor="#7be539"] ;
280 -> 281 ;
282 [label="gini = 0.0\nsamples = 1\nvalue = [1, 0, 0, 0, 0]\nclass = SH", fillcolor="#e58139"] ;
280 -> 282 ;
283 [label="SMBp <= -48.888\ngini = 0.398\nsamples = 16\nvalue = [1, 0, 0, 3, 12]\nclass = NA", fillcolor="#ed76d3"] ;
279 -> 283 ;
284 [label="SBcov <= 0.213\ngini = 0.56\nsamples = 5\nvalue = [1, 0, 0, 3, 1]\nclass = BL", fillcolor="#9e9cf2"] ;
283 -> 284 ;
285 [label="gini = 0.0\nsamples = 1\nvalue = [0, 0, 0, 0, 1]\nclass = NA", fillcolor="#e539c0"] ;
284 -> 285 ;
286 [label="SMBVol <= 0.0\ngini = 0.375\nsamples = 4\nvalue = [1, 0, 0, 3, 0]\nclass = BL", fillcolor="#7d7bee"] ;
284 -> 286 ;
287 [label="gini = 0.0\nsamples = 1\nvalue = [1, 0, 0, 0, 0]\nclass = SH", fillcolor="#e58139"] ;
286 -> 287 ;
288 [label="gini = 0.0\nsamples = 3\nvalue = [0, 0, 0, 3, 0]\nclass = BL", fillcolor="#3c39e5"] ;
286 -> 288 ;
289 [label="gini = 0.0\nsamples = 11\nvalue = [0, 0, 0, 0, 11]\nclass = NA", fillcolor="#e539c0"] ;
283 -> 289 ;
290 [label="HMLp <= 204.293\ngini = 0.634\nsamples = 27\nvalue = [0, 1, 13, 4, 9]\nclass = BH", fillcolor="#d3f9f2"] ;
210 -> 290 ;
291 [label="SHCovp <= -430.749\ngini = 0.525\nsamples = 20\nvalue = [0, 1, 13, 4, 2]\nclass = BH", fillcolor="#90f0de"] ;
290 -> 291 ;
292 [label="gini = 0.0\nsamples = 13\nvalue = [0, 0, 13, 0, 0]\nclass = BH", fillcolor="#39e5c5"] ;
291 -> 292 ;
293 [label="SBcov <= 0.357\ngini = 0.571\nsamples = 7\nvalue = [0, 1, 0, 4, 2]\nclass = BL", fillcolor="#b1b0f5"] ;
291 -> 293 ;
294 [label="gini = 0.0\nsamples = 4\nvalue = [0, 0, 0, 4, 0]\nclass = BL", fillcolor="#3c39e5"] ;
293 -> 294 ;
295 [label="HMLp <= -112.48\ngini = 0.444\nsamples = 3\nvalue = [0, 1, 0, 0, 2]\nclass = NA", fillcolor="#f29ce0"] ;
293 -> 295 ;
296 [label="gini = 0.0\nsamples = 1\nvalue = [0, 1, 0, 0, 0]\nclass = SL", fillcolor="#7be539"] ;
295 -> 296 ;
297 [label="gini = 0.0\nsamples = 2\nvalue = [0, 0, 0, 0, 2]\nclass = NA", fillcolor="#e539c0"] ;
295 -> 297 ;
298 [label="gini = 0.0\nsamples = 7\nvalue = [0, 0, 0, 0, 7]\nclass = NA", fillcolor="#e539c0"] ;
290 -> 298 ;
299 [label="SBcov <= 0.362\ngini = 0.195\nsamples = 66\nvalue = [0, 4, 0, 3, 59]\nclass = NA", fillcolor="#e84fc7"] ;
5 -> 299 ;
300 [label="CBOEVIX_spr <= -0.002\ngini = 0.49\nsamples = 7\nvalue = [0, 4, 0, 0, 3]\nclass = SL", fillcolor="#def8ce"] ;
299 -> 300 ;
301 [label="gini = 0.0\nsamples = 2\nvalue = [0, 0, 0, 0, 2]\nclass = NA", fillcolor="#e539c0"] ;
300 -> 301 ;
302 [label="CBOEVIX_spr <= -0.001\ngini = 0.32\nsamples = 5\nvalue = [0, 4, 0, 0, 1]\nclass = SL", fillcolor="#9cec6a"] ;
300 -> 302 ;
303 [label="gini = 0.0\nsamples = 3\nvalue = [0, 3, 0, 0, 0]\nclass = SL", fillcolor="#7be539"] ;
302 -> 303 ;
304 [label="CBOEVIX_spr <= -0.001\ngini = 0.5\nsamples = 2\nvalue = [0, 1, 0, 0, 1]\nclass = SL", fillcolor="#ffffff"] ;
302 -> 304 ;
305 [label="gini = 0.0\nsamples = 1\nvalue = [0, 0, 0, 0, 1]\nclass = NA", fillcolor="#e539c0"] ;
304 -> 305 ;
306 [label="gini = 0.0\nsamples = 1\nvalue = [0, 1, 0, 0, 0]\nclass = SL", fillcolor="#7be539"] ;
304 -> 306 ;
307 [label="Rsqr <= 0.571\ngini = 0.097\nsamples = 59\nvalue = [0, 0, 0, 3, 56]\nclass = NA", fillcolor="#e644c3"] ;
299 -> 307 ;
308 [label="SHCovp <= 824.893\ngini = 0.036\nsamples = 54\nvalue = [0, 0, 0, 1, 53]\nclass = NA", fillcolor="#e53dc1"] ;
307 -> 308 ;
309 [label="gini = 0.0\nsamples = 48\nvalue = [0, 0, 0, 0, 48]\nclass = NA", fillcolor="#e539c0"] ;
308 -> 309 ;
310 [label="Rsqr <= 0.361\ngini = 0.278\nsamples = 6\nvalue = [0, 0, 0, 1, 5]\nclass = NA", fillcolor="#ea61cd"] ;
308 -> 310 ;
311 [label="gini = 0.0\nsamples = 1\nvalue = [0, 0, 0, 1, 0]\nclass = BL", fillcolor="#3c39e5"] ;
310 -> 311 ;
312 [label="gini = 0.0\nsamples = 5\nvalue = [0, 0, 0, 0, 5]\nclass = NA", fillcolor="#e539c0"] ;
310 -> 312 ;
313 [label="Rsqr <= 0.572\ngini = 0.48\nsamples = 5\nvalue = [0, 0, 0, 2, 3]\nclass = NA", fillcolor="#f6bdea"] ;
307 -> 313 ;
314 [label="gini = 0.0\nsamples = 2\nvalue = [0, 0, 0, 2, 0]\nclass = BL", fillcolor="#3c39e5"] ;
313 -> 314 ;
315 [label="gini = 0.0\nsamples = 3\nvalue = [0, 0, 0, 0, 3]\nclass = NA", fillcolor="#e539c0"] ;
313 -> 315 ;
316 [label="HMLVol <= 0.0\ngini = 0.736\nsamples = 1087\nvalue = [237, 84, 111, 224, 431]\nclass = NA", fillcolor="#f9d2f1"] ;
4 -> 316 ;
317 [label="HLcov <= 0.275\ngini = 0.715\nsamples = 643\nvalue = [89, 35, 73, 179, 267]\nclass = NA", fillcolor="#fad9f3"] ;
316 -> 317 ;
318 [label="HLcov <= 0.241\ngini = 0.429\nsamples = 30\nvalue = [22, 0, 5, 1, 2]\nclass = SH", fillcolor="#eda978"] ;
317 -> 318 ;
319 [label="SMBp <= -193.28\ngini = 0.531\nsamples = 8\nvalue = [0, 0, 5, 1, 2]\nclass = BH", fillcolor="#9cf2e2"] ;
318 -> 319 ;
320 [label="gini = 0.0\nsamples = 4\nvalue = [0, 0, 4, 0, 0]\nclass = BH", fillcolor="#39e5c5"] ;
319 -> 320 ;
321 [label="SMBp <= -119.754\ngini = 0.625\nsamples = 4\nvalue = [0, 0, 1, 1, 2]\nclass = NA", fillcolor="#f6bdea"] ;
319 -> 321 ;
322 [label="CBOEVIX_spr <= -0.001\ngini = 0.444\nsamples = 3\nvalue = [0, 0, 1, 0, 2]\nclass = NA", fillcolor="#f29ce0"] ;
321 -> 322 ;
323 [label="gini = 0.0\nsamples = 1\nvalue = [0, 0, 1, 0, 0]\nclass = BH", fillcolor="#39e5c5"] ;
322 -> 323 ;
324 [label="gini = 0.0\nsamples = 2\nvalue = [0, 0, 0, 0, 2]\nclass = NA", fillcolor="#e539c0"] ;
322 -> 324 ;
325 [label="gini = 0.0\nsamples = 1\nvalue = [0, 0, 0, 1, 0]\nclass = BL", fillcolor="#3c39e5"] ;
321 -> 325 ;
326 [label="gini = 0.0\nsamples = 22\nvalue = [22, 0, 0, 0, 0]\nclass = SH", fillcolor="#e58139"] ;
318 -> 326 ;
327 [label="SBcov <= 0.285\ngini = 0.701\nsamples = 613\nvalue = [67, 35, 68, 178, 265]\nclass = NA", fillcolor="#fad7f2"] ;
317 -> 327 ;
328 [label="SHCov <= 0.0\ngini = 0.363\nsamples = 21\nvalue = [0, 16, 0, 0, 5]\nclass = SL", fillcolor="#a4ed77"] ;
327 -> 328 ;
329 [label="SHCovp <= -85.144\ngini = 0.198\nsamples = 18\nvalue = [0, 16, 0, 0, 2]\nclass = SL", fillcolor="#8ce852"] ;
328 -> 329 ;
330 [label="gini = 0.0\nsamples = 2\nvalue = [0, 0, 0, 0, 2]\nclass = NA", fillcolor="#e539c0"] ;
329 -> 330 ;
331 [label="gini = 0.0\nsamples = 16\nvalue = [0, 16, 0, 0, 0]\nclass = SL", fillcolor="#7be539"] ;
329 -> 331 ;
332 [label="gini = 0.0\nsamples = 3\nvalue = [0, 0, 0, 0, 3]\nclass = NA", fillcolor="#e539c0"] ;
328 -> 332 ;
333 [label="SMBp <= 357.076\ngini = 0.69\nsamples = 592\nvalue = [67, 19, 68, 178, 260]\nclass = NA", fillcolor="#fad8f3"] ;
327 -> 333 ;
334 [label="SBcov <= 0.931\ngini = 0.677\nsamples = 571\nvalue = [51, 19, 65, 178, 258]\nclass = NA", fillcolor="#fad7f2"] ;
333 -> 334 ;
335 [label="HMLp <= -254.677\ngini = 0.664\nsamples = 518\nvalue = [40, 18, 64, 145, 251]\nclass = NA", fillcolor="#f8c7ed"] ;
334 -> 335 ;
336 [label="Rsqr <= 0.218\ngini = 0.269\nsamples = 25\nvalue = [0, 0, 0, 21, 4]\nclass = BL", fillcolor="#615fea"] ;
335 -> 336 ;
337 [label="gini = 0.0\nsamples = 1\nvalue = [0, 0, 0, 0, 1]\nclass = NA", fillcolor="#e539c0"] ;
336 -> 337 ;
338 [label="SHCovp <= 192.265\ngini = 0.219\nsamples = 24\nvalue = [0, 0, 0, 21, 3]\nclass = BL", fillcolor="#5855e9"] ;
336 -> 338 ;
339 [label="HMLVol <= 0.0\ngini = 0.444\nsamples = 9\nvalue = [0, 0, 0, 6, 3]\nclass = BL", fillcolor="#9e9cf2"] ;
338 -> 339 ;
340 [label="gini = 0.0\nsamples = 6\nvalue = [0, 0, 0, 6, 0]\nclass = BL", fillcolor="#3c39e5"] ;
339 -> 340 ;
341 [label="gini = 0.0\nsamples = 3\nvalue = [0, 0, 0, 0, 3]\nclass = NA", fillcolor="#e539c0"] ;
339 -> 341 ;
342 [label="gini = 0.0\nsamples = 15\nvalue = [0, 0, 0, 15, 0]\nclass = BL", fillcolor="#3c39e5"] ;
338 -> 342 ;
343 [label="Rsqr <= 0.205\ngini = 0.661\nsamples = 493\nvalue = [40, 18, 64, 124, 247]\nclass = NA", fillcolor="#f6bdea"] ;
335 -> 343 ;
344 [label="SHCovp <= -65.6\ngini = 0.643\nsamples = 162\nvalue = [18, 7, 3, 65, 69]\nclass = NA", fillcolor="#fef7fc"] ;
343 -> 344 ;
345 [label="HMLVol <= 0.0\ngini = 0.266\nsamples = 38\nvalue = [0, 0, 0, 32, 6]\nclass = BL", fillcolor="#615eea"] ;
344 -> 345 ;
346 [label="SMBp <= 33.039\ngini = 0.444\nsamples = 6\nvalue = [0, 0, 0, 2, 4]\nclass = NA", fillcolor="#f29ce0"] ;
345 -> 346 ;
347 [label="gini = 0.0\nsamples = 4\nvalue = [0, 0, 0, 0, 4]\nclass = NA", fillcolor="#e539c0"] ;
346 -> 347 ;
348 [label="gini = 0.0\nsamples = 2\nvalue = [0, 0, 0, 2, 0]\nclass = BL", fillcolor="#3c39e5"] ;
346 -> 348 ;
349 [label="SMBp <= -165.57\ngini = 0.117\nsamples = 32\nvalue = [0, 0, 0, 30, 2]\nclass = BL", fillcolor="#4946e7"] ;
345 -> 349 ;
350 [label="gini = 0.0\nsamples = 1\nvalue = [0, 0, 0, 0, 1]\nclass = NA", fillcolor="#e539c0"] ;
349 -> 350 ;
351 [label="SHCov <= 0.0\ngini = 0.062\nsamples = 31\nvalue = [0, 0, 0, 30, 1]\nclass = BL", fillcolor="#4240e6"] ;
349 -> 351 ;
352 [label="gini = 0.0\nsamples = 30\nvalue = [0, 0, 0, 30, 0]\nclass = BL", fillcolor="#3c39e5"] ;
351 -> 352 ;
353 [label="gini = 0.0\nsamples = 1\nvalue = [0, 0, 0, 0, 1]\nclass = NA", fillcolor="#e539c0"] ;
351 -> 353 ;
354 [label="SMBp <= 128.523\ngini = 0.646\nsamples = 124\nvalue = [18, 7, 3, 33, 63]\nclass = NA", fillcolor="#f6beea"] ;
344 -> 354 ;
355 [label="Rsqr <= 0.123\ngini = 0.606\nsamples = 78\nvalue = [16, 7, 2, 8, 45]\nclass = NA", fillcolor="#f3a2e2"] ;
354 -> 355 ;
356 [label="HMLp <= -106.044\ngini = 0.251\nsamples = 34\nvalue = [0, 0, 0, 5, 29]\nclass = NA", fillcolor="#e95bcb"] ;
355 -> 356 ;
357 [label="Rsqr <= 0.083\ngini = 0.48\nsamples = 10\nvalue = [0, 0, 0, 4, 6]\nclass = NA", fillcolor="#f6bdea"] ;
356 -> 357 ;
358 [label="HMLp <= -131.305\ngini = 0.32\nsamples = 5\nvalue = [0, 0, 0, 4, 1]\nclass = BL", fillcolor="#6d6aec"] ;
357 -> 358 ;
359 [label="gini = 0.0\nsamples = 1\nvalue = [0, 0, 0, 0, 1]\nclass = NA", fillcolor="#e539c0"] ;
358 -> 359 ;
360 [label="gini = 0.0\nsamples = 4\nvalue = [0, 0, 0, 4, 0]\nclass = BL", fillcolor="#3c39e5"] ;
358 -> 360 ;
361 [label="gini = 0.0\nsamples = 5\nvalue = [0, 0, 0, 0, 5]\nclass = NA", fillcolor="#e539c0"] ;
357 -> 361 ;
362 [label="SMBp <= -167.433\ngini = 0.08\nsamples = 24\nvalue = [0, 0, 0, 1, 23]\nclass = NA", fillcolor="#e642c3"] ;
356 -> 362 ;
363 [label="gini = 0.0\nsamples = 1\nvalue = [0, 0, 0, 1, 0]\nclass = BL", fillcolor="#3c39e5"] ;
362 -> 363 ;
364 [label="gini = 0.0\nsamples = 23\nvalue = [0, 0, 0, 0, 23]\nclass = NA", fillcolor="#e539c0"] ;
362 -> 364 ;
365 [label="SMBp <= -16.175\ngini = 0.704\nsamples = 44\nvalue = [16, 7, 2, 3, 16]\nclass = SH", fillcolor="#ffffff"] ;
355 -> 365 ;
366 [label="SBcov <= 0.812\ngini = 0.594\nsamples = 28\nvalue = [0, 7, 2, 3, 16]\nclass = NA", fillcolor="#f4aae4"] ;
365 -> 366 ;
367 [label="HMLp <= -44.454\ngini = 0.484\nsamples = 23\nvalue = [0, 2, 2, 3, 16]\nclass = NA", fillcolor="#ee7ed6"] ;
366 -> 367 ;
368 [label="gini = 0.0\nsamples = 2\nvalue = [0, 0, 2, 0, 0]\nclass = BH", fillcolor="#39e5c5"] ;
367 -> 368 ;
369 [label="Rsqr <= 0.139\ngini = 0.39\nsamples = 21\nvalue = [0, 2, 0, 3, 16]\nclass = NA", fillcolor="#ec70d2"] ;
367 -> 369 ;
370 [label="SHCovp <= -36.667\ngini = 0.5\nsamples = 6\nvalue = [0, 0, 0, 3, 3]\nclass = BL", fillcolor="#ffffff"] ;
369 -> 370 ;
371 [label="gini = 0.0\nsamples = 2\nvalue = [0, 0, 0, 0, 2]\nclass = NA", fillcolor="#e539c0"] ;
370 -> 371 ;
372 [label="SHCov <= -0.0\ngini = 0.375\nsamples = 4\nvalue = [0, 0, 0, 3, 1]\nclass = BL", fillcolor="#7d7bee"] ;
370 -> 372 ;
373 [label="gini = 0.0\nsamples = 3\nvalue = [0, 0, 0, 3, 0]\nclass = BL", fillcolor="#3c39e5"] ;
372 -> 373 ;
374 [label="gini = 0.0\nsamples = 1\nvalue = [0, 0, 0, 0, 1]\nclass = NA", fillcolor="#e539c0"] ;
372 -> 374 ;
375 [label="SHCovp <= -38.182\ngini = 0.231\nsamples = 15\nvalue = [0, 2, 0, 0, 13]\nclass = NA", fillcolor="#e957ca"] ;
369 -> 375 ;
376 [label="SBcov <= 0.718\ngini = 0.5\nsamples = 4\nvalue = [0, 2, 0, 0, 2]\nclass = SL", fillcolor="#ffffff"] ;
375 -> 376 ;
377 [label="gini = 0.0\nsamples = 2\nvalue = [0, 0, 0, 0, 2]\nclass = NA", fillcolor="#e539c0"] ;
376 -> 377 ;
378 [label="gini = 0.0\nsamples = 2\nvalue = [0, 2, 0, 0, 0]\nclass = SL", fillcolor="#7be539"] ;
376 -> 378 ;
379 [label="gini = 0.0\nsamples = 11\nvalue = [0, 0, 0, 0, 11]\nclass = NA", fillcolor="#e539c0"] ;
375 -> 379 ;
380 [label="gini = 0.0\nsamples = 5\nvalue = [0, 5, 0, 0, 0]\nclass = SL", fillcolor="#7be539"] ;
366 -> 380 ;
381 [label="gini = 0.0\nsamples = 16\nvalue = [16, 0, 0, 0, 0]\nclass = SH", fillcolor="#e58139"] ;
365 -> 381 ;
382 [label="SMBVol <= 0.0\ngini = 0.549\nsamples = 46\nvalue = [2, 0, 1, 25, 18]\nclass = BL", fillcolor="#cecef8"] ;
354 -> 382 ;
383 [label="HMLp <= -160.104\ngini = 0.087\nsamples = 22\nvalue = [0, 0, 0, 21, 1]\nclass = BL", fillcolor="#4542e6"] ;
382 -> 383 ;
384 [label="gini = 0.0\nsamples = 1\nvalue = [0, 0, 0, 0, 1]\nclass = NA", fillcolor="#e539c0"] ;
383 -> 384 ;
385 [label="gini = 0.0\nsamples = 21\nvalue = [0, 0, 0, 21, 0]\nclass = BL", fillcolor="#3c39e5"] ;
383 -> 385 ;
386 [label="CBOEVIX_spr <= -0.001\ngini = 0.462\nsamples = 24\nvalue = [2, 0, 1, 4, 17]\nclass = NA", fillcolor="#ee7ed6"] ;
382 -> 386 ;
387 [label="SMBp <= 313.235\ngini = 0.335\nsamples = 20\nvalue = [0, 0, 1, 3, 16]\nclass = NA", fillcolor="#eb68cf"] ;
386 -> 387 ;
388 [label="gini = 0.0\nsamples = 10\nvalue = [0, 0, 0, 0, 10]\nclass = NA", fillcolor="#e539c0"] ;
387 -> 388 ;
389 [label="HMLVol <= 0.0\ngini = 0.54\nsamples = 10\nvalue = [0, 0, 1, 3, 6]\nclass = NA", fillcolor="#f4aae4"] ;
387 -> 389 ;
390 [label="SHCov <= 0.0\ngini = 0.611\nsamples = 6\nvalue = [0, 0, 1, 3, 2]\nclass = BL", fillcolor="#cecef8"] ;
389 -> 390 ;
391 [label="Rsqr <= 0.177\ngini = 0.48\nsamples = 5\nvalue = [0, 0, 0, 3, 2]\nclass = BL", fillcolor="#bebdf6"] ;
390 -> 391 ;
392 [label="HLcov <= 1.323\ngini = 0.444\nsamples = 3\nvalue = [0, 0, 0, 1, 2]\nclass = NA", fillcolor="#f29ce0"] ;
391 -> 392 ;
393 [label="gini = 0.0\nsamples = 1\nvalue = [0, 0, 0, 1, 0]\nclass = BL", fillcolor="#3c39e5"] ;
392 -> 393 ;
394 [label="gini = 0.0\nsamples = 2\nvalue = [0, 0, 0, 0, 2]\nclass = NA", fillcolor="#e539c0"] ;
392 -> 394 ;
395 [label="gini = 0.0\nsamples = 2\nvalue = [0, 0, 0, 2, 0]\nclass = BL", fillcolor="#3c39e5"] ;
391 -> 395 ;
396 [label="gini = 0.0\nsamples = 1\nvalue = [0, 0, 1, 0, 0]\nclass = BH", fillcolor="#39e5c5"] ;
390 -> 396 ;
397 [label="gini = 0.0\nsamples = 4\nvalue = [0, 0, 0, 0, 4]\nclass = NA", fillcolor="#e539c0"] ;
389 -> 397 ;
398 [label="Rsqr <= 0.169\ngini = 0.625\nsamples = 4\nvalue = [2, 0, 0, 1, 1]\nclass = SH", fillcolor="#f6d5bd"] ;
386 -> 398 ;
399 [label="gini = 0.0\nsamples = 2\nvalue = [2, 0, 0, 0, 0]\nclass = SH", fillcolor="#e58139"] ;
398 -> 399 ;
400 [label="CBOEVIX_spr <= -0.001\ngini = 0.5\nsamples = 2\nvalue = [0, 0, 0, 1, 1]\nclass = BL", fillcolor="#ffffff"] ;
398 -> 400 ;
401 [label="gini = 0.0\nsamples = 1\nvalue = [0, 0, 0, 0, 1]\nclass = NA", fillcolor="#e539c0"] ;
400 -> 401 ;
402 [label="gini = 0.0\nsamples = 1\nvalue = [0, 0, 0, 1, 0]\nclass = BL", fillcolor="#3c39e5"] ;
400 -> 402 ;
403 [label="SHCovp <= -64.532\ngini = 0.64\nsamples = 331\nvalue = [22, 11, 61, 59, 178]\nclass = NA", fillcolor="#f4a9e4"] ;
343 -> 403 ;
404 [label="HMLp <= 16.666\ngini = 0.618\nsamples = 80\nvalue = [5, 0, 35, 6, 34]\nclass = BH", fillcolor="#fbfefe"] ;
403 -> 404 ;
405 [label="HMLVol <= 0.0\ngini = 0.559\nsamples = 46\nvalue = [5, 0, 28, 2, 11]\nclass = BH", fillcolor="#9ff2e3"] ;
404 -> 405 ;
406 [label="SMBVol <= 0.0\ngini = 0.654\nsamples = 19\nvalue = [5, 0, 6, 0, 8]\nclass = NA", fillcolor="#fbe1f5"] ;
405 -> 406 ;
407 [label="SHCov <= -0.0\ngini = 0.278\nsamples = 6\nvalue = [5, 0, 0, 0, 1]\nclass = SH", fillcolor="#ea9a61"] ;
406 -> 407 ;
408 [label="SMBVol <= 0.0\ngini = 0.5\nsamples = 2\nvalue = [1, 0, 0, 0, 1]\nclass = SH", fillcolor="#ffffff"] ;
407 -> 408 ;
409 [label="gini = 0.0\nsamples = 1\nvalue = [1, 0, 0, 0, 0]\nclass = SH", fillcolor="#e58139"] ;
408 -> 409 ;
410 [label="gini = 0.0\nsamples = 1\nvalue = [0, 0, 0, 0, 1]\nclass = NA", fillcolor="#e539c0"] ;
408 -> 410 ;
411 [label="gini = 0.0\nsamples = 4\nvalue = [4, 0, 0, 0, 0]\nclass = SH", fillcolor="#e58139"] ;
407 -> 411 ;
412 [label="SHCovp <= -155.64\ngini = 0.497\nsamples = 13\nvalue = [0, 0, 6, 0, 7]\nclass = NA", fillcolor="#fbe3f6"] ;
406 -> 412 ;
413 [label="gini = 0.0\nsamples = 5\nvalue = [0, 0, 5, 0, 0]\nclass = BH", fillcolor="#39e5c5"] ;
412 -> 413 ;
414 [label="SBcov <= 0.457\ngini = 0.219\nsamples = 8\nvalue = [0, 0, 1, 0, 7]\nclass = NA", fillcolor="#e955c9"] ;
412 -> 414 ;
415 [label="gini = 0.0\nsamples = 7\nvalue = [0, 0, 0, 0, 7]\nclass = NA", fillcolor="#e539c0"] ;
414 -> 415 ;
416 [label="gini = 0.0\nsamples = 1\nvalue = [0, 0, 1, 0, 0]\nclass = BH", fillcolor="#39e5c5"] ;
414 -> 416 ;
417 [label="SHCovp <= -130.562\ngini = 0.318\nsamples = 27\nvalue = [0, 0, 22, 2, 3]\nclass = BH", fillcolor="#62ead1"] ;
405 -> 417 ;
418 [label="gini = 0.0\nsamples = 1\nvalue = [0, 0, 0, 0, 1]\nclass = NA", fillcolor="#e539c0"] ;
417 -> 418 ;
419 [label="HMLVol <= 0.0\ngini = 0.272\nsamples = 26\nvalue = [0, 0, 22, 2, 2]\nclass = BH", fillcolor="#5ae9cf"] ;
417 -> 419 ;
420 [label="HMLp <= -88.338\ngini = 0.5\nsamples = 4\nvalue = [0, 0, 2, 2, 0]\nclass = BH", fillcolor="#ffffff"] ;
419 -> 420 ;
421 [label="gini = 0.0\nsamples = 2\nvalue = [0, 0, 2, 0, 0]\nclass = BH", fillcolor="#39e5c5"] ;
420 -> 421 ;
422 [label="gini = 0.0\nsamples = 2\nvalue = [0, 0, 0, 2, 0]\nclass = BL", fillcolor="#3c39e5"] ;
420 -> 422 ;
423 [label="SMBp <= -96.396\ngini = 0.165\nsamples = 22\nvalue = [0, 0, 20, 0, 2]\nclass = BH", fillcolor="#4de8cb"] ;
419 -> 423 ;
424 [label="CBOEVIX_spr <= -0.001\ngini = 0.095\nsamples = 20\nvalue = [0, 0, 19, 0, 1]\nclass = BH", fillcolor="#43e6c8"] ;
423 -> 424 ;
425 [label="gini = 0.0\nsamples = 18\nvalue = [0, 0, 18, 0, 0]\nclass = BH", fillcolor="#39e5c5"] ;
424 -> 425 ;
426 [label="SMBp <= -181.894\ngini = 0.5\nsamples = 2\nvalue = [0, 0, 1, 0, 1]\nclass = BH", fillcolor="#ffffff"] ;
424 -> 426 ;
427 [label="gini = 0.0\nsamples = 1\nvalue = [0, 0, 0, 0, 1]\nclass = NA", fillcolor="#e539c0"] ;
426 -> 427 ;
428 [label="gini = 0.0\nsamples = 1\nvalue = [0, 0, 1, 0, 0]\nclass = BH", fillcolor="#39e5c5"] ;
426 -> 428 ;
429 [label="SMBp <= -95.45\ngini = 0.5\nsamples = 2\nvalue = [0, 0, 1, 0, 1]\nclass = BH", fillcolor="#ffffff"] ;
423 -> 429 ;
430 [label="gini = 0.0\nsamples = 1\nvalue = [0, 0, 0, 0, 1]\nclass = NA", fillcolor="#e539c0"] ;
429 -> 430 ;
431 [label="gini = 0.0\nsamples = 1\nvalue = [0, 0, 1, 0, 0]\nclass = BH", fillcolor="#39e5c5"] ;
429 -> 431 ;
432 [label="SBcov <= 0.747\ngini = 0.486\nsamples = 34\nvalue = [0, 0, 7, 4, 23]\nclass = NA", fillcolor="#f08ada"] ;
404 -> 432 ;
433 [label="HMLp <= 335.596\ngini = 0.245\nsamples = 7\nvalue = [0, 0, 6, 0, 1]\nclass = BH", fillcolor="#5ae9cf"] ;
432 -> 433 ;
434 [label="gini = 0.0\nsamples = 6\nvalue = [0, 0, 6, 0, 0]\nclass = BH", fillcolor="#39e5c5"] ;
433 -> 434 ;
435 [label="gini = 0.0\nsamples = 1\nvalue = [0, 0, 0, 0, 1]\nclass = NA", fillcolor="#e539c0"] ;
433 -> 435 ;
436 [label="HLcov <= 1.371\ngini = 0.313\nsamples = 27\nvalue = [0, 0, 1, 4, 22]\nclass = NA", fillcolor="#eb64ce"] ;
432 -> 436 ;
437 [label="CBOEVIX_spr <= -0.003\ngini = 0.218\nsamples = 25\nvalue = [0, 0, 1, 2, 22]\nclass = NA", fillcolor="#e853c8"] ;
436 -> 437 ;
438 [label="gini = 0.0\nsamples = 1\nvalue = [0, 0, 0, 1, 0]\nclass = BL", fillcolor="#3c39e5"] ;
437 -> 438 ;
439 [label="CBOEVIX_spr <= -0.003\ngini = 0.156\nsamples = 24\nvalue = [0, 0, 1, 1, 22]\nclass = NA", fillcolor="#e74ac5"] ;
437 -> 439 ;
440 [label="HMLVol <= 0.0\ngini = 0.5\nsamples = 2\nvalue = [0, 0, 1, 0, 1]\nclass = BH", fillcolor="#ffffff"] ;
439 -> 440 ;
441 [label="gini = 0.0\nsamples = 1\nvalue = [0, 0, 1, 0, 0]\nclass = BH", fillcolor="#39e5c5"] ;
440 -> 441 ;
442 [label="gini = 0.0\nsamples = 1\nvalue = [0, 0, 0, 0, 1]\nclass = NA", fillcolor="#e539c0"] ;
440 -> 442 ;
443 [label="CBOEVIX_spr <= -0.002\ngini = 0.087\nsamples = 22\nvalue = [0, 0, 0, 1, 21]\nclass = NA", fillcolor="#e642c3"] ;
439 -> 443 ;
444 [label="gini = 0.0\nsamples = 19\nvalue = [0, 0, 0, 0, 19]\nclass = NA", fillcolor="#e539c0"] ;
443 -> 444 ;
445 [label="CBOEVIX_spr <= -0.001\ngini = 0.444\nsamples = 3\nvalue = [0, 0, 0, 1, 2]\nclass = NA", fillcolor="#f29ce0"] ;
443 -> 445 ;
446 [label="gini = 0.0\nsamples = 1\nvalue = [0, 0, 0, 1, 0]\nclass = BL", fillcolor="#3c39e5"] ;
445 -> 446 ;
447 [label="gini = 0.0\nsamples = 2\nvalue = [0, 0, 0, 0, 2]\nclass = NA", fillcolor="#e539c0"] ;
445 -> 447 ;
448 [label="gini = 0.0\nsamples = 2\nvalue = [0, 0, 0, 2, 0]\nclass = BL", fillcolor="#3c39e5"] ;
436 -> 448 ;
449 [label="SMBVol <= 0.0\ngini = 0.609\nsamples = 251\nvalue = [17, 11, 26, 53, 144]\nclass = NA", fillcolor="#f3a4e2"] ;
403 -> 449 ;
450 [label="SMBp <= -142.348\ngini = 0.554\nsamples = 19\nvalue = [0, 2, 11, 0, 6]\nclass = BH", fillcolor="#b3f5e9"] ;
449 -> 450 ;
451 [label="SBcov <= 0.404\ngini = 0.408\nsamples = 7\nvalue = [0, 2, 0, 0, 5]\nclass = NA", fillcolor="#ef88d9"] ;
450 -> 451 ;
452 [label="gini = 0.0\nsamples = 1\nvalue = [0, 1, 0, 0, 0]\nclass = SL", fillcolor="#7be539"] ;
451 -> 452 ;
453 [label="CBOEVIX_spr <= -0.002\ngini = 0.278\nsamples = 6\nvalue = [0, 1, 0, 0, 5]\nclass = NA", fillcolor="#ea61cd"] ;
451 -> 453 ;
454 [label="gini = 0.0\nsamples = 1\nvalue = [0, 1, 0, 0, 0]\nclass = SL", fillcolor="#7be539"] ;
453 -> 454 ;
455 [label="gini = 0.0\nsamples = 5\nvalue = [0, 0, 0, 0, 5]\nclass = NA", fillcolor="#e539c0"] ;
453 -> 455 ;
456 [label="HMLp <= 103.924\ngini = 0.153\nsamples = 12\nvalue = [0, 0, 11, 0, 1]\nclass = BH", fillcolor="#4be7ca"] ;
450 -> 456 ;
457 [label="gini = 0.0\nsamples = 8\nvalue = [0, 0, 8, 0, 0]\nclass = BH", fillcolor="#39e5c5"] ;
456 -> 457 ;
458 [label="HMLp <= 104.356\ngini = 0.375\nsamples = 4\nvalue = [0, 0, 3, 0, 1]\nclass = BH", fillcolor="#7beed8"] ;
456 -> 458 ;
459 [label="gini = 0.0\nsamples = 1\nvalue = [0, 0, 0, 0, 1]\nclass = NA", fillcolor="#e539c0"] ;
458 -> 459 ;
460 [label="gini = 0.0\nsamples = 3\nvalue = [0, 0, 3, 0, 0]\nclass = BH", fillcolor="#39e5c5"] ;
458 -> 460 ;
461 [label="CBOEVIX_spr <= -0.001\ngini = 0.583\nsamples = 232\nvalue = [17, 9, 15, 53, 138]\nclass = NA", fillcolor="#f3a1e1"] ;
449 -> 461 ;
462 [label="HMLp <= -77.119\ngini = 0.492\nsamples = 162\nvalue = [10, 4, 8, 29, 111]\nclass = NA", fillcolor="#ef85d8"] ;
461 -> 462 ;
463 [label="HLcov <= 0.818\ngini = 0.495\nsamples = 57\nvalue = [0, 0, 1, 22, 34]\nclass = NA", fillcolor="#f6bbe9"] ;
462 -> 463 ;
464 [label="SHCov <= 0.0\ngini = 0.34\nsamples = 23\nvalue = [0, 0, 0, 18, 5]\nclass = BL", fillcolor="#7270ec"] ;
463 -> 464 ;
465 [label="SMBp <= 181.556\ngini = 0.188\nsamples = 19\nvalue = [0, 0, 0, 17, 2]\nclass = BL", fillcolor="#5350e8"] ;
464 -> 465 ;
466 [label="SMBVol <= 0.0\ngini = 0.105\nsamples = 18\nvalue = [0, 0, 0, 17, 1]\nclass = BL", fillcolor="#4745e7"] ;
465 -> 466 ;
467 [label="Rsqr <= 0.351\ngini = 0.5\nsamples = 2\nvalue = [0, 0, 0, 1, 1]\nclass = BL", fillcolor="#ffffff"] ;
466 -> 467 ;
468 [label="gini = 0.0\nsamples = 1\nvalue = [0, 0, 0, 1, 0]\nclass = BL", fillcolor="#3c39e5"] ;
467 -> 468 ;
469 [label="gini = 0.0\nsamples = 1\nvalue = [0, 0, 0, 0, 1]\nclass = NA", fillcolor="#e539c0"] ;
467 -> 469 ;
470 [label="gini = 0.0\nsamples = 16\nvalue = [0, 0, 0, 16, 0]\nclass = BL", fillcolor="#3c39e5"] ;
466 -> 470 ;
471 [label="gini = 0.0\nsamples = 1\nvalue = [0, 0, 0, 0, 1]\nclass = NA", fillcolor="#e539c0"] ;
465 -> 471 ;
472 [label="HLcov <= 0.486\ngini = 0.375\nsamples = 4\nvalue = [0, 0, 0, 1, 3]\nclass = NA", fillcolor="#ee7bd5"] ;
464 -> 472 ;
473 [label="gini = 0.0\nsamples = 1\nvalue = [0, 0, 0, 1, 0]\nclass = BL", fillcolor="#3c39e5"] ;
472 -> 473 ;
474 [label="gini = 0.0\nsamples = 3\nvalue = [0, 0, 0, 0, 3]\nclass = NA", fillcolor="#e539c0"] ;
472 -> 474 ;
475 [label="HMLp <= -188.026\ngini = 0.258\nsamples = 34\nvalue = [0, 0, 1, 4, 29]\nclass = NA", fillcolor="#e95acb"] ;
463 -> 475 ;
476 [label="Rsqr <= 0.281\ngini = 0.562\nsamples = 11\nvalue = [0, 0, 1, 4, 6]\nclass = NA", fillcolor="#f8c6ed"] ;
475 -> 476 ;
477 [label="gini = 0.0\nsamples = 5\nvalue = [0, 0, 0, 0, 5]\nclass = NA", fillcolor="#e539c0"] ;
476 -> 477 ;
478 [label="SBcov <= 0.834\ngini = 0.5\nsamples = 6\nvalue = [0, 0, 1, 4, 1]\nclass = BL", fillcolor="#8a88ef"] ;
476 -> 478 ;
479 [label="SMBVol <= 0.0\ngini = 0.5\nsamples = 2\nvalue = [0, 0, 1, 0, 1]\nclass = BH", fillcolor="#ffffff"] ;
478 -> 479 ;
480 [label="gini = 0.0\nsamples = 1\nvalue = [0, 0, 1, 0, 0]\nclass = BH", fillcolor="#39e5c5"] ;
479 -> 480 ;
481 [label="gini = 0.0\nsamples = 1\nvalue = [0, 0, 0, 0, 1]\nclass = NA", fillcolor="#e539c0"] ;
479 -> 481 ;
482 [label="gini = 0.0\nsamples = 4\nvalue = [0, 0, 0, 4, 0]\nclass = BL", fillcolor="#3c39e5"] ;
478 -> 482 ;
483 [label="gini = 0.0\nsamples = 23\nvalue = [0, 0, 0, 0, 23]\nclass = NA", fillcolor="#e539c0"] ;
475 -> 483 ;
484 [label="Rsqr <= 0.79\ngini = 0.443\nsamples = 105\nvalue = [10, 4, 7, 7, 77]\nclass = NA", fillcolor="#ed73d3"] ;
462 -> 484 ;
485 [label="Rsqr <= 0.351\ngini = 0.406\nsamples = 100\nvalue = [10, 4, 4, 6, 76]\nclass = NA", fillcolor="#ec6ed1"] ;
484 -> 485 ;
486 [label="SMBp <= 215.257\ngini = 0.169\nsamples = 33\nvalue = [0, 1, 0, 2, 30]\nclass = NA", fillcolor="#e84cc6"] ;
485 -> 486 ;
487 [label="SHCov <= -0.0\ngini = 0.117\nsamples = 32\nvalue = [0, 0, 0, 2, 30]\nclass = NA", fillcolor="#e746c4"] ;
486 -> 487 ;
488 [label="gini = 0.0\nsamples = 1\nvalue = [0, 0, 0, 1, 0]\nclass = BL", fillcolor="#3c39e5"] ;
487 -> 488 ;
489 [label="HLcov <= 1.492\ngini = 0.062\nsamples = 31\nvalue = [0, 0, 0, 1, 30]\nclass = NA", fillcolor="#e640c2"] ;
487 -> 489 ;
490 [label="gini = 0.0\nsamples = 27\nvalue = [0, 0, 0, 0, 27]\nclass = NA", fillcolor="#e539c0"] ;
489 -> 490 ;
491 [label="HLcov <= 1.493\ngini = 0.375\nsamples = 4\nvalue = [0, 0, 0, 1, 3]\nclass = NA", fillcolor="#ee7bd5"] ;
489 -> 491 ;
492 [label="gini = 0.0\nsamples = 1\nvalue = [0, 0, 0, 1, 0]\nclass = BL", fillcolor="#3c39e5"] ;
491 -> 492 ;
493 [label="gini = 0.0\nsamples = 3\nvalue = [0, 0, 0, 0, 3]\nclass = NA", fillcolor="#e539c0"] ;
491 -> 493 ;
494 [label="gini = 0.0\nsamples = 1\nvalue = [0, 1, 0, 0, 0]\nclass = SL", fillcolor="#7be539"] ;
486 -> 494 ;
495 [label="SMBVol <= 0.0\ngini = 0.497\nsamples = 67\nvalue = [10, 3, 4, 4, 46]\nclass = NA", fillcolor="#ef82d7"] ;
485 -> 495 ;
496 [label="gini = 0.0\nsamples = 2\nvalue = [0, 0, 2, 0, 0]\nclass = BH", fillcolor="#39e5c5"] ;
495 -> 496 ;
497 [label="HMLVol <= 0.0\ngini = 0.469\nsamples = 65\nvalue = [10, 3, 2, 4, 46]\nclass = NA", fillcolor="#ee7dd6"] ;
495 -> 497 ;
498 [label="gini = 0.0\nsamples = 2\nvalue = [2, 0, 0, 0, 0]\nclass = SH", fillcolor="#e58139"] ;
497 -> 498 ;
499 [label="Rsqr <= 0.354\ngini = 0.443\nsamples = 63\nvalue = [8, 3, 2, 4, 46]\nclass = NA", fillcolor="#ed76d3"] ;
497 -> 499 ;
500 [label="SBcov <= 0.389\ngini = 0.64\nsamples = 5\nvalue = [2, 0, 0, 2, 1]\nclass = SH", fillcolor="#ffffff"] ;
499 -> 500 ;
501 [label="gini = 0.0\nsamples = 2\nvalue = [0, 0, 0, 2, 0]\nclass = BL", fillcolor="#3c39e5"] ;
500 -> 501 ;
502 [label="Rsqr <= 0.352\ngini = 0.444\nsamples = 3\nvalue = [2, 0, 0, 0, 1]\nclass = SH", fillcolor="#f2c09c"] ;
500 -> 502 ;
503 [label="gini = 0.0\nsamples = 1\nvalue = [0, 0, 0, 0, 1]\nclass = NA", fillcolor="#e539c0"] ;
502 -> 503 ;
504 [label="gini = 0.0\nsamples = 2\nvalue = [2, 0, 0, 0, 0]\nclass = SH", fillcolor="#e58139"] ;
502 -> 504 ;
505 [label="HLcov <= 0.28\ngini = 0.382\nsamples = 58\nvalue = [6, 3, 2, 2, 45]\nclass = NA", fillcolor="#ec6ad0"] ;
499 -> 505 ;
506 [label="gini = 0.0\nsamples = 1\nvalue = [0, 0, 0, 1, 0]\nclass = BL", fillcolor="#3c39e5"] ;
505 -> 506 ;
507 [label="SMBp <= -203.76\ngini = 0.361\nsamples = 57\nvalue = [6, 3, 2, 1, 45]\nclass = NA", fillcolor="#eb68cf"] ;
505 -> 507 ;
508 [label="gini = 0.0\nsamples = 1\nvalue = [1, 0, 0, 0, 0]\nclass = SH", fillcolor="#e58139"] ;
507 -> 508 ;
509 [label="HLcov <= 0.282\ngini = 0.342\nsamples = 56\nvalue = [5, 3, 2, 1, 45]\nclass = NA", fillcolor="#eb64ce"] ;
507 -> 509 ;
510 [label="SBcov <= 0.291\ngini = 0.48\nsamples = 5\nvalue = [0, 0, 2, 0, 3]\nclass = NA", fillcolor="#f6bdea"] ;
509 -> 510 ;
511 [label="gini = 0.0\nsamples = 2\nvalue = [0, 0, 0, 0, 2]\nclass = NA", fillcolor="#e539c0"] ;
510 -> 511 ;
512 [label="HMLVol <= 0.0\ngini = 0.444\nsamples = 3\nvalue = [0, 0, 2, 0, 1]\nclass = BH", fillcolor="#9cf2e2"] ;
510 -> 512 ;
513 [label="gini = 0.0\nsamples = 1\nvalue = [0, 0, 0, 0, 1]\nclass = NA", fillcolor="#e539c0"] ;
512 -> 513 ;
514 [label="gini = 0.0\nsamples = 2\nvalue = [0, 0, 2, 0, 0]\nclass = BH", fillcolor="#39e5c5"] ;
512 -> 514 ;
515 [label="SHCovp <= -33.381\ngini = 0.308\nsamples = 51\nvalue = [5, 3, 0, 1, 42]\nclass = NA", fillcolor="#ea60cc"] ;
509 -> 515 ;
516 [label="SBcov <= 0.293\ngini = 0.14\nsamples = 27\nvalue = [1, 1, 0, 0, 25]\nclass = NA", fillcolor="#e748c5"] ;
515 -> 516 ;
517 [label="SBcov <= 0.292\ngini = 0.444\nsamples = 3\nvalue = [1, 0, 0, 0, 2]\nclass = NA", fillcolor="#f29ce0"] ;
516 -> 517 ;
518 [label="gini = 0.0\nsamples = 2\nvalue = [0, 0, 0, 0, 2]\nclass = NA", fillcolor="#e539c0"] ;
517 -> 518 ;
519 [label="gini = 0.0\nsamples = 1\nvalue = [1, 0, 0, 0, 0]\nclass = SH", fillcolor="#e58139"] ;
517 -> 519 ;
520 [label="SHCovp <= -55.648\ngini = 0.08\nsamples = 24\nvalue = [0, 1, 0, 0, 23]\nclass = NA", fillcolor="#e642c3"] ;
516 -> 520 ;
521 [label="HMLp <= -67.692\ngini = 0.32\nsamples = 5\nvalue = [0, 1, 0, 0, 4]\nclass = NA", fillcolor="#ec6ad0"] ;
520 -> 521 ;
522 [label="gini = 0.0\nsamples = 4\nvalue = [0, 0, 0, 0, 4]\nclass = NA", fillcolor="#e539c0"] ;
521 -> 522 ;
523 [label="gini = 0.0\nsamples = 1\nvalue = [0, 1, 0, 0, 0]\nclass = SL", fillcolor="#7be539"] ;
521 -> 523 ;
524 [label="gini = 0.0\nsamples = 19\nvalue = [0, 0, 0, 0, 19]\nclass = NA", fillcolor="#e539c0"] ;
520 -> 524 ;
525 [label="SHCov <= 0.0\ngini = 0.462\nsamples = 24\nvalue = [4, 2, 0, 1, 17]\nclass = NA", fillcolor="#ee7ed6"] ;
515 -> 525 ;
526 [label="HMLp <= 115.448\ngini = 0.384\nsamples = 22\nvalue = [2, 2, 0, 1, 17]\nclass = NA", fillcolor="#ec6ad0"] ;
525 -> 526 ;
527 [label="SBcov <= 0.448\ngini = 0.265\nsamples = 20\nvalue = [2, 1, 0, 0, 17]\nclass = NA", fillcolor="#e95acb"] ;
526 -> 527 ;
528 [label="CBOEVIX_spr <= -0.002\ngini = 0.444\nsamples = 3\nvalue = [2, 0, 0, 0, 1]\nclass = SH", fillcolor="#f2c09c"] ;
527 -> 528 ;
529 [label="gini = 0.0\nsamples = 1\nvalue = [0, 0, 0, 0, 1]\nclass = NA", fillcolor="#e539c0"] ;
528 -> 529 ;
530 [label="gini = 0.0\nsamples = 2\nvalue = [2, 0, 0, 0, 0]\nclass = SH", fillcolor="#e58139"] ;
528 -> 530 ;
531 [label="SBcov <= 0.451\ngini = 0.111\nsamples = 17\nvalue = [0, 1, 0, 0, 16]\nclass = NA", fillcolor="#e745c4"] ;
527 -> 531 ;
532 [label="HMLp <= 105.563\ngini = 0.375\nsamples = 4\nvalue = [0, 1, 0, 0, 3]\nclass = NA", fillcolor="#ee7bd5"] ;
531 -> 532 ;
533 [label="gini = 0.0\nsamples = 3\nvalue = [0, 0, 0, 0, 3]\nclass = NA", fillcolor="#e539c0"] ;
532 -> 533 ;
534 [label="gini = 0.0\nsamples = 1\nvalue = [0, 1, 0, 0, 0]\nclass = SL", fillcolor="#7be539"] ;
532 -> 534 ;
535 [label="gini = 0.0\nsamples = 13\nvalue = [0, 0, 0, 0, 13]\nclass = NA", fillcolor="#e539c0"] ;
531 -> 535 ;
536 [label="SMBp <= -53.228\ngini = 0.5\nsamples = 2\nvalue = [0, 1, 0, 1, 0]\nclass = SL", fillcolor="#ffffff"] ;
526 -> 536 ;
537 [label="gini = 0.0\nsamples = 1\nvalue = [0, 1, 0, 0, 0]\nclass = SL", fillcolor="#7be539"] ;
536 -> 537 ;
538 [label="gini = 0.0\nsamples = 1\nvalue = [0, 0, 0, 1, 0]\nclass = BL", fillcolor="#3c39e5"] ;
536 -> 538 ;
539 [label="gini = 0.0\nsamples = 2\nvalue = [2, 0, 0, 0, 0]\nclass = SH", fillcolor="#e58139"] ;
525 -> 539 ;
540 [label="HMLVol <= 0.0\ngini = 0.56\nsamples = 5\nvalue = [0, 0, 3, 1, 1]\nclass = BH", fillcolor="#9cf2e2"] ;
484 -> 540 ;
541 [label="gini = 0.0\nsamples = 3\nvalue = [0, 0, 3, 0, 0]\nclass = BH", fillcolor="#39e5c5"] ;
540 -> 541 ;
542 [label="Rsqr <= 0.794\ngini = 0.5\nsamples = 2\nvalue = [0, 0, 0, 1, 1]\nclass = BL", fillcolor="#ffffff"] ;
540 -> 542 ;
543 [label="gini = 0.0\nsamples = 1\nvalue = [0, 0, 0, 0, 1]\nclass = NA", fillcolor="#e539c0"] ;
542 -> 543 ;
544 [label="gini = 0.0\nsamples = 1\nvalue = [0, 0, 0, 1, 0]\nclass = BL", fillcolor="#3c39e5"] ;
542 -> 544 ;
545 [label="HLcov <= 0.309\ngini = 0.709\nsamples = 70\nvalue = [7, 5, 7, 24, 27]\nclass = NA", fillcolor="#fdf2fb"] ;
461 -> 545 ;
546 [label="SHCovp <= -52.292\ngini = 0.628\nsamples = 11\nvalue = [6, 0, 2, 1, 2]\nclass = SH", fillcolor="#f3c7a7"] ;
545 -> 546 ;
547 [label="SBcov <= 0.291\ngini = 0.64\nsamples = 5\nvalue = [0, 0, 2, 1, 2]\nclass = BH", fillcolor="#ffffff"] ;
546 -> 547 ;
548 [label="SHCovp <= -52.762\ngini = 0.444\nsamples = 3\nvalue = [0, 0, 0, 1, 2]\nclass = NA", fillcolor="#f29ce0"] ;
547 -> 548 ;
549 [label="gini = 0.0\nsamples = 2\nvalue = [0, 0, 0, 0, 2]\nclass = NA", fillcolor="#e539c0"] ;
548 -> 549 ;
550 [label="gini = 0.0\nsamples = 1\nvalue = [0, 0, 0, 1, 0]\nclass = BL", fillcolor="#3c39e5"] ;
548 -> 550 ;
551 [label="gini = 0.0\nsamples = 2\nvalue = [0, 0, 2, 0, 0]\nclass = BH", fillcolor="#39e5c5"] ;
547 -> 551 ;
552 [label="gini = 0.0\nsamples = 6\nvalue = [6, 0, 0, 0, 0]\nclass = SH", fillcolor="#e58139"] ;
546 -> 552 ;
553 [label="SMBp <= 262.875\ngini = 0.654\nsamples = 59\nvalue = [1, 5, 5, 23, 25]\nclass = NA", fillcolor="#fef4fc"] ;
545 -> 553 ;
554 [label="Rsqr <= 0.248\ngini = 0.612\nsamples = 54\nvalue = [1, 5, 1, 23, 24]\nclass = NA", fillcolor="#fef9fd"] ;
553 -> 554 ;
555 [label="SHCov <= -0.0\ngini = 0.398\nsamples = 16\nvalue = [0, 1, 0, 12, 3]\nclass = BL", fillcolor="#7876ed"] ;
554 -> 555 ;
556 [label="gini = 0.0\nsamples = 1\nvalue = [0, 1, 0, 0, 0]\nclass = SL", fillcolor="#7be539"] ;
555 -> 556 ;
557 [label="SMBVol <= 0.0\ngini = 0.32\nsamples = 15\nvalue = [0, 0, 0, 12, 3]\nclass = BL", fillcolor="#6d6aec"] ;
555 -> 557 ;
558 [label="HLcov <= 0.634\ngini = 0.245\nsamples = 14\nvalue = [0, 0, 0, 12, 2]\nclass = BL", fillcolor="#5d5ae9"] ;
557 -> 558 ;
559 [label="gini = 0.0\nsamples = 1\nvalue = [0, 0, 0, 0, 1]\nclass = NA", fillcolor="#e539c0"] ;
558 -> 559 ;
560 [label="HLcov <= 0.64\ngini = 0.142\nsamples = 13\nvalue = [0, 0, 0, 12, 1]\nclass = BL", fillcolor="#4c49e7"] ;
558 -> 560 ;
561 [label="SHCov <= -0.0\ngini = 0.444\nsamples = 3\nvalue = [0, 0, 0, 2, 1]\nclass = BL", fillcolor="#9e9cf2"] ;
560 -> 561 ;
562 [label="gini = 0.0\nsamples = 1\nvalue = [0, 0, 0, 0, 1]\nclass = NA", fillcolor="#e539c0"] ;
561 -> 562 ;
563 [label="gini = 0.0\nsamples = 2\nvalue = [0, 0, 0, 2, 0]\nclass = BL", fillcolor="#3c39e5"] ;
561 -> 563 ;
564 [label="gini = 0.0\nsamples = 10\nvalue = [0, 0, 0, 10, 0]\nclass = BL", fillcolor="#3c39e5"] ;
560 -> 564 ;
565 [label="gini = 0.0\nsamples = 1\nvalue = [0, 0, 0, 0, 1]\nclass = NA", fillcolor="#e539c0"] ;
557 -> 565 ;
566 [label="CBOEVIX_spr <= -0.001\ngini = 0.598\nsamples = 38\nvalue = [1, 4, 1, 11, 21]\nclass = NA", fillcolor="#f5b6e8"] ;
554 -> 566 ;
567 [label="CBOEVIX_spr <= -0.001\ngini = 0.45\nsamples = 27\nvalue = [0, 2, 0, 6, 19]\nclass = NA", fillcolor="#ef84d8"] ;
566 -> 567 ;
568 [label="gini = 0.0\nsamples = 2\nvalue = [0, 0, 0, 2, 0]\nclass = BL", fillcolor="#3c39e5"] ;
567 -> 568 ;
569 [label="Rsqr <= 0.794\ngini = 0.39\nsamples = 25\nvalue = [0, 2, 0, 4, 19]\nclass = NA", fillcolor="#ec72d2"] ;
567 -> 569 ;
570 [label="SBcov <= 0.313\ngini = 0.302\nsamples = 23\nvalue = [0, 2, 0, 2, 19]\nclass = NA", fillcolor="#ea5fcc"] ;
569 -> 570 ;
571 [label="gini = 0.0\nsamples = 1\nvalue = [0, 0, 0, 1, 0]\nclass = BL", fillcolor="#3c39e5"] ;
570 -> 571 ;
572 [label="SMBp <= 184.824\ngini = 0.244\nsamples = 22\nvalue = [0, 2, 0, 1, 19]\nclass = NA", fillcolor="#e957c9"] ;
570 -> 572 ;
573 [label="CBOEVIX_spr <= -0.001\ngini = 0.177\nsamples = 21\nvalue = [0, 1, 0, 1, 19]\nclass = NA", fillcolor="#e84dc6"] ;
572 -> 573 ;
574 [label="gini = 0.0\nsamples = 16\nvalue = [0, 0, 0, 0, 16]\nclass = NA", fillcolor="#e539c0"] ;
573 -> 574 ;
575 [label="SHCov <= 0.0\ngini = 0.56\nsamples = 5\nvalue = [0, 1, 0, 1, 3]\nclass = NA", fillcolor="#f29ce0"] ;
573 -> 575 ;
576 [label="SMBVol <= 0.0\ngini = 0.5\nsamples = 2\nvalue = [0, 1, 0, 1, 0]\nclass = SL", fillcolor="#ffffff"] ;
575 -> 576 ;
577 [label="gini = 0.0\nsamples = 1\nvalue = [0, 1, 0, 0, 0]\nclass = SL", fillcolor="#7be539"] ;
576 -> 577 ;
578 [label="gini = 0.0\nsamples = 1\nvalue = [0, 0, 0, 1, 0]\nclass = BL", fillcolor="#3c39e5"] ;
576 -> 578 ;
579 [label="gini = 0.0\nsamples = 3\nvalue = [0, 0, 0, 0, 3]\nclass = NA", fillcolor="#e539c0"] ;
575 -> 579 ;
580 [label="gini = 0.0\nsamples = 1\nvalue = [0, 1, 0, 0, 0]\nclass = SL", fillcolor="#7be539"] ;
572 -> 580 ;
581 [label="gini = 0.0\nsamples = 2\nvalue = [0, 0, 0, 2, 0]\nclass = BL", fillcolor="#3c39e5"] ;
569 -> 581 ;
582 [label="CBOEVIX_spr <= -0.001\ngini = 0.711\nsamples = 11\nvalue = [1, 2, 1, 5, 2]\nclass = BL", fillcolor="#bebdf6"] ;
566 -> 582 ;
583 [label="CBOEVIX_spr <= -0.001\ngini = 0.617\nsamples = 9\nvalue = [1, 2, 1, 5, 0]\nclass = BL", fillcolor="#abaaf4"] ;
582 -> 583 ;
584 [label="HMLVol <= 0.0\ngini = 0.72\nsamples = 5\nvalue = [1, 2, 1, 1, 0]\nclass = SL", fillcolor="#def8ce"] ;
583 -> 584 ;
585 [label="gini = 0.0\nsamples = 2\nvalue = [0, 2, 0, 0, 0]\nclass = SL", fillcolor="#7be539"] ;
584 -> 585 ;
586 [label="SHCov <= 0.0\ngini = 0.667\nsamples = 3\nvalue = [1, 0, 1, 1, 0]\nclass = SH", fillcolor="#ffffff"] ;
584 -> 586 ;
587 [label="gini = 0.0\nsamples = 1\nvalue = [0, 0, 0, 1, 0]\nclass = BL", fillcolor="#3c39e5"] ;
586 -> 587 ;
588 [label="SMBVol <= 0.0\ngini = 0.5\nsamples = 2\nvalue = [1, 0, 1, 0, 0]\nclass = SH", fillcolor="#ffffff"] ;
586 -> 588 ;
589 [label="gini = 0.0\nsamples = 1\nvalue = [0, 0, 1, 0, 0]\nclass = BH", fillcolor="#39e5c5"] ;
588 -> 589 ;
590 [label="gini = 0.0\nsamples = 1\nvalue = [1, 0, 0, 0, 0]\nclass = SH", fillcolor="#e58139"] ;
588 -> 590 ;
591 [label="gini = 0.0\nsamples = 4\nvalue = [0, 0, 0, 4, 0]\nclass = BL", fillcolor="#3c39e5"] ;
583 -> 591 ;
592 [label="gini = 0.0\nsamples = 2\nvalue = [0, 0, 0, 0, 2]\nclass = NA", fillcolor="#e539c0"] ;
582 -> 592 ;
593 [label="SBcov <= 0.83\ngini = 0.32\nsamples = 5\nvalue = [0, 0, 4, 0, 1]\nclass = BH", fillcolor="#6aecd4"] ;
553 -> 593 ;
594 [label="gini = 0.0\nsamples = 4\nvalue = [0, 0, 4, 0, 0]\nclass = BH", fillcolor="#39e5c5"] ;
593 -> 594 ;
595 [label="gini = 0.0\nsamples = 1\nvalue = [0, 0, 0, 0, 1]\nclass = NA", fillcolor="#e539c0"] ;
593 -> 595 ;
596 [label="SHCovp <= -103.86\ngini = 0.551\nsamples = 53\nvalue = [11, 1, 1, 33, 7]\nclass = BL", fillcolor="#9997f1"] ;
334 -> 596 ;
597 [label="SMBVol <= 0.0\ngini = 0.292\nsamples = 12\nvalue = [10, 0, 1, 1, 0]\nclass = SH", fillcolor="#ea985d"] ;
596 -> 597 ;
598 [label="Rsqr <= 0.176\ngini = 0.5\nsamples = 2\nvalue = [0, 0, 1, 1, 0]\nclass = BH", fillcolor="#ffffff"] ;
597 -> 598 ;
599 [label="gini = 0.0\nsamples = 1\nvalue = [0, 0, 0, 1, 0]\nclass = BL", fillcolor="#3c39e5"] ;
598 -> 599 ;
600 [label="gini = 0.0\nsamples = 1\nvalue = [0, 0, 1, 0, 0]\nclass = BH", fillcolor="#39e5c5"] ;
598 -> 600 ;
601 [label="gini = 0.0\nsamples = 10\nvalue = [10, 0, 0, 0, 0]\nclass = SH", fillcolor="#e58139"] ;
597 -> 601 ;
602 [label="SHCovp <= 27.237\ngini = 0.36\nsamples = 41\nvalue = [1, 1, 0, 32, 7]\nclass = BL", fillcolor="#706dec"] ;
596 -> 602 ;
603 [label="HLcov <= 1.104\ngini = 0.111\nsamples = 34\nvalue = [0, 0, 0, 32, 2]\nclass = BL", fillcolor="#4845e7"] ;
602 -> 603 ;
604 [label="gini = 0.0\nsamples = 1\nvalue = [0, 0, 0, 0, 1]\nclass = NA", fillcolor="#e539c0"] ;
603 -> 604 ;
605 [label="HMLVol <= 0.0\ngini = 0.059\nsamples = 33\nvalue = [0, 0, 0, 32, 1]\nclass = BL", fillcolor="#423fe6"] ;
603 -> 605 ;
606 [label="gini = 0.0\nsamples = 29\nvalue = [0, 0, 0, 29, 0]\nclass = BL", fillcolor="#3c39e5"] ;
605 -> 606 ;
607 [label="HLcov <= 1.529\ngini = 0.375\nsamples = 4\nvalue = [0, 0, 0, 3, 1]\nclass = BL", fillcolor="#7d7bee"] ;
605 -> 607 ;
608 [label="gini = 0.0\nsamples = 1\nvalue = [0, 0, 0, 0, 1]\nclass = NA", fillcolor="#e539c0"] ;
607 -> 608 ;
609 [label="gini = 0.0\nsamples = 3\nvalue = [0, 0, 0, 3, 0]\nclass = BL", fillcolor="#3c39e5"] ;
607 -> 609 ;
610 [label="SBcov <= 1.318\ngini = 0.449\nsamples = 7\nvalue = [1, 1, 0, 0, 5]\nclass = NA", fillcolor="#ee7bd5"] ;
602 -> 610 ;
611 [label="SMBp <= 74.928\ngini = 0.5\nsamples = 2\nvalue = [1, 1, 0, 0, 0]\nclass = SH", fillcolor="#ffffff"] ;
610 -> 611 ;
612 [label="gini = 0.0\nsamples = 1\nvalue = [1, 0, 0, 0, 0]\nclass = SH", fillcolor="#e58139"] ;
611 -> 612 ;
613 [label="gini = 0.0\nsamples = 1\nvalue = [0, 1, 0, 0, 0]\nclass = SL", fillcolor="#7be539"] ;
611 -> 613 ;
614 [label="gini = 0.0\nsamples = 5\nvalue = [0, 0, 0, 0, 5]\nclass = NA", fillcolor="#e539c0"] ;
610 -> 614 ;
615 [label="Rsqr <= 0.27\ngini = 0.39\nsamples = 21\nvalue = [16, 0, 3, 0, 2]\nclass = SH", fillcolor="#eca470"] ;
333 -> 615 ;
616 [label="gini = 0.0\nsamples = 16\nvalue = [16, 0, 0, 0, 0]\nclass = SH", fillcolor="#e58139"] ;
615 -> 616 ;
617 [label="SHCovp <= 489.237\ngini = 0.48\nsamples = 5\nvalue = [0, 0, 3, 0, 2]\nclass = BH", fillcolor="#bdf6ec"] ;
615 -> 617 ;
618 [label="gini = 0.0\nsamples = 2\nvalue = [0, 0, 0, 0, 2]\nclass = NA", fillcolor="#e539c0"] ;
617 -> 618 ;
619 [label="gini = 0.0\nsamples = 3\nvalue = [0, 0, 3, 0, 0]\nclass = BH", fillcolor="#39e5c5"] ;
617 -> 619 ;
620 [label="SMBVol <= 0.0\ngini = 0.723\nsamples = 444\nvalue = [148, 49, 38, 45, 164]\nclass = NA", fillcolor="#fef4fc"] ;
316 -> 620 ;
621 [label="SBcov <= 0.653\ngini = 0.552\nsamples = 164\nvalue = [100, 0, 4, 19, 41]\nclass = SH", fillcolor="#f3c3a0"] ;
620 -> 621 ;
622 [label="SHCovp <= -148.206\ngini = 0.602\nsamples = 43\nvalue = [2, 0, 3, 19, 19]\nclass = BL", fillcolor="#ffffff"] ;
621 -> 622 ;
623 [label="HMLp <= -78.624\ngini = 0.405\nsamples = 20\nvalue = [2, 0, 0, 3, 15]\nclass = NA", fillcolor="#ed73d3"] ;
622 -> 623 ;
624 [label="Rsqr <= 0.643\ngini = 0.653\nsamples = 7\nvalue = [2, 0, 0, 3, 2]\nclass = BL", fillcolor="#d8d7fa"] ;
623 -> 624 ;
625 [label="HLcov <= 0.887\ngini = 0.48\nsamples = 5\nvalue = [0, 0, 0, 3, 2]\nclass = BL", fillcolor="#bebdf6"] ;
624 -> 625 ;
626 [label="gini = 0.0\nsamples = 2\nvalue = [0, 0, 0, 2, 0]\nclass = BL", fillcolor="#3c39e5"] ;
625 -> 626 ;
627 [label="Rsqr <= 0.624\ngini = 0.444\nsamples = 3\nvalue = [0, 0, 0, 1, 2]\nclass = NA", fillcolor="#f29ce0"] ;
625 -> 627 ;
628 [label="gini = 0.0\nsamples = 1\nvalue = [0, 0, 0, 1, 0]\nclass = BL", fillcolor="#3c39e5"] ;
627 -> 628 ;
629 [label="gini = 0.0\nsamples = 2\nvalue = [0, 0, 0, 0, 2]\nclass = NA", fillcolor="#e539c0"] ;
627 -> 629 ;
630 [label="gini = 0.0\nsamples = 2\nvalue = [2, 0, 0, 0, 0]\nclass = SH", fillcolor="#e58139"] ;
624 -> 630 ;
631 [label="gini = 0.0\nsamples = 13\nvalue = [0, 0, 0, 0, 13]\nclass = NA", fillcolor="#e539c0"] ;
623 -> 631 ;
632 [label="HLcov <= 0.625\ngini = 0.469\nsamples = 23\nvalue = [0, 0, 3, 16, 4]\nclass = BL", fillcolor="#8482ef"] ;
622 -> 632 ;
633 [label="SBcov <= 0.433\ngini = 0.5\nsamples = 6\nvalue = [0, 0, 3, 0, 3]\nclass = BH", fillcolor="#ffffff"] ;
632 -> 633 ;
634 [label="SMBVol <= 0.0\ngini = 0.375\nsamples = 4\nvalue = [0, 0, 3, 0, 1]\nclass = BH", fillcolor="#7beed8"] ;
633 -> 634 ;
635 [label="gini = 0.0\nsamples = 3\nvalue = [0, 0, 3, 0, 0]\nclass = BH", fillcolor="#39e5c5"] ;
634 -> 635 ;
636 [label="gini = 0.0\nsamples = 1\nvalue = [0, 0, 0, 0, 1]\nclass = NA", fillcolor="#e539c0"] ;
634 -> 636 ;
637 [label="gini = 0.0\nsamples = 2\nvalue = [0, 0, 0, 0, 2]\nclass = NA", fillcolor="#e539c0"] ;
633 -> 637 ;
638 [label="CBOEVIX_spr <= -0.003\ngini = 0.111\nsamples = 17\nvalue = [0, 0, 0, 16, 1]\nclass = BL", fillcolor="#4845e7"] ;
632 -> 638 ;
639 [label="HLcov <= 0.782\ngini = 0.5\nsamples = 2\nvalue = [0, 0, 0, 1, 1]\nclass = BL", fillcolor="#ffffff"] ;
638 -> 639 ;
640 [label="gini = 0.0\nsamples = 1\nvalue = [0, 0, 0, 1, 0]\nclass = BL", fillcolor="#3c39e5"] ;
639 -> 640 ;
641 [label="gini = 0.0\nsamples = 1\nvalue = [0, 0, 0, 0, 1]\nclass = NA", fillcolor="#e539c0"] ;
639 -> 641 ;
642 [label="gini = 0.0\nsamples = 15\nvalue = [0, 0, 0, 15, 0]\nclass = BL", fillcolor="#3c39e5"] ;
638 -> 642 ;
643 [label="HMLVol <= 0.0\ngini = 0.311\nsamples = 121\nvalue = [98, 0, 1, 0, 22]\nclass = SH", fillcolor="#eb9e67"] ;
621 -> 643 ;
644 [label="SMBVol <= 0.0\ngini = 0.201\nsamples = 107\nvalue = [95, 0, 1, 0, 11]\nclass = SH", fillcolor="#e89152"] ;
643 -> 644 ;
645 [label="HMLp <= -87.904\ngini = 0.499\nsamples = 19\nvalue = [12, 0, 1, 0, 6]\nclass = SH", fillcolor="#f3c5a4"] ;
644 -> 645 ;
646 [label="gini = 0.0\nsamples = 6\nvalue = [6, 0, 0, 0, 0]\nclass = SH", fillcolor="#e58139"] ;
645 -> 646 ;
647 [label="Rsqr <= 0.594\ngini = 0.568\nsamples = 13\nvalue = [6, 0, 1, 0, 6]\nclass = SH", fillcolor="#ffffff"] ;
645 -> 647 ;
648 [label="SMBVol <= 0.0\ngini = 0.278\nsamples = 6\nvalue = [0, 0, 1, 0, 5]\nclass = NA", fillcolor="#ea61cd"] ;
647 -> 648 ;
649 [label="gini = 0.0\nsamples = 1\nvalue = [0, 0, 1, 0, 0]\nclass = BH", fillcolor="#39e5c5"] ;
648 -> 649 ;
650 [label="gini = 0.0\nsamples = 5\nvalue = [0, 0, 0, 0, 5]\nclass = NA", fillcolor="#e539c0"] ;
648 -> 650 ;
651 [label="CBOEVIX_spr <= -0.002\ngini = 0.245\nsamples = 7\nvalue = [6, 0, 0, 0, 1]\nclass = SH", fillcolor="#e9965a"] ;
647 -> 651 ;
652 [label="gini = 0.0\nsamples = 6\nvalue = [6, 0, 0, 0, 0]\nclass = SH", fillcolor="#e58139"] ;
651 -> 652 ;
653 [label="gini = 0.0\nsamples = 1\nvalue = [0, 0, 0, 0, 1]\nclass = NA", fillcolor="#e539c0"] ;
651 -> 653 ;
654 [label="Rsqr <= 0.772\ngini = 0.107\nsamples = 88\nvalue = [83, 0, 0, 0, 5]\nclass = SH", fillcolor="#e78945"] ;
644 -> 654 ;
655 [label="HMLVol <= 0.0\ngini = 0.068\nsamples = 85\nvalue = [82, 0, 0, 0, 3]\nclass = SH", fillcolor="#e68640"] ;
654 -> 655 ;
656 [label="Rsqr <= 0.412\ngini = 0.32\nsamples = 5\nvalue = [4, 0, 0, 0, 1]\nclass = SH", fillcolor="#eca06a"] ;
655 -> 656 ;
657 [label="gini = 0.0\nsamples = 1\nvalue = [0, 0, 0, 0, 1]\nclass = NA", fillcolor="#e539c0"] ;
656 -> 657 ;
658 [label="gini = 0.0\nsamples = 4\nvalue = [4, 0, 0, 0, 0]\nclass = SH", fillcolor="#e58139"] ;
656 -> 658 ;
659 [label="CBOEVIX_spr <= -0.001\ngini = 0.049\nsamples = 80\nvalue = [78, 0, 0, 0, 2]\nclass = SH", fillcolor="#e6843e"] ;
655 -> 659 ;
660 [label="SBcov <= 1.327\ngini = 0.027\nsamples = 74\nvalue = [73, 0, 0, 0, 1]\nclass = SH", fillcolor="#e5833c"] ;
659 -> 660 ;
661 [label="gini = 0.0\nsamples = 59\nvalue = [59, 0, 0, 0, 0]\nclass = SH", fillcolor="#e58139"] ;
660 -> 661 ;
662 [label="HMLp <= -34.405\ngini = 0.124\nsamples = 15\nvalue = [14, 0, 0, 0, 1]\nclass = SH", fillcolor="#e78a47"] ;
660 -> 662 ;
663 [label="gini = 0.0\nsamples = 1\nvalue = [0, 0, 0, 0, 1]\nclass = NA", fillcolor="#e539c0"] ;
662 -> 663 ;
664 [label="gini = 0.0\nsamples = 14\nvalue = [14, 0, 0, 0, 0]\nclass = SH", fillcolor="#e58139"] ;
662 -> 664 ;
665 [label="CBOEVIX_spr <= -0.001\ngini = 0.278\nsamples = 6\nvalue = [5, 0, 0, 0, 1]\nclass = SH", fillcolor="#ea9a61"] ;
659 -> 665 ;
666 [label="gini = 0.0\nsamples = 1\nvalue = [0, 0, 0, 0, 1]\nclass = NA", fillcolor="#e539c0"] ;
665 -> 666 ;
667 [label="gini = 0.0\nsamples = 5\nvalue = [5, 0, 0, 0, 0]\nclass = SH", fillcolor="#e58139"] ;
665 -> 667 ;
668 [label="SBcov <= 1.462\ngini = 0.444\nsamples = 3\nvalue = [1, 0, 0, 0, 2]\nclass = NA", fillcolor="#f29ce0"] ;
654 -> 668 ;
669 [label="gini = 0.0\nsamples = 2\nvalue = [0, 0, 0, 0, 2]\nclass = NA", fillcolor="#e539c0"] ;
668 -> 669 ;
670 [label="gini = 0.0\nsamples = 1\nvalue = [1, 0, 0, 0, 0]\nclass = SH", fillcolor="#e58139"] ;
668 -> 670 ;
671 [label="SHCov <= 0.0\ngini = 0.337\nsamples = 14\nvalue = [3, 0, 0, 0, 11]\nclass = NA", fillcolor="#ec6fd1"] ;
643 -> 671 ;
672 [label="gini = 0.0\nsamples = 8\nvalue = [0, 0, 0, 0, 8]\nclass = NA", fillcolor="#e539c0"] ;
671 -> 672 ;
673 [label="HMLp <= 283.385\ngini = 0.5\nsamples = 6\nvalue = [3, 0, 0, 0, 3]\nclass = SH", fillcolor="#ffffff"] ;
671 -> 673 ;
674 [label="gini = 0.0\nsamples = 3\nvalue = [3, 0, 0, 0, 0]\nclass = SH", fillcolor="#e58139"] ;
673 -> 674 ;
675 [label="gini = 0.0\nsamples = 3\nvalue = [0, 0, 0, 0, 3]\nclass = NA", fillcolor="#e539c0"] ;
673 -> 675 ;
676 [label="Rsqr <= 0.791\ngini = 0.724\nsamples = 280\nvalue = [48, 49, 34, 26, 123]\nclass = NA", fillcolor="#f7c0eb"] ;
620 -> 676 ;
677 [label="SMBp <= -230.383\ngini = 0.696\nsamples = 261\nvalue = [48, 49, 18, 23, 123]\nclass = NA", fillcolor="#f6bae9"] ;
676 -> 677 ;
678 [label="CBOEVIX_spr <= -0.002\ngini = 0.616\nsamples = 73\nvalue = [35, 3, 5, 2, 28]\nclass = SH", fillcolor="#fbebe0"] ;
677 -> 678 ;
679 [label="SHCovp <= 96.512\ngini = 0.505\nsamples = 52\nvalue = [34, 3, 2, 0, 13]\nclass = SH", fillcolor="#f1bb94"] ;
678 -> 679 ;
680 [label="HMLp <= 109.388\ngini = 0.471\nsamples = 49\nvalue = [34, 3, 2, 0, 10]\nclass = SH", fillcolor="#efb185"] ;
679 -> 680 ;
681 [label="gini = 0.0\nsamples = 20\nvalue = [20, 0, 0, 0, 0]\nclass = SH", fillcolor="#e58139"] ;
680 -> 681 ;
682 [label="HMLp <= 340.678\ngini = 0.633\nsamples = 29\nvalue = [14, 3, 2, 0, 10]\nclass = SH", fillcolor="#fae4d5"] ;
680 -> 682 ;
683 [label="HMLp <= 116.915\ngini = 0.643\nsamples = 19\nvalue = [4, 3, 2, 0, 10]\nclass = NA", fillcolor="#f5b0e6"] ;
682 -> 683 ;
684 [label="HLcov <= 3.009\ngini = 0.571\nsamples = 7\nvalue = [4, 1, 0, 0, 2]\nclass = SH", fillcolor="#f5cdb0"] ;
683 -> 684 ;
685 [label="HMLp <= 111.418\ngini = 0.444\nsamples = 3\nvalue = [0, 1, 0, 0, 2]\nclass = NA", fillcolor="#f29ce0"] ;
684 -> 685 ;
686 [label="gini = 0.0\nsamples = 2\nvalue = [0, 0, 0, 0, 2]\nclass = NA", fillcolor="#e539c0"] ;
685 -> 686 ;
687 [label="gini = 0.0\nsamples = 1\nvalue = [0, 1, 0, 0, 0]\nclass = SL", fillcolor="#7be539"] ;
685 -> 687 ;
688 [label="gini = 0.0\nsamples = 4\nvalue = [4, 0, 0, 0, 0]\nclass = SH", fillcolor="#e58139"] ;
684 -> 688 ;
689 [label="SMBp <= -256.091\ngini = 0.5\nsamples = 12\nvalue = [0, 2, 2, 0, 8]\nclass = NA", fillcolor="#ef88d9"] ;
683 -> 689 ;
690 [label="SBcov <= 2.251\ngini = 0.34\nsamples = 10\nvalue = [0, 1, 1, 0, 8]\nclass = NA", fillcolor="#eb65ce"] ;
689 -> 690 ;
691 [label="gini = 0.0\nsamples = 5\nvalue = [0, 0, 0, 0, 5]\nclass = NA", fillcolor="#e539c0"] ;
690 -> 691 ;
692 [label="SHCov <= 0.0\ngini = 0.56\nsamples = 5\nvalue = [0, 1, 1, 0, 3]\nclass = NA", fillcolor="#f29ce0"] ;
690 -> 692 ;
693 [label="HLcov <= 3.074\ngini = 0.5\nsamples = 2\nvalue = [0, 1, 1, 0, 0]\nclass = SL", fillcolor="#ffffff"] ;
692 -> 693 ;
694 [label="gini = 0.0\nsamples = 1\nvalue = [0, 1, 0, 0, 0]\nclass = SL", fillcolor="#7be539"] ;
693 -> 694 ;
695 [label="gini = 0.0\nsamples = 1\nvalue = [0, 0, 1, 0, 0]\nclass = BH", fillcolor="#39e5c5"] ;
693 -> 695 ;
696 [label="gini = 0.0\nsamples = 3\nvalue = [0, 0, 0, 0, 3]\nclass = NA", fillcolor="#e539c0"] ;
692 -> 696 ;
697 [label="HLcov <= 3.094\ngini = 0.5\nsamples = 2\nvalue = [0, 1, 1, 0, 0]\nclass = SL", fillcolor="#ffffff"] ;
689 -> 697 ;
698 [label="gini = 0.0\nsamples = 1\nvalue = [0, 0, 1, 0, 0]\nclass = BH", fillcolor="#39e5c5"] ;
697 -> 698 ;
699 [label="gini = 0.0\nsamples = 1\nvalue = [0, 1, 0, 0, 0]\nclass = SL", fillcolor="#7be539"] ;
697 -> 699 ;
700 [label="gini = 0.0\nsamples = 10\nvalue = [10, 0, 0, 0, 0]\nclass = SH", fillcolor="#e58139"] ;
682 -> 700 ;
701 [label="gini = 0.0\nsamples = 3\nvalue = [0, 0, 0, 0, 3]\nclass = NA", fillcolor="#e539c0"] ;
679 -> 701 ;
702 [label="HMLVol <= 0.0\ngini = 0.458\nsamples = 21\nvalue = [1, 0, 3, 2, 15]\nclass = NA", fillcolor="#ee7bd5"] ;
678 -> 702 ;
703 [label="HMLVol <= 0.0\ngini = 0.5\nsamples = 2\nvalue = [0, 0, 1, 1, 0]\nclass = BH", fillcolor="#ffffff"] ;
702 -> 703 ;
704 [label="gini = 0.0\nsamples = 1\nvalue = [0, 0, 0, 1, 0]\nclass = BL", fillcolor="#3c39e5"] ;
703 -> 704 ;
705 [label="gini = 0.0\nsamples = 1\nvalue = [0, 0, 1, 0, 0]\nclass = BH", fillcolor="#39e5c5"] ;
703 -> 705 ;
706 [label="HLcov <= 3.158\ngini = 0.36\nsamples = 19\nvalue = [1, 0, 2, 1, 15]\nclass = NA", fillcolor="#eb68cf"] ;
702 -> 706 ;
707 [label="CBOEVIX_spr <= -0.001\ngini = 0.215\nsamples = 17\nvalue = [1, 0, 1, 0, 15]\nclass = NA", fillcolor="#e852c8"] ;
706 -> 707 ;
708 [label="SBcov <= 2.287\ngini = 0.117\nsamples = 16\nvalue = [1, 0, 0, 0, 15]\nclass = NA", fillcolor="#e746c4"] ;
707 -> 708 ;
709 [label="gini = 0.0\nsamples = 13\nvalue = [0, 0, 0, 0, 13]\nclass = NA", fillcolor="#e539c0"] ;
708 -> 709 ;
710 [label="SBcov <= 2.289\ngini = 0.444\nsamples = 3\nvalue = [1, 0, 0, 0, 2]\nclass = NA", fillcolor="#f29ce0"] ;
708 -> 710 ;
711 [label="gini = 0.0\nsamples = 1\nvalue = [1, 0, 0, 0, 0]\nclass = SH", fillcolor="#e58139"] ;
710 -> 711 ;
712 [label="gini = 0.0\nsamples = 2\nvalue = [0, 0, 0, 0, 2]\nclass = NA", fillcolor="#e539c0"] ;
710 -> 712 ;
713 [label="gini = 0.0\nsamples = 1\nvalue = [0, 0, 1, 0, 0]\nclass = BH", fillcolor="#39e5c5"] ;
707 -> 713 ;
714 [label="HMLp <= 313.089\ngini = 0.5\nsamples = 2\nvalue = [0, 0, 1, 1, 0]\nclass = BH", fillcolor="#ffffff"] ;
706 -> 714 ;
715 [label="gini = 0.0\nsamples = 1\nvalue = [0, 0, 0, 1, 0]\nclass = BL", fillcolor="#3c39e5"] ;
714 -> 715 ;
716 [label="gini = 0.0\nsamples = 1\nvalue = [0, 0, 1, 0, 0]\nclass = BH", fillcolor="#39e5c5"] ;
714 -> 716 ;
717 [label="CBOEVIX_spr <= -0.003\ngini = 0.663\nsamples = 188\nvalue = [13, 46, 13, 21, 95]\nclass = NA", fillcolor="#f6bbe9"] ;
677 -> 717 ;
718 [label="SMBp <= 51.419\ngini = 0.601\nsamples = 94\nvalue = [11, 6, 8, 13, 56]\nclass = NA", fillcolor="#f196de"] ;
717 -> 718 ;
719 [label="SBcov <= 2.216\ngini = 0.711\nsamples = 53\nvalue = [8, 4, 6, 11, 24]\nclass = NA", fillcolor="#f7c2ec"] ;
718 -> 719 ;
720 [label="HMLVol <= 0.0\ngini = 0.648\nsamples = 18\nvalue = [8, 0, 5, 0, 5]\nclass = SH", fillcolor="#f9e2d1"] ;
719 -> 720 ;
721 [label="SBcov <= 0.872\ngini = 0.473\nsamples = 13\nvalue = [8, 0, 0, 0, 5]\nclass = SH", fillcolor="#f5d0b5"] ;
720 -> 721 ;
722 [label="gini = 0.0\nsamples = 2\nvalue = [0, 0, 0, 0, 2]\nclass = NA", fillcolor="#e539c0"] ;
721 -> 722 ;
723 [label="SHCovp <= 41.843\ngini = 0.397\nsamples = 11\nvalue = [8, 0, 0, 0, 3]\nclass = SH", fillcolor="#efb083"] ;
721 -> 723 ;
724 [label="HLcov <= 1.462\ngini = 0.219\nsamples = 8\nvalue = [7, 0, 0, 0, 1]\nclass = SH", fillcolor="#e99355"] ;
723 -> 724 ;
725 [label="SHCov <= 0.0\ngini = 0.5\nsamples = 2\nvalue = [1, 0, 0, 0, 1]\nclass = SH", fillcolor="#ffffff"] ;
724 -> 725 ;
726 [label="gini = 0.0\nsamples = 1\nvalue = [0, 0, 0, 0, 1]\nclass = NA", fillcolor="#e539c0"] ;
725 -> 726 ;
727 [label="gini = 0.0\nsamples = 1\nvalue = [1, 0, 0, 0, 0]\nclass = SH", fillcolor="#e58139"] ;
725 -> 727 ;
728 [label="gini = 0.0\nsamples = 6\nvalue = [6, 0, 0, 0, 0]\nclass = SH", fillcolor="#e58139"] ;
724 -> 728 ;
729 [label="CBOEVIX_spr <= -0.003\ngini = 0.444\nsamples = 3\nvalue = [1, 0, 0, 0, 2]\nclass = NA", fillcolor="#f29ce0"] ;
723 -> 729 ;
730 [label="gini = 0.0\nsamples = 1\nvalue = [1, 0, 0, 0, 0]\nclass = SH", fillcolor="#e58139"] ;
729 -> 730 ;
731 [label="gini = 0.0\nsamples = 2\nvalue = [0, 0, 0, 0, 2]\nclass = NA", fillcolor="#e539c0"] ;
729 -> 731 ;
732 [label="gini = 0.0\nsamples = 5\nvalue = [0, 0, 5, 0, 0]\nclass = BH", fillcolor="#39e5c5"] ;
720 -> 732 ;
733 [label="HMLp <= 267.007\ngini = 0.593\nsamples = 35\nvalue = [0, 4, 1, 11, 19]\nclass = NA", fillcolor="#f6bdea"] ;
719 -> 733 ;
734 [label="CBOEVIX_spr <= -0.004\ngini = 0.541\nsamples = 22\nvalue = [0, 0, 1, 11, 10]\nclass = BL", fillcolor="#efeefd"] ;
733 -> 734 ;
735 [label="CBOEVIX_spr <= -0.004\ngini = 0.543\nsamples = 19\nvalue = [0, 0, 1, 8, 10]\nclass = NA", fillcolor="#fadbf4"] ;
734 -> 735 ;
736 [label="CBOEVIX_spr <= -0.004\ngini = 0.555\nsamples = 16\nvalue = [0, 0, 1, 8, 7]\nclass = BL", fillcolor="#e9e9fc"] ;
735 -> 736 ;
737 [label="SBcov <= 2.256\ngini = 0.556\nsamples = 13\nvalue = [0, 0, 1, 5, 7]\nclass = NA", fillcolor="#f8ceef"] ;
736 -> 737 ;
738 [label="CBOEVIX_spr <= -0.006\ngini = 0.568\nsamples = 9\nvalue = [0, 0, 1, 5, 3]\nclass = BL", fillcolor="#bebdf6"] ;
737 -> 738 ;
739 [label="gini = 0.0\nsamples = 2\nvalue = [0, 0, 0, 0, 2]\nclass = NA", fillcolor="#e539c0"] ;
738 -> 739 ;
740 [label="HMLVol <= 0.0\ngini = 0.449\nsamples = 7\nvalue = [0, 0, 1, 5, 1]\nclass = BL", fillcolor="#7d7bee"] ;
738 -> 740 ;
741 [label="HLcov <= 2.96\ngini = 0.278\nsamples = 6\nvalue = [0, 0, 1, 5, 0]\nclass = BL", fillcolor="#6361ea"] ;
740 -> 741 ;
742 [label="gini = 0.0\nsamples = 1\nvalue = [0, 0, 1, 0, 0]\nclass = BH", fillcolor="#39e5c5"] ;
741 -> 742 ;
743 [label="gini = 0.0\nsamples = 5\nvalue = [0, 0, 0, 5, 0]\nclass = BL", fillcolor="#3c39e5"] ;
741 -> 743 ;
744 [label="gini = 0.0\nsamples = 1\nvalue = [0, 0, 0, 0, 1]\nclass = NA", fillcolor="#e539c0"] ;
740 -> 744 ;
745 [label="gini = 0.0\nsamples = 4\nvalue = [0, 0, 0, 0, 4]\nclass = NA", fillcolor="#e539c0"] ;
737 -> 745 ;
746 [label="gini = 0.0\nsamples = 3\nvalue = [0, 0, 0, 3, 0]\nclass = BL", fillcolor="#3c39e5"] ;
736 -> 746 ;
747 [label="gini = 0.0\nsamples = 3\nvalue = [0, 0, 0, 0, 3]\nclass = NA", fillcolor="#e539c0"] ;
735 -> 747 ;
748 [label="gini = 0.0\nsamples = 3\nvalue = [0, 0, 0, 3, 0]\nclass = BL", fillcolor="#3c39e5"] ;
734 -> 748 ;
749 [label="CBOEVIX_spr <= -0.005\ngini = 0.426\nsamples = 13\nvalue = [0, 4, 0, 0, 9]\nclass = NA", fillcolor="#f191dc"] ;
733 -> 749 ;
750 [label="gini = 0.0\nsamples = 2\nvalue = [0, 2, 0, 0, 0]\nclass = SL", fillcolor="#7be539"] ;
749 -> 750 ;
751 [label="SHCovp <= -737.422\ngini = 0.298\nsamples = 11\nvalue = [0, 2, 0, 0, 9]\nclass = NA", fillcolor="#eb65ce"] ;
749 -> 751 ;
752 [label="gini = 0.0\nsamples = 1\nvalue = [0, 1, 0, 0, 0]\nclass = SL", fillcolor="#7be539"] ;
751 -> 752 ;
753 [label="HLcov <= 3.07\ngini = 0.18\nsamples = 10\nvalue = [0, 1, 0, 0, 9]\nclass = NA", fillcolor="#e84fc7"] ;
751 -> 753 ;
754 [label="gini = 0.0\nsamples = 1\nvalue = [0, 1, 0, 0, 0]\nclass = SL", fillcolor="#7be539"] ;
753 -> 754 ;
755 [label="gini = 0.0\nsamples = 9\nvalue = [0, 0, 0, 0, 9]\nclass = NA", fillcolor="#e539c0"] ;
753 -> 755 ;
756 [label="SMBp <= 416.042\ngini = 0.378\nsamples = 41\nvalue = [3, 2, 2, 2, 32]\nclass = NA", fillcolor="#eb68cf"] ;
718 -> 756 ;
757 [label="HLcov <= 1.457\ngini = 0.283\nsamples = 38\nvalue = [2, 0, 2, 2, 32]\nclass = NA", fillcolor="#e95acb"] ;
756 -> 757 ;
758 [label="gini = 0.0\nsamples = 1\nvalue = [0, 0, 0, 1, 0]\nclass = BL", fillcolor="#3c39e5"] ;
757 -> 758 ;
759 [label="CBOEVIX_spr <= -0.005\ngini = 0.245\nsamples = 37\nvalue = [2, 0, 2, 1, 32]\nclass = NA", fillcolor="#e955c9"] ;
757 -> 759 ;
760 [label="HMLp <= 225.354\ngini = 0.531\nsamples = 8\nvalue = [2, 0, 1, 0, 5]\nclass = NA", fillcolor="#f29ce0"] ;
759 -> 760 ;
761 [label="SMBVol <= 0.0\ngini = 0.278\nsamples = 6\nvalue = [0, 0, 1, 0, 5]\nclass = NA", fillcolor="#ea61cd"] ;
760 -> 761 ;
762 [label="gini = 0.0\nsamples = 1\nvalue = [0, 0, 1, 0, 0]\nclass = BH", fillcolor="#39e5c5"] ;
761 -> 762 ;
763 [label="gini = 0.0\nsamples = 5\nvalue = [0, 0, 0, 0, 5]\nclass = NA", fillcolor="#e539c0"] ;
761 -> 763 ;
764 [label="gini = 0.0\nsamples = 2\nvalue = [2, 0, 0, 0, 0]\nclass = SH", fillcolor="#e58139"] ;
760 -> 764 ;
765 [label="CBOEVIX_spr <= -0.003\ngini = 0.131\nsamples = 29\nvalue = [0, 0, 1, 1, 27]\nclass = NA", fillcolor="#e747c4"] ;
759 -> 765 ;
766 [label="SBcov <= 1.24\ngini = 0.071\nsamples = 27\nvalue = [0, 0, 0, 1, 26]\nclass = NA", fillcolor="#e641c2"] ;
765 -> 766 ;
767 [label="CBOEVIX_spr <= -0.004\ngini = 0.444\nsamples = 3\nvalue = [0, 0, 0, 1, 2]\nclass = NA", fillcolor="#f29ce0"] ;
766 -> 767 ;
768 [label="gini = 0.0\nsamples = 1\nvalue = [0, 0, 0, 1, 0]\nclass = BL", fillcolor="#3c39e5"] ;
767 -> 768 ;
769 [label="gini = 0.0\nsamples = 2\nvalue = [0, 0, 0, 0, 2]\nclass = NA", fillcolor="#e539c0"] ;
767 -> 769 ;
770 [label="gini = 0.0\nsamples = 24\nvalue = [0, 0, 0, 0, 24]\nclass = NA", fillcolor="#e539c0"] ;
766 -> 770 ;
771 [label="SHCovp <= 68.804\ngini = 0.5\nsamples = 2\nvalue = [0, 0, 1, 0, 1]\nclass = BH", fillcolor="#ffffff"] ;
765 -> 771 ;
772 [label="gini = 0.0\nsamples = 1\nvalue = [0, 0, 0, 0, 1]\nclass = NA", fillcolor="#e539c0"] ;
771 -> 772 ;
773 [label="gini = 0.0\nsamples = 1\nvalue = [0, 0, 1, 0, 0]\nclass = BH", fillcolor="#39e5c5"] ;
771 -> 773 ;
774 [label="SMBVol <= 0.0\ngini = 0.444\nsamples = 3\nvalue = [1, 2, 0, 0, 0]\nclass = SL", fillcolor="#bdf29c"] ;
756 -> 774 ;
775 [label="gini = 0.0\nsamples = 1\nvalue = [1, 0, 0, 0, 0]\nclass = SH", fillcolor="#e58139"] ;
774 -> 775 ;
776 [label="gini = 0.0\nsamples = 2\nvalue = [0, 2, 0, 0, 0]\nclass = SL", fillcolor="#7be539"] ;
774 -> 776 ;
777 [label="HLcov <= 1.721\ngini = 0.636\nsamples = 94\nvalue = [2, 40, 5, 8, 39]\nclass = SL", fillcolor="#fdfffb"] ;
717 -> 777 ;
778 [label="HLcov <= 1.583\ngini = 0.598\nsamples = 68\nvalue = [2, 36, 5, 2, 23]\nclass = SL", fillcolor="#d9f7c6"] ;
777 -> 778 ;
779 [label="HMLp <= -45.469\ngini = 0.634\nsamples = 33\nvalue = [2, 9, 5, 0, 17]\nclass = NA", fillcolor="#f6bdea"] ;
778 -> 779 ;
780 [label="HMLp <= -65.094\ngini = 0.48\nsamples = 5\nvalue = [2, 0, 3, 0, 0]\nclass = BH", fillcolor="#bdf6ec"] ;
779 -> 780 ;
781 [label="gini = 0.0\nsamples = 2\nvalue = [2, 0, 0, 0, 0]\nclass = SH", fillcolor="#e58139"] ;
780 -> 781 ;
782 [label="gini = 0.0\nsamples = 3\nvalue = [0, 0, 3, 0, 0]\nclass = BH", fillcolor="#39e5c5"] ;
780 -> 782 ;
783 [label="Rsqr <= 0.258\ngini = 0.523\nsamples = 28\nvalue = [0, 9, 2, 0, 17]\nclass = NA", fillcolor="#f4ace4"] ;
779 -> 783 ;
784 [label="Rsqr <= 0.223\ngini = 0.5\nsamples = 16\nvalue = [0, 8, 0, 0, 8]\nclass = SL", fillcolor="#ffffff"] ;
783 -> 784 ;
785 [label="gini = 0.0\nsamples = 5\nvalue = [0, 0, 0, 0, 5]\nclass = NA", fillcolor="#e539c0"] ;
784 -> 785 ;
786 [label="CBOEVIX_spr <= -0.001\ngini = 0.397\nsamples = 11\nvalue = [0, 8, 0, 0, 3]\nclass = SL", fillcolor="#acef83"] ;
784 -> 786 ;
787 [label="SMBp <= 545.706\ngini = 0.198\nsamples = 9\nvalue = [0, 8, 0, 0, 1]\nclass = SL", fillcolor="#8ce852"] ;
786 -> 787 ;
788 [label="gini = 0.0\nsamples = 8\nvalue = [0, 8, 0, 0, 0]\nclass = SL", fillcolor="#7be539"] ;
787 -> 788 ;
789 [label="gini = 0.0\nsamples = 1\nvalue = [0, 0, 0, 0, 1]\nclass = NA", fillcolor="#e539c0"] ;
787 -> 789 ;
790 [label="gini = 0.0\nsamples = 2\nvalue = [0, 0, 0, 0, 2]\nclass = NA", fillcolor="#e539c0"] ;
786 -> 790 ;
791 [label="SMBp <= 422.613\ngini = 0.403\nsamples = 12\nvalue = [0, 1, 2, 0, 9]\nclass = NA", fillcolor="#ed74d3"] ;
783 -> 791 ;
792 [label="CBOEVIX_spr <= -0.003\ngini = 0.198\nsamples = 9\nvalue = [0, 1, 0, 0, 8]\nclass = NA", fillcolor="#e852c8"] ;
791 -> 792 ;
793 [label="SMBp <= 236.86\ngini = 0.5\nsamples = 2\nvalue = [0, 1, 0, 0, 1]\nclass = SL", fillcolor="#ffffff"] ;
792 -> 793 ;
794 [label="gini = 0.0\nsamples = 1\nvalue = [0, 1, 0, 0, 0]\nclass = SL", fillcolor="#7be539"] ;
793 -> 794 ;
795 [label="gini = 0.0\nsamples = 1\nvalue = [0, 0, 0, 0, 1]\nclass = NA", fillcolor="#e539c0"] ;
793 -> 795 ;
796 [label="gini = 0.0\nsamples = 7\nvalue = [0, 0, 0, 0, 7]\nclass = NA", fillcolor="#e539c0"] ;
792 -> 796 ;
797 [label="Rsqr <= 0.301\ngini = 0.444\nsamples = 3\nvalue = [0, 0, 2, 0, 1]\nclass = BH", fillcolor="#9cf2e2"] ;
791 -> 797 ;
798 [label="gini = 0.0\nsamples = 2\nvalue = [0, 0, 2, 0, 0]\nclass = BH", fillcolor="#39e5c5"] ;
797 -> 798 ;
799 [label="gini = 0.0\nsamples = 1\nvalue = [0, 0, 0, 0, 1]\nclass = NA", fillcolor="#e539c0"] ;
797 -> 799 ;
800 [label="Rsqr <= 0.738\ngini = 0.372\nsamples = 35\nvalue = [0, 27, 0, 2, 6]\nclass = SL", fillcolor="#9fec70"] ;
778 -> 800 ;
801 [label="HMLp <= -23.818\ngini = 0.264\nsamples = 32\nvalue = [0, 27, 0, 0, 5]\nclass = SL", fillcolor="#93ea5e"] ;
800 -> 801 ;
802 [label="HMLp <= -24.574\ngini = 0.43\nsamples = 16\nvalue = [0, 11, 0, 0, 5]\nclass = SL", fillcolor="#b7f193"] ;
801 -> 802 ;
803 [label="HMLVol <= 0.0\ngini = 0.278\nsamples = 12\nvalue = [0, 10, 0, 0, 2]\nclass = SL", fillcolor="#95ea61"] ;
802 -> 803 ;
804 [label="gini = 0.0\nsamples = 1\nvalue = [0, 0, 0, 0, 1]\nclass = NA", fillcolor="#e539c0"] ;
803 -> 804 ;
805 [label="SHCov <= 0.0\ngini = 0.165\nsamples = 11\nvalue = [0, 10, 0, 0, 1]\nclass = SL", fillcolor="#88e84d"] ;
803 -> 805 ;
806 [label="gini = 0.0\nsamples = 1\nvalue = [0, 0, 0, 0, 1]\nclass = NA", fillcolor="#e539c0"] ;
805 -> 806 ;
807 [label="gini = 0.0\nsamples = 10\nvalue = [0, 10, 0, 0, 0]\nclass = SL", fillcolor="#7be539"] ;
805 -> 807 ;
808 [label="SBcov <= 1.333\ngini = 0.375\nsamples = 4\nvalue = [0, 1, 0, 0, 3]\nclass = NA", fillcolor="#ee7bd5"] ;
802 -> 808 ;
809 [label="gini = 0.0\nsamples = 1\nvalue = [0, 1, 0, 0, 0]\nclass = SL", fillcolor="#7be539"] ;
808 -> 809 ;
810 [label="gini = 0.0\nsamples = 3\nvalue = [0, 0, 0, 0, 3]\nclass = NA", fillcolor="#e539c0"] ;
808 -> 810 ;
